{
  "layers": [
    {
      "activation": 2,
      "biases": [
        0.0,
        0.012791565444291591,
        0.015224366654165426
      ],
      "cols": 3,
      "rows": 1,
      "weights": [
        [
          -0.25528873509191347,
          0.9029522819069425,
          1.273785008477508
        ]
      ]
    },
    {
      "activation": 2,
      "biases": [
        0.0,
        0.0,
        0.0,
        0.008182873914992292,
        0.021047690283507756,
        0.0
      ],
      "cols": 6,
      "rows": 3,
      "weights": [
        [
          -0.05852041861187737,
          0.5439755348823845,
          0.6400032765967372,
          0.7082864174686119,
          0.017241711476567473,
          -0.7573503797428431
        ],
        [
          -0.49079217284025667,
          -0.5318984604388578,
          0.009112619500026892,
          -0.296761979584978,
          0.7981471825287348,
          0.3938643252846155
        ],
        [
          -0.4955883943053358,
          -0.6128565991377161,
          -0.3455612774619132,
          0.6291253700944515,
          0.46874513398309414,
          -0.47656310346978675
        ]
      ]
    },
    {
      "activation": 2,
      "biases": [
        0.01536589238950454,
        -0.024506049030850865,
        0.0,
        -0.0685119514811549,
        0.0,
        -0.07064924278116079,
        -0.050064500600411226,
        -0.12482856385214205,
        0.0
      ],
      "cols": 9,
      "rows": 6,
      "weights": [
        [
          0.18232369977784374,
          0.34080335846091636,
          -0.30115446488403524,
          -0.22169588171818186,
          0.5658599253670619,
          -0.06638614728519675,
          0.32560091187012064,
          -0.5116262870595479,
          -0.4799340739247215
        ],
        [
          -0.5650860689733117,
          0.36474755565246053,
          -0.5939239725061091,
          0.3853107049361658,
          -0.4585250782088476,
          -0.10041891489761062,
          0.3692626457541872,
          -0.037593079963530195,
          0.08587510470886868
        ],
        [
          -0.44929221677294695,
          0.5531513805175743,
          0.5979117093650262,
          -0.42763016270127596,
          -0.5927871577945414,
          -0.3493432182942114,
          0.5436068761962487,
          0.6286370866239642,
          0.03936074110814027
        ],
        [
          0.4113191835979855,
          -0.14117967157800376,
          -0.616304717114648,
          0.035575400664210784,
          -0.5342204583944865,
          0.3044200464657356,
          -0.0745807398081491,
          -0.32929806708441084,
          -0.012510702711792445
        ],
        [
          0.22271487789693703,
          0.7588259000158178,
          0.12332310165539748,
          -0.5543255184887098,
          -0.30451148607237544,
          -0.3448142897539101,
          0.07322956492406926,
          0.4142562923288026,
          -0.2921438419154503
        ],
        [
          0.20239701640004581,
          -0.5017075211244035,
          -0.4978644841249033,
          -0.47900238370103687,
          -0.09438120190918928,
          0.528727662639675,
          0.31561405226461675,
          -0.21128608858874165,
          0.32319963648694927
        ]
      ]
    },
    {
      "activation": 2,
      "biases": [
        -0.16928770879911093,
        0.0,
        -0.020179123841554774,
        -0.3506398477317124,
        -0.228198177929626,
        0.0,
        -0.011078127874091044,
        -0.0778768707529691,
        0.20621974158467835,
        0.2194034572461299,
        -0.09344437685950427,
        0.1416021675383423,
        -0.10285899178204028,
        -0.15599947797719654,
        -0.019061355404126953
      ],
      "cols": 15,
      "rows": 9,
      "weights": [
        [
          0.3703535499128709,
          -0.20647396319847272,
          -0.18824648376938258,
          0.30428899194880277,
          0.11427324198048698,
          -0.4554685661361872,
          0.08288142221161575,
          0.09153299098907791,
          0.22509300157088036,
          0.2929862263007588,
          -0.5035158381202539,
          0.17646580556816618,
          -0.4457202731002301,
          0.10669572154946513,
          0.5649924029182813
        ],
        [
          -0.4870533945316311,
          -0.20789947673114922,
          0.14109774514663365,
          0.0791218429550323,
          -0.04055828297280643,
          -0.06019105089837268,
          -0.22147111516801268,
          -0.17731666071380758,
          -0.346244372431788,
          -0.35406222703989076,
          -0.323651173166709,
          0.5025623817313305,
          0.43605799092980213,
          -0.15584110961593955,
          0.6084895165309591
        ],
        [
          -0.17053590559891235,
          -0.16650542042521083,
          -0.3761308015678687,
          -0.4875006498710721,
          -0.48007278050299396,
          0.3690075510502828,
          -0.10755198011526462,
          -0.1670830592825464,
          -0.18867894387276796,
          0.14345000807356556,
          -0.16811081006569362,
          -0.3414800021990575,
          -0.3539765187790508,
          0.14472577750902893,
          0.11918132129087178
        ],
        [
          -0.1988807647894216,
          -0.45660108651807585,
          0.36961804883071125,
          -0.4238975530584715,
          0.4167780861802297,
          -0.09008949789688431,
          0.374210878640975,
          -0.16497736175776334,
          -0.12566410175718126,
          -0.03413094852833034,
          -0.4383847741123218,
          -0.2523557917885916,
          -0.28335111950680203,
          0.4016674613864371,
          0.078449148648597
        ],
        [
          -0.3974932585365573,
          -0.09446110930035873,
          0.17054669776491205,
          -0.45999291025101807,
          -0.21070556887923997,
          -0.13419115293500533,
          -0.36350242926902254,
          0.22548093727113727,
          0.3484828517998023,
          -0.2503675598420052,
          0.06710149420755984,
          0.35030068776118606,
          -0.2822655508212119,
          0.038581543852845956,
          0.40778799723265136
        ],
        [
          0.3307104397222722,
          0.392135988870699,
          0.3783493348762157,
          -0.100880072351958,
          -0.3284961533865408,
          -0.350707378634581,
          -0.38532565485925835,
          -0.3418872839966264,
          -0.0486613639087973,
          0.07261891320607976,
          -0.22518685354161394,
          -0.4961926141052186,
          -0.037112652108591326,
          0.4401139788612276,
          -0.30709730456258205
        ],
        [
          -0.18093540504618333,
          -0.3704350501626893,
          -0.08272873544261267,
          0.12720668827031514,
          -0.05433696049191235,
          -0.33891271140375767,
          -0.21992478184346875,
          -0.10782403634975057,
          0.33148888406367133,
          0.19745564879139907,
          0.2746160094665138,
          0.026646134706674585,
          0.23517027079204011,
          0.2119024953963315,
          0.06774982262037688
        ],
        [
          0.018647388796623532,
          0.09811191568063193,
          -0.4218565839910212,
          -0.4286725404214718,
          0.19994977075772474,
          -0.10594056295507615,
          -0.3890567095433626,
          0.28890472336184336,
          -0.09197521443028227,
          -0.25324595194653643,
          0.4330155753907409,
          -0.3261469497662774,
          0.3063136319828982,
          -0.03154083524804859,
          0.5175305917573338
        ],
        [
          0.4066635048513596,
          -0.03303315561871656,
          -0.14360713709313755,
          -0.17670344965378915,
          -0.27288959770132304,
          0.4569584140353643,
          0.12388270470494533,
          -0.33489756185323816,
          0.3019691807227066,
          0.26468152867848127,
          -0.33794019084327864,
          0.303418380116773,
          0.3467706362003323,
          0.43370947983754304,
          0.18282148460057634
        ]
      ]
    },
    {
      "activation": 0,
      "biases": [
        0.8953537035965815,
        0.5064308936491044,
        0.46995889679760494,
        0.608562451796687,
        0.701502462198629,
        0.6854038567745192,
        0.939762106784881,
        0.41730154884299475,
        0.18282662872393463,
        -0.08144885109331297,
        0.04546957127720428,
        -0.10471853687093231,
        0.9242098871335337,
        0.6255384217100356,
        0.33862679161562087,
        0.5424253975202475,
        0.3910091356792143
      ],
      "cols": 17,
      "rows": 15,
      "weights": [
        [
          -0.27597443169023383,
          -0.20315474632025737,
          0.13700820445873307,
          -0.38517857886203616,
          -0.16341983511146074,
          0.01862773762988694,
          -0.3701970647061613,
          0.04692894584687372,
          0.10791688361470894,
          0.24576175986207333,
          0.12340792800344476,
          0.1214120931430524,
          0.22839371585695614,
          0.42881855028679994,
          -0.22339049496503482,
          -0.3246335222148656,
          0.42442837434521374
        ],
        [
          0.3335041875872365,
          -0.21588859640858607,
          0.2209766221121687,
          0.37467310860759456,
          0.030779905388268386,
          0.42265291337821004,
          0.2671500696401178,
          0.011552504115005554,
          0.1043063253260976,
          0.010393437940306581,
          0.04943325266323791,
          0.15627954297328742,
          0.35956868464700387,
          0.004998201751898776,
          -0.14694461854107665,
          -0.23440077179739302,
          -0.38403591221285416
        ],
        [
          0.2884545616390267,
          0.20678549195637094,
          -0.4288578053328184,
          0.2602458307081175,
          0.30070965159274854,
          0.3871536696974762,
          -0.35044159309071926,
          0.17320465965135673,
          0.24099869878160113,
          -0.25468293687965216,
          0.3062505853461763,
          -0.06483644840495696,
          0.14560489122479825,
          0.0003250548558851664,
          0.20623169416880768,
          -0.02418535435498462,
          -0.00424075235558777
        ],
        [
          0.2927197596272314,
          0.3909343364111709,
          -0.06031578019873735,
          0.1897609303577324,
          -0.17178215294524715,
          -0.40308113271455426,
          -0.11765217233355886,
          0.19205184310796117,
          -0.03945475166742094,
          -0.33691691690487924,
          -0.2459397517526952,
          0.013203763720495388,
          0.0015310443858216624,
          0.07185328563083582,
          -0.2696743441018435,
          0.14457109095259713,
          -0.26769381714252644
        ],
        [
          -0.28344314659509434,
          -0.03591615759887557,
          0.1813104710598212,
          0.13820616610734598,
          -0.36185714625235144,
          -0.2672670340275349,
          0.39932519168475966,
          0.14819658363210442,
          0.02002016854359833,
          -0.037547275689965444,
          0.3541505353468541,
          0.09223230729987086,
          -0.06543812598734243,
          0.22080694912928361,
          -0.2826603410840775,
          0.2948598801799886,
          -0.28996085060189264
        ],
        [
          0.27969624878837673,
          0.41971829489042406,
          0.2830172711950944,
          -0.35738170966799704,
          -0.22523126169491173,
          -0.07400560461711214,
          -0.41842023935118117,
          0.34294877647184346,
          -0.013015832837901318,
          0.07082968037713346,
          -0.1067316645730609,
          -0.3752030060640115,
          0.06149748248384797,
          0.1613751470113596,
          -0.21301022785851895,
          0.21442706104741208,
          -0.2676374793045584
        ],
        [
          0.07854218762063023,
          0.43428938513959786,
          -0.40556084199546244,
          0.2380714829635741,
          -0.061745569978195795,
          -0.19552621628026695,
          -0.232527631082238,
          -0.3239582350213814,
          0.34736887930286603,
          -0.3647681377469644,
          -0.30978153967296496,
          0.3407780772695208,
          0.43076814440154043,
          -0.1575051735378266,
          0.09088494555698308,
          0.34205877132355444,
          -0.0473635801661513
        ],
        [
          0.3114145113599854,
          0.2763876448462555,
          -0.3614495106963113,
          0.11107591626525617,
          -0.07431179538783216,
          0.08188471711540009,
          0.06613807629166327,
          -0.2669875633085471,
          -0.39063987035335745,
          -0.007228160267780925,
          -0.2837023191974863,
          -0.11922955859072182,
          -0.2821335529099709,
          0.16343732282686532,
          0.28971386358789447,
          0.24648968966637527,
          -0.3198659935519115
        ],
        [
          -0.29172171433144695,
          -0.3269994517061482,
          0.004135060430077201,
          0.29253198649176537,
          0.3451927428445694,
          0.22305624382616585,
          0.5523880335620142,
          -0.015477328278598745,
          -0.3634160882802553,
          0.1364666369901496,
          -0.2897422863783228,
          0.20744365509046958,
          0.2034662558852156,
          -0.3354711801572429,
          -0.11784125286624228,
          0.004407110353172275,
          0.21272508369673757
        ],
        [
          -0.050348502946573385,
          0.2801914114894797,
          0.3843415318834798,
          0.3331048986684428,
          0.3303031097680138,
          0.3104003095648676,
          -0.06097224354903488,
          -0.24121059138966963,
          -0.014650332434511066,
          0.23787719420939563,
          0.18684451134203714,
          -0.08874493974110073,
          0.13443051895105232,
          0.3486823395213211,
          0.07448943610219674,
          0.46260849290963235,
          0.09142071400584384
        ],
        [
          0.08920766005396648,
          -0.07547861240208803,
          0.3583331880382981,
          0.1409720463832423,
          -0.41056996514305377,
          -0.3250927747331375,
          0.3642264314214842,
          -0.2899155366591192,
          0.10566723609525439,
          -0.23391297271072528,
          0.15256923162718639,
          -0.4184754666378043,
          0.22361190626213404,
          0.18378593986892572,
          0.3430729203753991,
          0.41083356121663395,
          -0.13099007010259017
        ],
        [
          0.35307542575230416,
          -0.1167571303344372,
          -0.023708896173853997,
          0.18703901367175682,
          0.21834139674438893,
          0.05858702782331203,
          -0.4929189016255061,
          0.15735864764282406,
          0.20236061768371885,
          0.15123802328901906,
          0.0888211911883878,
          0.5986616169873755,
          0.014333160847505267,
          0.22295788371334554,
          0.01866493962464435,
          0.1229936862078331,
          0.3737896332227933
        ],
        [
          -0.2692880347193477,
          -0.16980593496164686,
          -0.2823200654925502,
          -0.08843869426304549,
          0.44947227569463,
          0.31942846420140913,
          -0.03668338126991743,
          -0.09572714299286766,
          0.19413171031057094,
          0.34556195323498345,
          -0.16512434020253455,
          -0.15398432070617907,
          0.2714916297683869,
          -0.018875915676652155,
          0.21359466947694797,
          -0.2273853818558832,
          0.0603892653124549
        ],
        [
          -0.22942546867344635,
          -0.13522622833598175,
          0.283321629747545,
          0.39887215936004977,
          0.3093292636417894,
          0.4315857147357804,
          -0.33688982752000857,
          0.21505313361439451,
          0.23975462123381758,
          0.3477089956254578,
          -0.33299214546694494,
          0.20253000071641877,
          0.048229722272054326,
          0.10585612348981675,
          -0.07374671955498853,
          0.40473843000053483,
          0.10450678476234003
        ],
        [
          -0.20508298681805756,
          0.07432980790810959,
          0.14106509390845054,
          0.06278883435958096,
          -0.018116091694520477,
          0.04602462628548322,
          -0.5513127059045118,
          0.32370182808362746,
          -0.22952965362282898,
          0.7471815002196711,
          0.6589784406136995,
          0.6952323509741608,
          0.029250754701360886,
          -0.09585030531239223,
          -0.04753457997307272,
          0.08110548405218818,
          -0.1207198002947031
        ]
      ]
    }
  ]
}
