{
  "layers": [
    {
      "activation": 2,
      "biases": [
        -0.21831391352331886,
        0.0003552195039251878,
        0.0
      ],
      "cols": 3,
      "rows": 1,
      "weights": [
        [
          0.2113711094614248,
          0.9330616438926543,
          -0.08595762449588765
        ]
      ]
    },
    {
      "activation": 2,
      "biases": [
        0.0,
        0.5438225769942122,
        0.0,
        0.022787300133930665,
        0.0,
        0.0
      ],
      "cols": 6,
      "rows": 3,
      "weights": [
        [
          0.3394355597934975,
          0.2856492935733883,
          -0.7414534561697534,
          0.5993544682255031,
          -0.5258655301864865,
          -0.4107182692214222
        ],
        [
          -0.784654073636653,
          -0.591418462197703,
          -0.23741972609221204,
          0.6483241769390553,
          -0.4629738825726862,
          -0.2798556414471034
        ],
        [
          0.3717595334057811,
          -0.8117312029271503,
          0.7219511429173986,
          -0.7942293074633576,
          0.010371842092539565,
          -0.5134596577652671
        ]
      ]
    },
    {
      "activation": 2,
      "biases": [
        0.0,
        0.3622220160886422,
        -0.06924471793650304,
        0.013512834671729729,
        0.10872203007887718,
        0.17352241031071947,
        -0.35880272124026413,
        -0.21293036608448399,
        -0.2036264844818515
      ],
      "cols": 9,
      "rows": 6,
      "weights": [
        [
          0.5053409376454852,
          0.2697774399467043,
          -0.2728883290667761,
          -0.08004751993420485,
          -0.4126402469372856,
          -0.47411004270840956,
          -0.5145794548525272,
          -0.22272250608081257,
          -0.5072677726407906
        ],
        [
          -0.6126562045970467,
          -0.8031382333617417,
          0.1296417836345447,
          0.5391219477421915,
          -0.22531557480877515,
          0.6631261650933268,
          -0.4023496055539072,
          -0.4596486539419618,
          -0.1785048761168264
        ],
        [
          -0.5367691543209846,
          -0.4391324921332016,
          0.1554691689250811,
          -0.46141945178103816,
          -0.03408026236583235,
          0.11253514700995927,
          0.018618243445791074,
          -0.35972353567907184,
          -0.28182091629448547
        ],
        [
          -0.13346774443510584,
          0.5214245219017064,
          -0.33603821266879436,
          -0.021445642719128608,
          0.5867810470732568,
          0.14049104438134805,
          0.27589141354645463,
          0.2751704100832796,
          0.4433490580492268
        ],
        [
          -0.5050641294096434,
          -0.0006836411894529151,
          0.48261592020422744,
          -0.24944237044279205,
          0.20948016882062168,
          -0.2642344084333704,
          0.12228897199846528,
          -0.334653636818464,
          -0.17457921736622956
        ],
        [
          0.20532796812135914,
          -0.10575789452869021,
          -0.5488829914775469,
          -0.4626537128023412,
          0.4857060687480204,
          0.11504340081538217,
          -0.1697267312416231,
          0.5358278995886776,
          0.44076236203532015
        ]
      ]
    },
    {
      "activation": 0,
      "biases": [
        0.7096481347962488,
        0.33957870815300817,
        0.4533830047302621,
        0.6301669173963163,
        0.5978564903942859,
        0.5455770388596102,
        0.3725303256089477,
        0.33070636910164247,
        0.29709324354088507,
        0.7327424096165,
        0.7444595770456729,
        0.7514625750352498,
        0.9248584149254859,
        0.38081044416702176,
        0.4998590602701641,
        0.4843211539713291,
        0.40301980538164023
      ],
      "cols": 17,
      "rows": 9,
      "weights": [
        [
          0.43585331175448744,
          -0.36064062361735033,
          0.27925699563791706,
          0.0638348607260548,
          -0.34631086993211485,
          -0.2804097830642611,
          -0.1641374743182414,
          -0.37143171426264954,
          0.3661224705817861,
          0.2512635108833541,
          -0.18404532483808142,
          0.2031722255607147,
          -0.3898973597880491,
          -0.4132456844768557,
          0.1565541750614382,
          -0.06582694514121969,
          -0.4422352246370915
        ],
        [
          -0.0940942382580132,
          0.16033444741082498,
          -0.003344544792463152,
          -0.1917361055703505,
          0.24019688103790593,
          -0.9319843585478547,
          -0.6010516771228419,
          -0.40785750441861696,
          0.008849990075174835,
          0.0805287775055748,
          0.291071918145995,
          0.23008752883224995,
          0.11177187533311259,
          -0.12598674557031903,
          -0.04477367487217054,
          0.7738149245982967,
          -0.07504577052289384
        ],
        [
          -0.24226409271278607,
          -0.33091598824294316,
          -0.3567687596282798,
          0.3494833705293788,
          0.2329655786237603,
          -0.14739994988243946,
          0.2597405951251764,
          -0.15874054265619322,
          -0.22796996870167424,
          0.45317352273056255,
          -0.11221321534706283,
          -0.19480682578001593,
          -0.47597431405958845,
          -0.17473790080428983,
          0.23645411321701543,
          -0.2186485182595575,
          -0.14528170556506195
        ],
        [
          -0.012604751450483894,
          0.30051688097951246,
          0.32748172123424596,
          -0.4114995745380166,
          0.14959456169680052,
          0.5407997220445057,
          -0.08358095467866028,
          0.14067294688770013,
          0.30040889216339794,
          0.2437570065457451,
          -0.01205240622785665,
          -0.031854755769071215,
          0.31294063131890626,
          -0.14798016962614763,
          0.3558727860474145,
          -0.4403836451017075,
          -0.08922337564474218
        ],
        [
          0.392564680634969,
          0.19545531050215828,
          0.14121081824718412,
          0.2640065769403651,
          0.3201371911691211,
          0.04695064043207882,
          -0.2644106565512012,
          -0.5190242698081888,
          0.34011820161941964,
          0.07977300540884694,
          -0.3747737898989692,
          -0.27942257828779654,
          0.051961279616986954,
          0.0734025068835393,
          0.2756087963888784,
          -0.10683677492654617,
          0.1647356108145649
        ],
        [
          0.024254048852057876,
          0.3018251666043661,
          -0.17304616812248963,
          0.4442716441950016,
          0.22732041047376425,
          0.187956927670858,
          0.6049401017433201,
          0.8060089856206388,
          0.176895894224349,
          0.17877370374024337,
          0.08928357497675143,
          0.26283392745190126,
          -0.03843206570063206,
          -0.004060497444802872,
          0.1077313762493623,
          -0.03013481039139096,
          0.16031970037039073
        ],
        [
          -0.12864797236159015,
          -0.11413222824028872,
          0.16274565528252072,
          -0.3251195308923538,
          -0.16381667428042945,
          -0.43938146492399194,
          -0.03847576148527708,
          -0.035628354023544785,
          -0.3544431106068811,
          0.3561257905458857,
          -0.13684280163669665,
          -0.30800225681360477,
          0.429749872721637,
          -0.06879107237403854,
          -0.10358634524515098,
          -0.3757312185356819,
          0.2349233596718172
        ],
        [
          0.37588139586386154,
          -0.4279688006705084,
          0.0030291090932822277,
          -0.015131481894986712,
          0.2972042947722913,
          0.18399155290441688,
          0.20237874089292118,
          0.10377572606621294,
          0.05886165742158031,
          -0.3263525370254658,
          0.0011064770306045489,
          0.26650435215797097,
          -0.19154484989428802,
          0.014424429587025965,
          -0.34162712718070043,
          -0.1544002426626434,
          -0.33497159227424717
        ],
        [
          -0.1378332965582479,
          -0.3840890764505056,
          -0.1675304461276407,
          0.03620488196940345,
          0.32392393829321114,
          0.3415446389928094,
          0.1313594162966224,
          -0.17025305938442303,
          -0.37086436270022816,
          0.4045558994585961,
          -0.013251102391900754,
          0.4990997966378837,
          -0.22323908022263908,
          0.07291777490531037,
          0.5075997118019175,
          0.5471102263891191,
          -0.13365442000520752
        ]
      ]
    }
  ]
}
