{
  "layers": [
    {
      "activation": 2,
      "biases": [
        0.0,
        0.0,
        0.021923749181820686
      ],
      "cols": 3,
      "rows": 1,
      "weights": [
        [
          -0.3339424405478745,
          -0.7895975718653039,
          0.8363463013205676
        ]
      ]
    },
    {
      "activation": 2,
      "biases": [
        -0.015745835979197882,
        0.0,
        0.03573888419335617,
        0.030863866533652976,
        0.0,
        0.0
      ],
      "cols": 6,
      "rows": 3,
      "weights": [
        [
          0.6540596176992889,
          0.2719462573514217,
          0.03875234786145961,
          0.6010467543686598,
          -0.15798675834977535,
          -0.42892653484874876
        ],
        [
          -0.5299709389555568,
          -0.14711272806453662,
          -0.25356107277219775,
          0.09710143624071108,
          -0.036566407709905914,
          0.6965383889002512
        ],
        [
          0.877347382902512,
          -0.17197353151283923,
          0.6482107113155141,
          0.6039753887017044,
          -0.5661855227385356,
          -0.20727509521282791
        ]
      ]
    },
    {
      "activation": 2,
      "biases": [
        0.02321820498570254,
        0.0,
        -0.040517578687311595,
        0.0,
        0.0,
        -0.03809723064706977,
        0.16475344138359932,
        -0.13043177566379394,
        -0.15402670897477796
      ],
      "cols": 9,
      "rows": 6,
      "weights": [
        [
          -0.45683984199466343,
          0.38702377510752567,
          0.4963901025935702,
          -0.23687278604072376,
          0.28728014497100074,
          -0.36060049120859816,
          0.09622237596515507,
          -0.16274809221551995,
          0.35828687515720464
        ],
        [
          0.4680819713902458,
          0.5358967978605139,
          0.2826282190174086,
          -0.44579636648867305,
          0.15186498252719136,
          -0.42354779622681193,
          -0.4997121471595319,
          0.3154126397814964,
          -0.20998191323590445
        ],
        [
          0.5098596896744245,
          -0.6142055819553912,
          0.5960944794846601,
          -0.4312991042035153,
          -0.19576595341006364,
          0.34915026647651154,
          0.3125576906024524,
          -0.14151471624775303,
          -0.10918267960554316
        ],
        [
          0.4073009816946525,
          -0.014022070602135471,
          0.20430085020992575,
          0.361263821511946,
          -0.20470132375781502,
          -0.6246227679508055,
          0.06556078758262707,
          0.30833630155805897,
          -0.46941167702468817
        ],
        [
          0.30526068019392316,
          -0.39548269356371923,
          -0.34446974008173714,
          0.1879406279877072,
          0.1429458656004851,
          -0.18485793643856624,
          0.19206885203418092,
          0.04437722044602056,
          0.027351928005088892
        ],
        [
          0.0369761620891401,
          0.2300109485039238,
          -0.004981317487623369,
          0.23520761321803085,
          0.42505248345101415,
          -0.2857643735662802,
          0.04816063859657141,
          -0.4495837634700987,
          0.54113772508016
        ]
      ]
    },
    {
      "activation": 2,
      "biases": [
        -0.09016573445568735,
        -0.15862794672249292,
        -0.03732937470944881,
        0.37338460978084886,
        0.2544885211055527,
        -0.19613425068840057,
        -0.08920427129305329,
        -0.16551377230173725,
        -0.018712266418018937,
        -0.20405489258680512,
        0.4756887445766622,
        0.38689942132057936,
        0.0,
        -0.18744365718005784,
        0.27638765555248246
      ],
      "cols": 15,
      "rows": 9,
      "weights": [
        [
          0.17508045364365252,
          -0.3780055442903186,
          0.19177723050348233,
          -0.307289311740669,
          0.2907384312542087,
          -0.06272288543600613,
          -0.4092658681919816,
          0.27789324657331727,
          0.4378611516649681,
          -0.30977121234601285,
          0.2297791746087578,
          -0.31291866492782594,
          0.0677309071494876,
          0.02179910879460666,
          -0.06593154688705398
        ],
        [
          0.42416497083574767,
          0.16512753007240943,
          0.34914948365145804,
          -0.42240357674770224,
          -0.3557841651401409,
          -0.4594237147641479,
          -0.40058805602630043,
          -0.34865419140488574,
          -0.1828636157712264,
          0.3929803003058677,
          0.26010995905851475,
          -0.17300477794977126,
          0.35335646143805066,
          -0.10477079432679842,
          0.2608928046007142
        ],
        [
          0.06515061856161748,
          0.25584498499040187,
          0.14777174704320556,
          -0.4716173939458483,
          0.4211616797078214,
          0.41243420135863346,
          0.4225682106359496,
          0.13490216256878726,
          -0.3887902670022055,
          -0.18009275928144008,
          -0.4460616584731157,
          0.46492751566968726,
          -0.1379526106817427,
          0.0795398075932395,
          -0.2957864303217143
        ],
        [
          -0.24609444464840668,
          0.17395884481908697,
          0.3326670405607052,
          0.4797022002654626,
          0.36178158543155603,
          -0.2245076441785822,
          0.12754483224244084,
          0.46801125163585466,
          -0.39801750606764924,
          0.18099475683690736,
          0.4524337672406965,
          0.2704486496608931,
          0.4304722719502041,
          -0.21539017358580148,
          -0.05810492511750426
        ],
        [
          -0.10933120577099326,
          -0.2736951256048377,
          0.13495070377129625,
          0.35487986162997776,
          0.46310634816210083,
          -0.29997570943086205,
          -0.35400450129714073,
          -0.13489375618979976,
          -0.48022447898063086,
          -0.021121842098013432,
          0.0543260143857105,
          0.43045485063011524,
          -0.05252533292049788,
          -0.06264745656524201,
          0.430523550105525
        ],
        [
          0.47014852617106506,
          0.006023959492344355,
          0.11647828417666173,
          0.4660314713663175,
          0.4281640222352106,
          0.3082515955009738,
          0.2463466989557942,
          -0.1593602819644661,
          -0.13281822746285155,
          0.005199858688376802,
          0.05747359399901711,
          -0.3453641391871218,
          0.206729605191727,
          0.08419750797757763,
          -0.1901643624341397
        ],
        [
          0.4290781280768866,
          0.2113991285628022,
          -0.3547856088487215,
          0.14146571751992085,
          -0.011303389319268765,
          -0.25538796169356226,
          0.33861596744958883,
          -0.39023154708766133,
          -0.2824839394723584,
          0.38065952781886253,
          0.26469581399950504,
          0.06549910133478598,
          -0.49552554264456294,
          0.0766913961274256,
          -0.0234806221050057
        ],
        [
          -0.025543135677282405,
          0.4516081617020566,
          0.32402878946070296,
          0.38011330779647146,
          -0.3370805921423753,
          0.18615141583895947,
          0.13279101133635893,
          -0.33697562648025375,
          0.12569237063903937,
          0.3777640438069422,
          0.22193813864131234,
          -0.18740521763425674,
          -0.2977952271689639,
          0.022644362300883125,
          0.006949252219381363
        ],
        [
          -0.2456361017860954,
          0.3089553916776891,
          0.32174421104806045,
          -0.43563586470467774,
          0.10367101421997178,
          -0.05934732536955994,
          0.04480826144851123,
          -0.1657258074220823,
          -0.4883266696652056,
          0.08028426327755878,
          -0.16403623353264915,
          -0.31399780673944455,
          -0.04438302877563194,
          0.46471051858231927,
          -0.2039179488569116
        ]
      ]
    },
    {
      "activation": 0,
      "biases": [
        0.5368309560928755,
        0.14062291889794618,
        0.4141342855057034,
        0.7331053439641276,
        0.4351621292589333,
        0.714207275746041,
        0.2134669931825864,
        0.7033440085123998,
        0.751309949967065,
        0.3571067162480791,
        0.5285670114945759,
        0.5230236333471265,
        0.7749241822346395,
        0.4627388213676285,
        0.24012866717279005,
        0.46916970322712426,
        0.36510983777140904
      ],
      "cols": 17,
      "rows": 15,
      "weights": [
        [
          -0.4664775990450099,
          0.24400604551832406,
          0.03147821500094633,
          -0.347685133528513,
          0.15274582738204717,
          0.3570436065813313,
          -0.014221116484514273,
          0.1359275981541223,
          0.2601454471924142,
          0.02900175088530006,
          0.09859174479726435,
          0.339653458272011,
          -0.06083845035447398,
          -0.19521894607063445,
          -0.26762810602946857,
          0.017754049742303515,
          -0.0818792689971356
        ],
        [
          -0.37854707844131696,
          0.13187080984299973,
          -0.026455674259295996,
          0.21377520906369085,
          0.27832750198594275,
          0.07833585004195112,
          -0.09051137463413772,
          -0.3330205012487247,
          -0.201462671630906,
          0.2976273121118847,
          -0.1286560956396331,
          -0.031688400577682796,
          -0.32381403621275373,
          0.18332774383625539,
          0.3077603664062383,
          -0.3354142953362788,
          0.31331976418953084
        ],
        [
          0.3484458622557352,
          -0.22934411571871852,
          0.16657354499208987,
          -0.06456670013098205,
          0.39221149482051554,
          0.1166788355048924,
          0.08008754942753715,
          0.17851267608042132,
          -0.11348691856524233,
          0.07220923488242881,
          -0.26436237902695303,
          -0.05965732118131896,
          -0.10570352328097767,
          -0.40946397511972515,
          0.04272450885353826,
          -0.07325874954505851,
          0.27211088121887866
        ],
        [
          0.5042787810144695,
          0.2324481322767928,
          -0.16490526796366498,
          0.28063119775346307,
          0.36574476806799366,
          -0.04098595339924339,
          0.13010248842209657,
          0.24778797350886686,
          -0.0796852436618823,
          0.36806956263146234,
          -0.25365210572885444,
          0.2575114892487941,
          0.2196752109291915,
          -0.04484384470612698,
          -0.2242443938005785,
          0.14777407553697386,
          -0.14868201534547454
        ],
        [
          -0.35563810454059325,
          0.2816927052563868,
          0.5243450112175647,
          0.342874391044792,
          0.19850307580925636,
          0.12467006934489674,
          0.4120026244040441,
          0.17191937247134692,
          0.08508351020304014,
          -0.3979764648959536,
          -0.029582722157467583,
          0.19885123179077052,
          0.02970927489706537,
          0.06566343337860596,
          -0.20043295351246432,
          -0.14906239081716366,
          -0.2948991267201316
        ],
        [
          0.33461727284539877,
          -0.2763170860637394,
          -0.08729374377557998,
          -0.11660343048493144,
          0.35633458602213974,
          -0.13114134056708432,
          -0.051267777982422075,
          -0.2791288454583225,
          -0.23708964294372376,
          0.2933874367664737,
          -0.04918336392957426,
          0.24703670809757938,
          -0.00591994627364184,
          -0.36796948909335836,
          -0.31420873753302964,
          0.14736737940320274,
          0.41364732931773124
        ],
        [
          -0.4767013293168715,
          0.1261400570267742,
          0.4544733395938162,
          -0.11523306889126698,
          0.13791991683657345,
          0.03663253507897027,
          -0.33711095745036557,
          -0.13714201736113976,
          -0.24192516523954455,
          -0.1279217245641633,
          0.2691274763672098,
          0.4258863882863754,
          -0.013969059256755395,
          0.11940455017524171,
          0.34500434170929073,
          -0.16523298075206122,
          0.3787523430409794
        ],
        [
          -0.2431101215070251,
          0.08998330442684448,
          -0.1974597599526365,
          -0.2125186686083534,
          -0.24105517322254075,
          -0.32045593996692007,
          0.31370345234686636,
          -0.32005747403149293,
          -0.4313514422397038,
          -0.1403848524545168,
          -0.30936591141107916,
          0.22922690538597673,
          -0.2869082631840985,
          0.0949681272802206,
          0.09327122805391166,
          -0.07406370068865617,
          0.09876073449715683
        ],
        [
          0.09019968207379689,
          0.11063837220635192,
          0.11085695695965367,
          0.4053721657257077,
          0.3071374113847293,
          0.018523710132052104,
          -0.18124229395209165,
          0.3040430025798933,
          -0.20256514946634055,
          0.1680429240100149,
          0.40148514731531026,
          -0.08781008016919756,
          -0.07786270434935515,
          -0.04257736533837388,
          -0.27342735484840064,
          0.35360646746097935,
          0.37781810136318866
        ],
        [
          -0.420504712646985,
          -0.1573239972772596,
          0.4027065001694251,
          -0.023655285588995836,
          -0.42113812053774585,
          -0.25377297028757057,
          0.09057126399163777,
          0.07508628852167142,
          -0.14896943490658204,
          -0.3244497282789676,
          0.052313560299590466,
          -0.023009872896449783,
          0.2840464493702927,
          0.015805360289440698,
          -0.3040953146286348,
          -0.1986915854754724,
          -0.3798704376137056
        ],
        [
          0.3463707702587833,
          0.1860402401067615,
          -0.11332629142165207,
          -0.2546419957281843,
          0.09358778241028382,
          0.15182733210875737,
          -0.2874670145444128,
          -0.015183591914751144,
          0.2886569887699217,
          0.32946538872863246,
          0.42652118654543303,
          0.20370005668832963,
          0.19744583595743648,
          0.19647761127187613,
          0.38932045295926776,
          0.0920390851061095,
          0.1960620360577225
        ],
        [
          0.010526359157503828,
          0.1503957933232504,
          0.19172026242882256,
          0.24339500002038472,
          -0.03206335141248264,
          -0.11938623736253451,
          -0.19133144191148294,
          0.21693287245104495,
          -0.32793435545998884,
          0.09148438389781245,
          0.26368081136526833,
          -0.06875712934885622,
          0.2626895493598375,
          0.12596557425533564,
          0.04685546804447596,
          0.47069760671986544,
          0.1952455722022602
        ],
        [
          0.10772674118685492,
          -0.35504755360943524,
          0.09635063760726924,
          -0.2730441071911709,
          0.20756211109087788,
          0.1804478287947539,
          0.11921189503176648,
          0.14115576264302718,
          0.2891356922935801,
          -0.3447606452671637,
          -0.2921701917942818,
          0.26496698142078584,
          -0.40626856026080727,
          0.39016450913691325,
          0.08819391069225359,
          -0.15284235976517963,
          -0.008060256192947729
        ],
        [
          -0.29424525539872837,
          -0.36324827930651316,
          -0.09050926346405051,
          0.02837615550827933,
          0.1525672321392747,
          -0.024613927619295824,
          -0.38606477895610686,
          0.3729886890874371,
          0.2426598934900023,
          0.18634765303029513,
          -0.1291598982991461,
          0.20680308788136847,
          -0.39855116293310916,
          -0.04117198449654166,
          -0.35622577474948736,
          -0.18141253996518839,
          -0.36303141770923697
        ],
        [
          0.11462552652828022,
          -0.06414866031604438,
          -0.16571461147632408,
          0.3036790584767117,
          -0.03678331924989221,
          0.278543010749186,
          -0.01423095027814143,
          0.04390934241815211,
          0.39726549638521813,
          0.1988879545998343,
          -0.29335527103159587,
          -0.397884637296571,
          -0.2697566933304324,
          0.18481074552518656,
          0.018618140261050138,
          -0.17155396866671635,
          0.3433791651720486
        ]
      ]
    }
  ]
}
