{
  "layers": [
    {
      "activation": 2,
      "biases": [
        0.0,
        -0.11476533083224649,
        0.0
      ],
      "cols": 3,
      "rows": 1,
      "weights": [
        [
          -0.07646052856121019,
          0.7952461020756325,
          -0.05180105550237381
        ]
      ]
    },
    {
      "activation": 2,
      "biases": [
        -0.15612223997813668,
        0.0,
        0.0,
        -0.08659558326280967,
        -0.024737134640181194,
        0.0
      ],
      "cols": 6,
      "rows": 3,
      "weights": [
        [
          -0.700987426911817,
          0.05798888840731787,
          0.13113258698247532,
          0.735812703522782,
          0.7419725937818963,
          0.10102411491526558
        ],
        [
          0.42675311857008075,
          -0.27767016591320726,
          -0.5953790903977868,
          0.07274781797894236,
          0.7579912442640588,
          -0.40058894880132223
        ],
        [
          0.7503816372879195,
          0.2919780796074622,
          0.44572353460668057,
          -0.24868926767157587,
          0.018369532439197752,
          0.1323438262054056
        ]
      ]
    },
    {
      "activation": 2,
      "biases": [
        -0.16838075842733227,
        0.002939057441835788,
        0.0,
        -0.12382323762335481,
        0.0007346925976813074,
        -0.002947688527673612,
        0.0,
        -0.10642978213526502,
        0.0
      ],
      "cols": 9,
      "rows": 6,
      "weights": [
        [
          0.05435457571338231,
          -0.5027078202811459,
          0.3988947622158987,
          0.48047480395436254,
          -0.27870759009951007,
          -0.21397260233438867,
          -0.6228872100949923,
          0.3378683280827774,
          0.3177864073362913
        ],
        [
          -0.6300923933468507,
          0.04204833916906625,
          0.19562900564437632,
          0.6226018216031396,
          -0.12721512569077673,
          0.3094878808243902,
          -0.4613738451315973,
          -0.5756152376313575,
          0.5816356086895619
        ],
        [
          -0.12742660865079805,
          -0.3788483991541452,
          0.43284235398560655,
          -0.5404173452336032,
          -0.4049192110603571,
          0.2485175705764093,
          -0.40539239389027826,
          -0.3254808831182079,
          0.31697213297129073
        ],
        [
          -0.18099854172942786,
          0.25725193133079877,
          0.2779139847490233,
          0.520549152370727,
          -0.25565560906931284,
          0.08681493601736584,
          -0.6189730471495819,
          0.3689049938450335,
          -0.4547630032021528
        ],
        [
          0.15190020301607543,
          0.1800638747108262,
          -0.41621792389589324,
          0.09383116696163553,
          0.10423135373659395,
          0.5588165081929534,
          -0.4514125531222122,
          -0.1457137213538218,
          -0.6091457236421439
        ],
        [
          0.04076129841136556,
          -0.6214060665937947,
          -0.41646262582332316,
          -0.06722471048364702,
          0.32902948309885355,
          0.4074258114863181,
          0.04578195095675851,
          0.03381108194047586,
          0.2779753076331644
        ]
      ]
    },
    {
      "activation": 2,
      "biases": [
        -0.06267889191525466,
        0.04981147381926616,
        0.0063219792572832825,
        -0.05460671010428503,
        -0.1779481129338615,
        0.0,
        0.1961334270001188,
        -0.05177293550170939,
        0.0,
        -0.22126546996836607,
        -0.00012991319968427498,
        0.0,
        -0.21787731585905998,
        -0.11052508143260506,
        0.11507548860048002
      ],
      "cols": 15,
      "rows": 9,
      "weights": [
        [
          0.4857541429743889,
          -0.22317598793803528,
          -0.1477201495541819,
          0.0376946717581617,
          -0.5180167364316952,
          -0.12019885453404805,
          -0.3326140752297154,
          0.11073269630350768,
          -0.27817935113710324,
          -0.12000731302276578,
          0.35360556787513453,
          -0.13387568697048152,
          0.37427787396916923,
          0.3998541630465946,
          -0.26599043742711775
        ],
        [
          0.06981696803378792,
          0.08120280750614889,
          0.26620682771523263,
          0.43589873044725674,
          0.11545117880005906,
          -0.18214815374563825,
          -0.40025940149817657,
          0.0843307545168755,
          -0.3603545612936628,
          -0.46754559360795916,
          0.049154109484150964,
          -0.04867091288262554,
          -0.2054304432614848,
          -0.341958174408394,
          -0.41664022335494605
        ],
        [
          0.4894720916587264,
          0.23638248943555284,
          -0.027634775046089077,
          0.25569392263688795,
          0.3879620925932946,
          -0.3640200029425416,
          0.1770252537340975,
          -0.03922530055941331,
          -0.47911166259046256,
          -0.03879176896940534,
          -0.16668496498218038,
          -0.012032818287626312,
          0.3305401042245981,
          -0.2910372818778443,
          0.42667281065446916
        ],
        [
          -0.4424489263092928,
          -0.11950005666329527,
          -0.4575598367259888,
          0.43412294252132994,
          0.40412314820107664,
          -0.08418945529693245,
          0.31166327513928527,
          -0.25976969634477026,
          -0.4297131579042008,
          -0.06586222184687551,
          -0.4737452265630705,
          -0.2355769601350543,
          0.2954370649215086,
          -0.51006370493469,
          0.13759392407124482
        ],
        [
          -0.030180659051424745,
          -0.43744778529483846,
          0.037056810919131836,
          0.4647441747388262,
          -0.2921480488926862,
          0.02782482445604395,
          -0.3727162645746154,
          0.45732465568250424,
          -0.18904489590276263,
          0.4012167546438131,
          0.012323978786125421,
          -0.34196898985745805,
          0.24532929563211714,
          0.33327275506838816,
          0.43097932717720105
        ],
        [
          0.25088857951359766,
          -0.26147842458934134,
          0.19949741606079152,
          0.22733857653198156,
          -0.18653252965194986,
          -0.3481753672697466,
          -0.12172229550279254,
          0.17710784546719013,
          -0.27756543773113074,
          0.182739704769615,
          0.5307561312026935,
          -0.4728125342972635,
          0.18265116558773128,
          0.2814657724588135,
          0.3108841437389529
        ],
        [
          -0.0527427543665947,
          0.3317997766806743,
          0.07809788946905072,
          -0.00965457293654537,
          0.14417430089981031,
          0.21660229736780856,
          0.47124011999519544,
          0.480862024231284,
          -0.042311947113979564,
          -0.3290169806354758,
          0.3568493574191115,
          0.4397360658923798,
          -0.12932310981178802,
          0.47285896538424255,
          0.39515427960788563
        ],
        [
          -0.44747263935742554,
          -0.4411533279070413,
          -0.408771693664031,
          -0.27458300806141095,
          0.10729603411923777,
          0.43481186075825795,
          0.154436783175989,
          -0.1519587448108749,
          -0.13689514465485475,
          0.1743521095092562,
          -0.43284985699357925,
          -0.3559405467733464,
          0.4291676592793834,
          0.3218653858595726,
          0.3825254380174424
        ],
        [
          0.32735031974844186,
          -0.46398213364369334,
          -0.2258554113683549,
          0.10576067893102792,
          -0.45392516206667066,
          -0.1170562359583826,
          0.23443272045554253,
          0.029375963625207557,
          0.203303785856489,
          0.4697657883957801,
          0.09245350891372817,
          -0.29276961963287074,
          0.35446083864870526,
          -0.011203698120640426,
          -0.4743468793920925
        ]
      ]
    },
    {
      "activation": 0,
      "biases": [
        0.8425727344895474,
        0.2650137455232342,
        0.5787062529820297,
        0.31603456452835693,
        0.8435399446010063,
        0.9155502047235268,
        0.6185056200111199,
        0.5710735803006841,
        0.5245215453939155,
        0.7499936952660675,
        0.6142197739633067,
        0.33774573493399285,
        0.959525961197169,
        0.6919499033608486,
        0.32579543939446537,
        0.8871162053673947,
        0.4199937558207631
      ],
      "cols": 17,
      "rows": 15,
      "weights": [
        [
          -0.2959686333446255,
          0.39474278422082637,
          -0.16858033985413648,
          -0.10764783240786228,
          0.0800499889323575,
          -0.28502913099431226,
          0.289852653363885,
          -0.039894361002598834,
          -0.065312858521247,
          0.3566451682468995,
          0.14389215179221287,
          0.2376107250201541,
          -0.22341839251917753,
          -0.11598724120012409,
          0.3042213049609956,
          0.3592824699788863,
          0.026905434164010106
        ],
        [
          0.11276611009772686,
          -0.11344448455919935,
          0.06316758308458138,
          0.4005985845548952,
          -0.2511986756619657,
          0.35141881418635135,
          0.09944613987223543,
          -0.1920373960615766,
          0.32571077319598724,
          -0.37941613256627316,
          0.12691601751102563,
          -0.25800883530933955,
          -0.270304447185372,
          0.01980966787275791,
          0.2578209769035042,
          0.16526998549329025,
          -0.06297823089141906
        ],
        [
          -0.3999895936363724,
          -0.07343661770881199,
          -0.1007392799923619,
          -0.17293050522251366,
          -0.18987632830916748,
          -0.06770982691633687,
          0.025865529252981977,
          0.42769168521474765,
          0.3992972395253408,
          0.1882222470846878,
          0.33911643157804283,
          0.35852387809690034,
          0.2799682565966474,
          0.40144299147768947,
          0.22130668184617186,
          -0.43289139572571333,
          -0.07118499955397233
        ],
        [
          0.030859644180421548,
          0.18662912906242177,
          0.28374581561102674,
          0.054996740792819854,
          -0.08873446366777767,
          0.09083354037515115,
          -0.19320487212270035,
          -0.011369101247429602,
          0.2718018043821853,
          0.2272042512110676,
          0.1514671410548491,
          0.22072454245322515,
          -0.2123029132479053,
          0.2156761862968747,
          -0.053636445642868666,
          0.12543382439840184,
          -0.17086599130943622
        ],
        [
          -0.09735788864248172,
          0.3829077386440542,
          0.04973679312268155,
          0.13103764241293694,
          0.04679267720412946,
          -0.1530221811652161,
          0.023240315675103956,
          0.2501321717743203,
          0.13030253505064263,
          -0.3748444397181437,
          -0.3905952774028266,
          -0.08862713768940227,
          0.1618688805921772,
          -0.270049435674621,
          -0.2875708768156204,
          0.3626920063397695,
          -0.1696598407424216
        ],
        [
          -0.024410149907210757,
          -0.31593356460688105,
          0.3751321898511881,
          -0.08184797421653298,
          -0.31029363314406966,
          -0.3207060280106492,
          0.4111807365035806,
          0.06708768899042417,
          0.34889505621858913,
          0.363272273412468,
          0.4230868569088367,
          -0.2590559192332484,
          0.13206177335373945,
          -0.2746979496456851,
          0.2222731206085495,
          -0.22510973693933653,
          0.269297684220931
        ],
        [
          0.27236504195655603,
          -0.25286331126382466,
          0.20569880771857613,
          -0.3334882422767775,
          0.10449824623882743,
          0.09090101649679296,
          -0.11932541842974749,
          0.02394799242073545,
          0.059782530320339235,
          0.016020691567464558,
          -0.08720173006972004,
          0.44173531962661633,
          -0.02522126990923936,
          -0.03437118133703517,
          -0.2486774970445674,
          0.2941103924427957,
          0.24943289815803313
        ],
        [
          -0.08514279520518454,
          -0.22863224736872434,
          -0.2405232381020603,
          0.42846518395566285,
          -0.38315165368018506,
          -0.24202626231733307,
          -0.009291806355391435,
          0.41365952824833624,
          0.3861004380049014,
          -0.41763622909782,
          -0.22404808129609055,
          0.13711461938511899,
          0.34543164292336476,
          0.4263523594894888,
          0.377023069898488,
          0.13501425920995522,
          -0.35193548747387904
        ],
        [
          0.43203561979009303,
          -0.12571394834351401,
          0.12405589046060363,
          0.034007333831596355,
          -0.045769057767751406,
          -0.08444457970956135,
          -0.30126205260073446,
          -0.15120087243166141,
          0.060269434188772404,
          0.21044024251553628,
          -0.20320505188221294,
          0.08305887205347887,
          -0.2726026619482105,
          0.10859684988735388,
          -0.09097321324717866,
          0.21524642652355183,
          0.021885552303166692
        ],
        [
          -0.3797816347649308,
          0.23246847444639518,
          -0.36822315767685954,
          -0.011886100699884434,
          -0.18537462617034736,
          0.18202014562520072,
          0.3592807269837122,
          -0.3035766597886579,
          -0.2914963145928069,
          0.04434244461641461,
          0.3563039715792583,
          -0.05499985057569521,
          -0.3295321282506773,
          -0.3740999994943065,
          0.4213816696145693,
          0.2793209609860801,
          -0.21520013235555047
        ],
        [
          0.3715501237213104,
          0.062072517743853035,
          -0.05266554377292899,
          0.12802594851617796,
          -0.16551277102659545,
          0.2789214917639371,
          0.029114522669358822,
          -0.05332636372003171,
          -0.18734833385856905,
          0.6872962305152829,
          -0.010063932973985942,
          0.1879761206705734,
          -0.4176543876697228,
          -0.0701594312321379,
          -0.238762949722154,
          0.10899760591119073,
          0.05697086630917493
        ],
        [
          0.24024237317771674,
          -0.1837044168076827,
          -0.21409196009785184,
          0.22056055332068195,
          -0.2825344725713389,
          0.40555763368584447,
          -0.1429103313738187,
          -0.41822534847809023,
          -0.12658456073386917,
          0.05606514221809961,
          0.0995295230919349,
          -0.12133436746359323,
          0.10344765631346932,
          0.21934330592666185,
          -0.35213962786110575,
          0.40470291152079224,
          0.26437856318791475
        ],
        [
          0.4485813695834013,
          -0.11346475626591415,
          0.16102428217574916,
          0.3938346053975497,
          -0.015757652587579624,
          -0.1453888068026684,
          -0.30545715584846833,
          0.47305615912237065,
          0.36912442056788075,
          0.1678444489607733,
          -0.27119989964827995,
          0.2620320401709249,
          -0.18926586949868487,
          -0.06610300449130777,
          0.044318067939651866,
          0.18508343847413508,
          -0.09177807244968625
        ],
        [
          0.19143499031673328,
          0.33215018412817415,
          0.047672426959285696,
          -0.03207537095388207,
          -0.04173822261602078,
          0.21901444533199965,
          -0.38685922714162324,
          0.41652514917165623,
          -0.24305132486845743,
          -0.20099863143263028,
          -0.2311056744917744,
          -0.04417514902044759,
          0.16056458112906827,
          0.11066116482532096,
          -0.34481322498071426,
          -0.14961991538178526,
          -0.31783763337710763
        ],
        [
          -0.18651296255107,
          -0.11486969648957447,
          0.3034874431853011,
          -0.26922850185686115,
          -0.012216123866854337,
          0.004625706268473497,
          0.22715969654527765,
          -0.23137054413303687,
          0.19364935846217537,
          0.7271085161125066,
          -0.3078245918975321,
          -0.3424673418921726,
          0.4710531024495632,
          -0.20578367653913554,
          0.34950940004035774,
          0.429115896944738,
          0.25655297596572835
        ]
      ]
    }
  ]
}
