{
  "layers": [
    {
      "activation": 2,
      "biases": [
        0.0,
        3.492776152474576e-17,
        0.0
      ],
      "cols": 3,
      "rows": 1,
      "weights": [
        [
          -0.9954135014855414,
          0.7681287115207243,
          -0.7885177703922867
        ]
      ]
    },
    {
      "activation": 2,
      "biases": [
        0.023965713308748093,
        0.07524931859554618,
        -0.20606489787581456,
        0.0,
        -0.29579288770972084,
        0.157613765375683
      ],
      "cols": 6,
      "rows": 3,
      "weights": [
        [
          -0.5857723507792794,
          0.5303457333209342,
          -0.6948789236698069,
          0.1668161987104212,
          -0.7917448318364372,
          0.6623550861413021
        ],
        [
          0.2704018835480281,
          0.9267316880433807,
          0.2815745248424584,
          -0.1694071797608229,
          0.3669944411275583,
          0.19223648798026644
        ],
        [
          -0.3099135979404754,
          -0.35293187616961214,
          -0.49978877898409796,
          0.7136040357586994,
          0.735163242558725,
          0.09925859975393718
        ]
      ]
    },
    {
      "activation": 2,
      "biases": [
        -0.019544767818187675,
        -0.04074487257469988,
        0.09952362820194606,
        -0.04086393406153502,
        0.0,
        0.0,
        0.0,
        0.15582329293087305,
        0.12067287682921683
      ],
      "cols": 9,
      "rows": 6,
      "weights": [
        [
          -0.5269828692562544,
          0.04962281950840734,
          -0.37883441197897816,
          0.41209887412335283,
          0.48685130585820824,
          0.5155273772925325,
          -0.262117008349377,
          0.13546063991139906,
          0.49459244983487793
        ],
        [
          0.2126601498864326,
          0.6853947372195122,
          0.5539189122822253,
          0.26152990646866553,
          -0.19977589279318417,
          -0.1721587057641524,
          0.28467681860690475,
          0.23727636651258008,
          0.36515152707030907
        ],
        [
          0.5053109360160185,
          -0.335876179592683,
          0.42030960372121406,
          0.0225110388389137,
          -0.559466140294984,
          -0.619764256075911,
          -0.5952650405448102,
          -0.19110487792946376,
          -0.1744666412553308
        ],
        [
          -0.1405646316267162,
          0.41052479474281145,
          0.6238299114607009,
          0.5731378785199706,
          0.401430338897382,
          0.16476072680443155,
          -0.43793072794064664,
          -0.6138447853413946,
          -0.11059170046937915
        ],
        [
          0.38330885538258774,
          -0.3917745772383393,
          -0.13654860261742807,
          0.42887131010789836,
          -0.1959098869543113,
          0.2432161586482451,
          0.21573730947237132,
          -0.2733757167944054,
          -0.5557616208954436
        ],
        [
          -0.47153143142234827,
          0.03988962131267464,
          -0.18011628910709115,
          0.07174337411684933,
          -0.0939702737932308,
          -0.4585806646260917,
          -0.6030603789531274,
          0.5730603360239764,
          0.5174774696344335
        ]
      ]
    },
    {
      "activation": 2,
      "biases": [
        -0.06192579411246241,
        0.395676528524787,
        0.0,
        0.5881171167212362,
        0.0,
        -0.1375716706243623,
        0.040619311565123405,
        0.0,
        0.0,
        -0.029590769567625907,
        0.22873553837912508,
        -0.016224865861946103,
        -0.16834723048228314,
        0.5993609613423145,
        -0.6184030079588553
      ],
      "cols": 15,
      "rows": 9,
      "weights": [
        [
          0.17676276930298884,
          0.27451806420892716,
          -0.3276266105601688,
          -0.47249290345818407,
          -0.3389692487376599,
          0.3631345937339502,
          0.24174305335353685,
          -0.3989022890566393,
          0.29001006101724225,
          0.45895622015316007,
          -0.2613476718894972,
          -0.3085257279726331,
          0.3510142433833961,
          0.2811010770037058,
          -0.14059497310454913
        ],
        [
          -0.20545142869539101,
          0.25064073150014277,
          -0.4204436847569624,
          -0.5346930165195867,
          -0.05616353384971784,
          -0.2603747599545548,
          -0.32090020116909324,
          -0.3507721749370788,
          0.199095516791146,
          0.4629186709747946,
          0.22549780156051152,
          -0.3929768861638001,
          -0.38494361124803733,
          0.33831071452640665,
          0.2952345776639345
        ],
        [
          -0.1424797285352555,
          0.4947963561259092,
          -0.39700971026765636,
          0.20395123001399798,
          0.059486587792395906,
          -0.017130149861634282,
          0.14988698421402963,
          -0.427944167483572,
          0.19835070879121808,
          -0.004965880760469454,
          0.1781046865143746,
          0.1658173061139886,
          0.1109548061122578,
          -0.48780244677325346,
          0.020074216456823706
        ],
        [
          0.40270027295966687,
          -0.03178086154417672,
          0.4577995314997618,
          -0.3779335041626925,
          -0.20891897320231373,
          0.19142144463409827,
          0.15378307124284554,
          -0.45762289639451675,
          -0.31963734599744775,
          0.29135632318733007,
          0.06570672354393248,
          -0.01718144838045039,
          0.12778020353040315,
          0.19775065657406463,
          0.05020278824836681
        ],
        [
          0.3058157580931744,
          0.41183144175998465,
          0.23672591649774732,
          -0.21114465022047268,
          -0.30118261128719087,
          -0.1372446444058999,
          -0.3093121805271656,
          -0.2680197026431652,
          -0.14487417910475014,
          -0.09075739122496795,
          0.33194280827042777,
          0.4035218515915432,
          -0.45017432931353074,
          -0.10391038870621028,
          -0.014968046226989495
        ],
        [
          -0.15455372801728257,
          -0.3489583399374775,
          -0.34752142235986955,
          0.29186374451586217,
          0.023852096183156646,
          0.3292614700408939,
          0.3901818799274889,
          0.39285767632204005,
          0.09967178646459796,
          -0.35947431803656477,
          -0.03722139892038956,
          -0.008240300933011036,
          -0.0799527725111473,
          -0.4219029852756779,
          0.43204706298748363
        ],
        [
          0.41549321353225654,
          0.057180670815138446,
          0.20745439767253326,
          0.3539540780959437,
          -0.11781944968636121,
          -0.10247302269678238,
          -0.2131440586937331,
          -0.24103405547376444,
          0.1837151104974165,
          0.3151367594558451,
          0.41994834501293876,
          -0.49473778111615113,
          0.23375240514695295,
          0.076526471682138,
          0.41498763063689115
        ],
        [
          0.19443983663545916,
          0.02595962305909984,
          -0.3139383177337881,
          -0.2682868361531296,
          -0.19149087867303327,
          -0.26296146378388274,
          -0.312194465572105,
          -0.059370347559158876,
          -0.3001378699206458,
          -0.4964838256111759,
          0.060422996183162735,
          -0.06270936539602585,
          -0.3233266951624894,
          0.06080521430291478,
          -0.39785362690345305
        ],
        [
          -0.050783254983039226,
          0.26256615637401376,
          -0.36130615177625147,
          -0.02741905711061516,
          -0.38719785767011244,
          0.39574665690403976,
          -0.05164980555981061,
          0.16256857321717244,
          -0.4171797562936227,
          -0.40419107754736205,
          0.3396600861805571,
          0.08497070378609178,
          -0.15480379197031707,
          -0.07693729318727646,
          0.08291851205597514
        ]
      ]
    },
    {
      "activation": 0,
      "biases": [
        0.3350379438492637,
        0.4708131115561701,
        0.6709427985943749,
        0.618364769896158,
        0.3463749891435352,
        0.46369309735332015,
        0.2684171601257001,
        0.3315550903311632,
        0.7371407587027463,
        0.5521384776105379,
        0.31359744867943684,
        0.07118915756783843,
        0.15942396649379853,
        0.143788946012593,
        0.6416492612093361,
        -0.0789927432093483,
        0.2969561928316937
      ],
      "cols": 17,
      "rows": 15,
      "weights": [
        [
          0.12829408524788682,
          0.04279860698517251,
          0.38159807934039525,
          0.24833816296029534,
          -0.3724291098841087,
          -0.380530273484391,
          -0.38380656457132317,
          -0.21734972708897143,
          0.28867640746270223,
          0.05328752157442699,
          -0.28610766286229933,
          0.22158252879486368,
          0.3303808627124556,
          0.1076778653988304,
          -0.3224918497292896,
          0.07863660820236937,
          -0.19307642582046536
        ],
        [
          0.3472694635303321,
          0.3033644557828089,
          -0.3343757003024986,
          0.07393019429011384,
          -0.11670769787097658,
          0.34816106826450305,
          0.4466593592814889,
          -0.11036648706191733,
          0.1420968897119904,
          0.049461629310707855,
          0.32870473219349455,
          0.41937431189193336,
          -0.12218260618188052,
          0.08262198030119372,
          0.3146969851248354,
          0.3315608866363468,
          0.18318106156718564
        ],
        [
          -0.3886645937378662,
          -0.04389832258972673,
          0.08939057898830619,
          -0.21074759979228108,
          0.2040747794883051,
          -0.27039604467791023,
          -0.14986420497170533,
          -0.4069406143997271,
          0.008619475335316542,
          -0.10000014242237833,
          -0.27772042672685704,
          -0.03222908966119143,
          -0.1493204074496653,
          0.12054157253473509,
          -0.023395924206842403,
          0.3154489589100705,
          -0.04363100200251963
        ],
        [
          0.15105513420941405,
          0.15334987368734235,
          0.4228844769334348,
          0.17272984369820912,
          0.4180519459163575,
          0.21856579069891796,
          -0.40427337458434076,
          0.35265058292549184,
          0.3480913208558252,
          0.31907287302809917,
          0.0033865051949425033,
          -0.6087638514847649,
          -0.05600924408204408,
          0.08905673648300458,
          0.11623489594321573,
          -0.06538000155997158,
          0.2565239910798871
        ],
        [
          -0.33461119626596586,
          0.3360245290321594,
          -0.4299313745593231,
          -0.4297759130443661,
          -0.12373431816084775,
          0.37143926809964417,
          -0.4014621254160499,
          -0.031547219820830745,
          -0.4119276811376434,
          0.2906086588738603,
          0.06866800845364046,
          -0.4088598110749642,
          0.2810616693172331,
          -0.25437046593330853,
          0.24417668778874652,
          0.28523695496261675,
          0.4324264944101822
        ],
        [
          0.16012519886336007,
          0.21459620622452144,
          0.2605203874162307,
          0.27682139560601166,
          -0.27451198250314307,
          -0.3948206399477233,
          -0.16747242846841365,
          -0.2052494624384027,
          -0.25840987067035376,
          -0.12127172713234002,
          -0.30633638607396785,
          0.20681355250728548,
          -0.36405054275438653,
          0.363970635677375,
          -0.2140567248397509,
          -0.33935678980107026,
          0.10817206062075607
        ],
        [
          -0.09331872966385175,
          -0.028503080758319876,
          0.30723987287401316,
          -0.07809138985524974,
          -0.29926672834628637,
          0.4114201678841791,
          0.342533481946439,
          -0.0330171270725867,
          -0.12749422011025605,
          0.2647604173582026,
          0.09421628996835162,
          0.2513840072951155,
          0.3967973381759001,
          -0.24877304577735987,
          -0.3346395904776674,
          0.3659180167498929,
          -0.2831771919382233
        ],
        [
          -0.014781616632664531,
          0.1425967866563505,
          0.19231204494624163,
          -0.3788355705270078,
          0.1714266003079505,
          0.26162448867944565,
          0.1132323866756689,
          -0.3029791672119154,
          -0.0643429716602842,
          -0.34486029842998434,
          -0.20958241755644602,
          0.08501278582426412,
          -0.1940987018260861,
          0.3460142873786709,
          0.19345421512902325,
          -0.22187842012323566,
          0.2140435288462273
        ],
        [
          0.11466014094141985,
          0.3319010617409641,
          0.1817324879582299,
          -0.0706652242276268,
          -0.09964701510246454,
          0.3118062218476969,
          -0.4271146602286105,
          0.0585109218366008,
          0.2534046323669378,
          0.24099181650060975,
          -0.32637467987712593,
          -0.1320248959166704,
          0.10081446495083866,
          0.10154156081706174,
          0.3256278667105517,
          -0.0052183154288771025,
          -0.03993800201572175
        ],
        [
          0.18792752024660056,
          0.19336325483947034,
          -0.09258423133669513,
          -0.347405838065822,
          0.1270427898185472,
          0.20974205424062312,
          -0.029372324580965347,
          -0.41036504770565363,
          -0.13893805800268896,
          -0.04943253591411775,
          0.027753512305051752,
          -0.18367172708259377,
          -0.42219826935562965,
          -0.32627335426147247,
          0.41534005435976035,
          -0.2356904120048087,
          -0.06683819703001266
        ],
        [
          -0.2566709653014866,
          -0.22358604835304524,
          -0.2792314257657944,
          0.36628187699885606,
          0.24216967195847672,
          0.12762355412360452,
          0.28484980404732635,
          0.19076528289040784,
          0.2746619653308296,
          0.3240963148330628,
          0.15125423643236163,
          0.23482173531651448,
          -0.02362162575400454,
          -0.025317783295287357,
          -0.29217728277609356,
          -0.47573137787064745,
          0.059337341755898915
        ],
        [
          -0.3543291785233042,
          -0.04589476918604574,
          -0.3938711731887569,
          0.13046663421641286,
          -0.29642187159826217,
          -0.3807380646417521,
          0.1734683821951818,
          0.32524068060525213,
          0.4131956401170547,
          -0.18186256150674526,
          0.09555753552793854,
          -0.30877612672604915,
          -0.14268617611814277,
          0.10310124121252581,
          -0.1776834357053058,
          0.2540437739279896,
          -0.3879583984238122
        ],
        [
          -0.4292579868022563,
          0.2572213198549501,
          -0.013339012767244031,
          -0.020798830248878304,
          0.25394543925553925,
          0.020295047919346047,
          -0.35336246814389677,
          -0.05111006716086701,
          -0.0790499845299323,
          -0.36640091582353784,
          -0.3971889257893665,
          -0.28016450280359745,
          -0.08657282516663041,
          -0.0737195344085446,
          -0.289310600701796,
          0.2019866820152802,
          -0.12977112277449473
        ],
        [
          0.2599890696886208,
          0.3548552893026575,
          0.4346102466626683,
          -0.014143019965510316,
          0.15348063206922782,
          0.17100671414073357,
          0.18414154994378593,
          0.3273713035678398,
          -0.16156024247997305,
          -0.060412760509726375,
          0.2928985191303097,
          0.3106388671579522,
          0.49786927691723704,
          0.1969824424420888,
          0.426411412594352,
          0.19234256819682902,
          0.18371363953211972
        ],
        [
          -0.019192868548776103,
          0.04251668083823988,
          0.03356445013031283,
          0.2729034750567082,
          -0.09369786353353401,
          0.22074144398263462,
          0.15852028978993435,
          0.2342775890327791,
          -0.08604408927622756,
          -0.3025940432330887,
          -0.19418921319129961,
          -0.3165608177327061,
          -0.1861623559861599,
          -0.16188292093279072,
          -0.24892889834920057,
          0.31881443042565705,
          0.1151350611344494
        ]
      ]
    }
  ]
}
