{
  "layers": [
    {
      "activation": 2,
      "biases": [
        0.0,
        0.060974755923154725,
        0.0016363862692738347
      ],
      "cols": 3,
      "rows": 1,
      "weights": [
        [
          -1.0338445806847538,
          1.0414237051674087,
          0.5475667452201162
        ]
      ]
    },
    {
      "activation": 2,
      "biases": [
        0.23180918993793706,
        0.0,
        -0.12110682723444731,
        0.0,
        0.06052734791187667,
        0.0
      ],
      "cols": 6,
      "rows": 3,
      "weights": [
        [
          0.4326671419539784,
          0.11227828228873382,
          -0.6916960212444128,
          -0.6719723621628607,
          -0.7934957400573636,
          0.20672574148408276
        ],
        [
          0.1250543112061179,
          -0.6790046781530247,
          -0.15855523773805716,
          -0.05878347889417633,
          0.7087285151038233,
          -0.5699113054227575
        ],
        [
          -0.727321984928189,
          -0.6754106719865824,
          0.49841624947017193,
          -0.013066851872951047,
          0.548172900577839,
          0.6385772037960338
        ]
      ]
    },
    {
      "activation": 2,
      "biases": [
        0.09577841800544537,
        -0.09428398279805764,
        -0.07926804321141481,
        0.0,
        -0.23013308469790064,
        -0.04981993796001249,
        0.026663555721950505,
        -0.05642647556590712,
        0.0
      ],
      "cols": 9,
      "rows": 6,
      "weights": [
        [
          0.42266228030763797,
          0.4290546222461584,
          0.30133121287839987,
          -0.3845501615750481,
          -0.4011767651489846,
          0.02329793875269063,
          -0.5299478370815263,
          -0.5538425767735284,
          -0.09000191569608725
        ],
        [
          -0.4615660965848738,
          0.023011515352496577,
          0.1407989190894982,
          0.560971792334134,
          -0.6019203799988196,
          -0.5539732444067529,
          0.3059964075485887,
          0.04833263894928449,
          0.1714355204147892
        ],
        [
          0.17015450205238875,
          -0.307119054850614,
          -0.2441953461510834,
          -0.3941577982503073,
          0.25824075371645533,
          0.3739442311301733,
          -0.23534674952852916,
          0.24433804847356078,
          -0.1506123340649678
        ],
        [
          -0.4693943087948123,
          0.3671255235096933,
          -0.5310362286128734,
          -0.27087267219425476,
          0.5556123201042439,
          -0.013622134190537366,
          0.266902741413405,
          -0.3410085624665149,
          -0.25445943114352554
        ],
        [
          0.11678546114593627,
          0.054179304589510556,
          0.057503097660959505,
          -0.14208199044064584,
          0.5118681896213114,
          -0.021216890786394903,
          0.903603448444093,
          -0.04356218212614149,
          -0.03535161751787857
        ],
        [
          0.3824269519856634,
          -0.32503396469520107,
          0.3975055447279215,
          0.18007562322532425,
          0.40279807894491704,
          0.6305073120740863,
          -0.46206002647029487,
          0.20869330509567866,
          0.35356448867016355
        ]
      ]
    },
    {
      "activation": 2,
      "biases": [
        -0.14493848479983376,
        0.0,
        0.12159999519257046,
        0.0,
        -0.24397678350958213,
        0.0,
        0.0,
        -0.1857740436590138,
        -0.06352119305744557,
        -0.24414591662026117,
        -0.005901448742166923,
        0.01618987384109788,
        -0.043692189831616726,
        0.45663830301162794,
        -0.04775252855113584
      ],
      "cols": 15,
      "rows": 9,
      "weights": [
        [
          -0.1700046488842621,
          -0.3568601621579659,
          -0.14392896139886985,
          -0.491691547442084,
          -0.36248841817120026,
          -0.4139031753474396,
          -0.4564426857775276,
          -0.147085992896989,
          0.19756186069714346,
          0.4272778710048696,
          0.0959729939631352,
          -0.0753655339998854,
          -0.0348021785484304,
          0.30379086924524523,
          -0.0880496930369405
        ],
        [
          -0.2779691297458341,
          0.25125461106712677,
          -0.32456434793737793,
          0.14016214089475676,
          -0.22231343329060516,
          -0.4706680644166973,
          -0.43221986290636466,
          0.11010861751162848,
          0.35469316482693997,
          -0.1747239653891609,
          0.10361135563858903,
          -0.3120325426567486,
          -0.12008714462079914,
          -0.4467651288234041,
          -0.27453776113818834
        ],
        [
          0.17283636176625095,
          -0.16375179480004676,
          -0.10638010284386994,
          -0.2948979818238402,
          -0.42187331520108196,
          0.481841348568835,
          -0.31923586727084396,
          -0.4044654820600829,
          0.1543313262422174,
          0.26028171263610406,
          -0.49009977674360383,
          0.3755320064757126,
          0.24688096441824275,
          0.09092665244811302,
          -0.045061296571540344
        ],
        [
          -0.13926779461990474,
          -0.17641520438548886,
          -0.43908392309168537,
          -0.35038051328173864,
          -0.42480858458429976,
          0.3075453964097171,
          -0.3972212210750306,
          0.14864301618591091,
          0.42013850525028007,
          0.0613280928513632,
          -0.0887372934207028,
          0.411105573135943,
          0.1129754579686445,
          -0.07452691093763658,
          -0.34521147787813633
        ],
        [
          0.2785488550337913,
          -0.01034010691118431,
          0.3624217084500197,
          0.15471327381893685,
          0.16199934388081513,
          -0.0845225418845762,
          -0.0970626080395014,
          0.17926503002472968,
          0.30959914035849256,
          -0.2818120757972518,
          -0.3550105661728143,
          0.4962160499606785,
          -0.22735913729082413,
          0.34896783648224117,
          0.024258823940699024
        ],
        [
          0.026864782779011165,
          0.21382314372520106,
          0.5033300675616185,
          0.26599307487066515,
          0.2750587825813604,
          0.42963854592742334,
          -0.3312533199001352,
          -0.004513570197831175,
          -0.10647372171510686,
          0.29854309144573377,
          -0.05459909120323092,
          0.1355155548727442,
          -0.37941809784593905,
          0.2690258337986141,
          -0.17583611132632457
        ],
        [
          -0.13157499506677942,
          -0.2744234105453004,
          0.20655620295283147,
          -0.45439064873121243,
          0.17112819903570853,
          -0.06495859779648416,
          -0.37454756157218827,
          0.03218068115263095,
          0.30237766164012037,
          0.29138970170701134,
          0.6440730724359774,
          0.49061546666063127,
          0.117912696429422,
          -0.6042260527449449,
          0.2510439244358449
        ],
        [
          0.4198729309238941,
          -0.23426103486412253,
          0.1258782743686045,
          0.05636677451262562,
          0.24030557549876447,
          0.24084683449047006,
          -0.02086734376888133,
          -0.4091854915449865,
          -0.2680952923932547,
          -0.3882262920357168,
          0.11718001854325374,
          -0.47244032440642425,
          0.3358620078469915,
          0.21934488092369084,
          -0.30730362441087666
        ],
        [
          0.013961036463249976,
          -0.2252129613073603,
          0.07136956675507578,
          0.35637923369946856,
          0.33644232146276265,
          -0.08725271866994572,
          0.2825532764115153,
          -0.29956478290239574,
          0.1936972638097113,
          0.19111376055102502,
          -0.32665634473164396,
          -0.10239956323169153,
          -0.1672341156132678,
          0.1709353116671254,
          -0.07887321225315014
        ]
      ]
    },
    {
      "activation": 0,
      "biases": [
        0.6276502757934921,
        0.4533309715464877,
        0.9062576168721496,
        0.29503063281195324,
        0.7656072050734785,
        0.4634061903970875,
        0.8571797495391669,
        0.37244718261826454,
        0.6517099217128219,
        0.4052563231835068,
        0.40538452228609223,
        0.49313831727820995,
        0.35971743696801467,
        1.046418542451198,
        0.3214794486436286,
        0.18964714214421027,
        0.3941182140715482
      ],
      "cols": 17,
      "rows": 15,
      "weights": [
        [
          0.3327067946835977,
          0.17113649327801453,
          -0.3450877247829717,
          -0.26931596802528207,
          -0.3846796095355516,
          0.009275687238192056,
          -0.24594263963747584,
          0.282650916351987,
          0.2925893279880858,
          -0.06229377189718455,
          0.4038610489817819,
          -0.08302991521503099,
          0.12543641451522394,
          -0.0747687073416702,
          -0.32677638108942797,
          0.11347234036480532,
          -0.010852947632047801
        ],
        [
          -0.23437976724482323,
          0.09163832178930653,
          0.3657092947152792,
          -0.35816351536660607,
          -0.2927892613091461,
          -0.02098447091089443,
          -0.05108216266728701,
          -0.23747371989263352,
          0.3279369378851067,
          -0.09420578787645921,
          -0.3762815742115817,
          -0.400032651184537,
          -0.2506776216104694,
          0.3346111341616922,
          0.3281374572604577,
          -0.4216760438017476,
          0.140644228291175
        ],
        [
          0.27561967560733647,
          0.570255329881153,
          0.24868836897721944,
          0.20146537301421868,
          0.07573767748254553,
          -0.21517599844937646,
          -0.1633234586065945,
          0.36077428638147685,
          0.23784920618665398,
          -0.045819802457821315,
          0.6015307244540675,
          -0.18096390373376442,
          0.18302461313095314,
          -0.11957279619229275,
          0.11800650012162658,
          -0.33148369895757057,
          0.43318707902725445
        ],
        [
          0.2642865799028963,
          0.4225575514593924,
          0.2503687976243515,
          0.1512616955022619,
          0.15119865845463137,
          0.36895319893849077,
          0.1910807438390123,
          0.34438849952161504,
          0.3515488440199909,
          0.0013709677713037664,
          -0.3350217543113479,
          0.15793933937258686,
          -0.2547958104416746,
          -0.12816713006554634,
          -0.2795040788083681,
          0.23168692432402777,
          -0.15586125415565305
        ],
        [
          0.026254892692372682,
          -0.3310256076254123,
          -0.05687221845929636,
          -0.37288852654863436,
          0.29946651499576477,
          0.2635606017811185,
          0.29346075352994033,
          -0.3610110805354147,
          -0.39161049681130117,
          -0.32079209667281233,
          0.20715462672499363,
          0.14441095142031238,
          0.15055306342420238,
          -0.2741433990384972,
          -0.2938669587996378,
          0.3142495868560059,
          0.18073681331912866
        ],
        [
          0.034398767793423386,
          -0.09082144612995785,
          -0.13865680200578673,
          -0.00864920473179231,
          -0.06604765614141125,
          -0.38965819718989514,
          0.07610987646399932,
          0.32059701565312676,
          -0.10137051112940557,
          0.41865809912273244,
          0.34557917556180456,
          -0.04101903255741671,
          0.22126312082171445,
          0.2039330107558757,
          -0.371747077850383,
          0.41622764635505133,
          0.07297328439299891
        ],
        [
          -0.36487942393829575,
          0.3667417657640572,
          0.06949027266691894,
          0.12508390855230228,
          0.18161088295102829,
          -0.10121675264268128,
          0.05917234082028644,
          -0.13602026467459175,
          -0.2622113079289062,
          -0.06973379279941617,
          -0.28317951498066907,
          -0.050658780089385624,
          0.056187800175032616,
          -0.22643640480467764,
          0.4201508733368528,
          -0.21515948134691873,
          0.1700190343671721
        ],
        [
          -0.19977930121727192,
          0.334627605914952,
          -0.3395437570495921,
          -0.41397215107133584,
          -0.39515345791051015,
          -0.27186985881930176,
          0.32229085859338613,
          0.2215810242392125,
          0.22633176248723114,
          -0.2741495054879935,
          0.2869411100224071,
          -0.10727616545622351,
          0.3843406736098085,
          -0.3890957560839343,
          -0.09096843439507164,
          0.3376722969764952,
          -0.36742450910072205
        ],
        [
          0.11498846169327204,
          0.11872985139956159,
          -0.4778749005786781,
          0.22496195775156538,
          -0.04254309593406259,
          0.25561398286035514,
          0.2959792230589555,
          0.4232940276436656,
          0.30624208976418577,
          0.5867411636719325,
          -0.04200294784075294,
          0.05631100292320622,
          -0.1886392433024138,
          0.15108309008496534,
          0.18850808911808148,
          0.1319084632939225,
          0.2526748788415333
        ],
        [
          0.11076466457070655,
          0.0959710416535576,
          -0.35872935055829946,
          0.44906041813817454,
          0.3403592579090141,
          -0.1536983058929142,
          -0.3382162932877465,
          0.4118496211451443,
          0.4113345256508218,
          -0.05865190280363106,
          0.016669218806141334,
          -0.2364242366881005,
          -0.3053018108191847,
          -0.008913613304606157,
          -0.0010160337988837978,
          -0.3793279891047436,
          0.3685482733856006
        ],
        [
          -0.47983340800761015,
          -0.11289738418468687,
          -0.2171266563732895,
          0.5063283208151225,
          -0.03248830685946593,
          0.16934715733089964,
          -0.27069949867171006,
          0.04171602163064405,
          -0.0072925949304971935,
          0.0860562182176656,
          0.4380455324554494,
          0.521250893160571,
          -0.01832412698917071,
          -0.09834326631152758,
          0.18291030041204637,
          0.03957495484159162,
          -0.17126802922966544
        ],
        [
          -0.283906096857853,
          0.19794836890585027,
          -0.3001393168474623,
          0.2074002812611537,
          -0.04448623120925605,
          -0.09891292804789448,
          0.24597596100738134,
          0.048642940073168175,
          0.08831616522997177,
          0.1520849126629534,
          0.10725045785980201,
          0.3925921554833128,
          0.09441718132639867,
          -0.013535663900652719,
          -0.3657760610097115,
          -0.12752229775384238,
          0.3659741199905351
        ],
        [
          0.3208957730812215,
          0.08934852826665356,
          -0.005297068339607733,
          0.0519591482543665,
          0.164565256584417,
          -0.14145592724981076,
          -0.1441665648596896,
          0.2828146332780634,
          0.36964058017410106,
          -0.033964089060984526,
          0.1507074845937927,
          0.28144361552740005,
          -0.07392139642915807,
          -0.1057561915844309,
          0.35030751355021783,
          -0.276643109013908,
          -0.18060104586106424
        ],
        [
          0.47943558096996475,
          -0.10888080421660087,
          0.05558511553229206,
          -0.16748334289440533,
          0.12498013060404084,
          0.44779101351800604,
          0.2073544045087808,
          0.2921469144723303,
          0.5607891773326109,
          -0.03850077133583653,
          -0.5087696019573128,
          -0.5341452476531493,
          -0.08181460685119143,
          -0.06706778154409483,
          -0.0024748016658982536,
          -0.3139821891544641,
          0.13773819190527264
        ],
        [
          0.23135392438558103,
          -0.04061454464296165,
          -0.31319112797338217,
          -0.1811780830656336,
          0.3959640005607427,
          -0.33055437147942557,
          0.1961884431145233,
          -0.006874744782284634,
          -0.04618907355315676,
          0.12978973262993962,
          -0.3918133413781583,
          -0.17092196840149879,
          -0.30821956513362897,
          0.05036217200789286,
          0.15606860847964293,
          -0.03221589727489154,
          -0.4196114810075996
        ]
      ]
    }
  ]
}
