{
  "layers": [
    {
      "activation": 2,
      "biases": [
        0.0,
        -0.016986271137383522,
        -0.0125494748357488
      ],
      "cols": 3,
      "rows": 1,
      "weights": [
        [
          -0.6866699465422816,
          1.140740392187984,
          -0.07895410080115878
        ]
      ]
    },
    {
      "activation": 2,
      "biases": [
        0.3560651462303613,
        -0.06749547275588912,
        -0.012798925563447368,
        -0.09797098407271686,
        -0.1902456714603119,
        -0.10798299753977098
      ],
      "cols": 6,
      "rows": 3,
      "weights": [
        [
          -0.5165450604413527,
          0.4776487369970187,
          -0.5350488464720122,
          -0.06791015516950645,
          -0.4893992156440911,
          0.2070537258105583
        ],
        [
          -0.5800257133906995,
          -0.016372037420380903,
          0.5376048308913478,
          -0.015225148496471634,
          -0.1625195943229674,
          -0.07961211777909759
        ],
        [
          0.6297318192796612,
          0.6669829895501699,
          0.6596656130691612,
          -0.758413048504736,
          0.23094822254928604,
          0.2186482412410405
        ]
      ]
    },
    {
      "activation": 2,
      "biases": [
        0.11592829674445301,
        -0.3134655151693506,
        0.28973400074393746,
        0.39708806500908467,
        0.0,
        -0.029234454408512845,
        0.12905109043141297,
        0.05167410370558008,
        0.0
      ],
      "cols": 9,
      "rows": 6,
      "weights": [
        [
          0.34132385643311686,
          -0.2701460506395474,
          0.2977562496227821,
          0.4931824157675797,
          -0.1422283972803551,
          -0.04352132151012695,
          -0.223345155899537,
          -0.14300056304213504,
          -0.3921907155105647
        ],
        [
          0.1918504287294333,
          -0.23474395308786047,
          -0.14791263555119705,
          -0.5510817020577556,
          0.249237996366535,
          -0.12000845226016449,
          -0.2997075655024632,
          -0.20384884867124092,
          -0.09780073109014147
        ],
        [
          -0.3049369057352476,
          0.5232433292741404,
          0.36568704253539525,
          -0.6620538340375361,
          -0.44243925871437595,
          0.448550697688889,
          0.4757291099793319,
          0.3813051885646264,
          -0.6174152085172898
        ],
        [
          -0.14394806624405979,
          0.5527151441298987,
          -0.049410198931827395,
          -0.3487032703223567,
          0.3355244394438722,
          -0.44549736975144694,
          -0.22401563095550137,
          -0.34700442086671496,
          0.43296005846414665
        ],
        [
          0.43971619693038433,
          0.21935333527953468,
          -0.5967910371567448,
          -0.3229044838086553,
          0.1857301209051634,
          0.04570400628768682,
          -0.5964218700621676,
          -0.0301007930442395,
          -0.2736489725613134
        ],
        [
          -0.5652255365670498,
          0.4399205865567693,
          -0.4458395200189911,
          -0.5871945231302885,
          -0.23436406514234992,
          -0.36293459321668403,
          0.41018371042988644,
          -0.38328565698184713,
          -0.0016528891027109563
        ]
      ]
    },
    {
      "activation": 2,
      "biases": [
        -0.13638302351636591,
        -0.03364973629889212,
        0.13991833523771527,
        -0.10157484766216122,
        0.18690567328837507,
        0.0,
        -0.29049285159586546,
        0.0,
        0.17854592626661225,
        0.07812545057860296,
        0.05824475760116111,
        0.2824252040950646,
        0.1378071024652084,
        -0.03121019316574978,
        0.49369187564445094
      ],
      "cols": 15,
      "rows": 9,
      "weights": [
        [
          -0.01736179250501118,
          0.17292996760128532,
          -0.03242630562165289,
          0.3432076369540964,
          0.24051086941649213,
          0.237560670700651,
          -0.2088174166664562,
          -0.37091859796592896,
          0.03428523170648704,
          0.2721694281903519,
          -0.3693033653662842,
          -0.4128436906471481,
          -0.20659714778437635,
          -0.39261664593658885,
          0.17542424832315612
        ],
        [
          -0.10190122383564985,
          0.4233741898766236,
          0.018893076527659328,
          -0.37521612638384855,
          0.42762250451622064,
          -0.31780753415907154,
          0.3240113803273801,
          -0.0288760133687761,
          0.19917007828780575,
          -0.4276129831222878,
          -0.3607290689267381,
          0.13640847542937087,
          -0.25550014385679853,
          -0.3833071570300065,
          -0.3942100358637417
        ],
        [
          -0.12181540386383907,
          -0.34429503810120277,
          0.357387005029925,
          -0.29151456992636693,
          0.014206407918184949,
          -0.391226611515147,
          0.23674284574090967,
          -0.319156689019481,
          -0.011052654260724642,
          0.1280957589570816,
          0.3462030532267411,
          0.4283518966335115,
          -0.36933660214749464,
          -0.25421236680604004,
          0.12426099433422629
        ],
        [
          0.3042717197410672,
          -0.4478867714981952,
          -0.24417237005303838,
          0.2348844675353971,
          0.5405820067596193,
          -0.34565973507503966,
          -0.39753376060105333,
          -0.06647235041785626,
          -0.32155635580559844,
          0.14012486152838913,
          -0.4566351359931656,
          -0.08705132270518524,
          0.6046335026504539,
          0.36160076264947044,
          0.5411603619438206
        ],
        [
          0.39330918662869796,
          0.36703142983235015,
          -0.11344394116357154,
          0.1324709288927125,
          -0.49200810910761733,
          0.49683259380833833,
          0.2744304383054518,
          -0.2007934729106694,
          -0.36458305263173907,
          -0.27912802751135457,
          -0.22410064736572122,
          0.0928777421791468,
          -0.17097466749650175,
          -0.3361624748614442,
          0.13108272414239253
        ],
        [
          0.36253408406484516,
          -0.3073778256729255,
          0.33513527572057106,
          0.43826979076800693,
          -0.2864259779199325,
          0.26540413674218777,
          0.31818694590092184,
          0.26410079037961587,
          0.42646586609035125,
          -0.3096172332418358,
          -0.502584171907179,
          0.06177384205187995,
          0.30175147470429725,
          0.11721132706545795,
          -0.046701412867978555
        ],
        [
          0.44368370047576333,
          -0.4714112143768373,
          0.43308125528263347,
          -0.38515736112669335,
          -0.2503541754482652,
          -0.3526737740508624,
          0.36725706281860715,
          -0.25801608979609614,
          0.38060900957244354,
          -0.07234839180679906,
          -0.22695129414114779,
          0.3861175136833745,
          0.08598898684241045,
          0.20659566258578668,
          -0.05814802918389483
        ],
        [
          0.41976640820447364,
          0.40878596861447475,
          -0.41544402509229433,
          0.4380588389802635,
          -0.22634313091154643,
          -0.38812047284474616,
          -0.2741791825198112,
          -0.47642120298762863,
          0.027402485177332212,
          -0.22310234742811658,
          0.16558868587501788,
          0.17653353610413253,
          0.2036647336448846,
          -0.3737938282767221,
          -0.2126548849695159
        ],
        [
          -0.49692551139598967,
          -0.39995467006226754,
          0.11241508676317291,
          -0.21775381998985716,
          -0.2501197381644136,
          -0.14078710164911445,
          0.27111495694663146,
          -0.2111586130741791,
          -0.003911622103262513,
          0.032641814338342234,
          0.12343845405775977,
          -0.37129021243717997,
          0.07066183563818307,
          -0.17236388878541248,
          0.31741298493808745
        ]
      ]
    },
    {
      "activation": 0,
      "biases": [
        0.31447512898847646,
        0.017343183306651584,
        0.17811070516118127,
        0.17884060869907703,
        0.43174460562363337,
        0.5990569824764631,
        0.11934102681855288,
        0.619375274916899,
        0.45463639458070426,
        0.4899893160479869,
        0.5982921873228473,
        0.7130031151338602,
        -0.1484770295755129,
        0.2352906619966346,
        0.5864687685820525,
        -0.028940934630391414,
        0.29443813177672473
      ],
      "cols": 17,
      "rows": 15,
      "weights": [
        [
          -0.01979567964388479,
          0.019367528352074087,
          -0.41873311918827366,
          -0.2804901094334809,
          -0.2793977621695552,
          -0.3140816396789284,
          -0.35581861037692764,
          0.3724976919044708,
          0.26418252102533357,
          0.3960721163173233,
          0.3241057997404282,
          0.09056096481817891,
          0.33626093681734814,
          -0.12867823980457227,
          -0.0937266328982354,
          0.257951354054763,
          -0.002787362083989488
        ],
        [
          -0.03384807006364196,
          -0.3889141096938381,
          0.2776900231349075,
          -0.03057003059661608,
          0.07230918089585374,
          -0.19770377519453197,
          0.17982166360167437,
          0.3648500140049393,
          -0.11239842062749547,
          -0.1327174339276517,
          0.07949532333374938,
          -0.3560913260615776,
          0.03440821591850369,
          0.050493252490190904,
          -0.3416943532492982,
          -0.26051435957068064,
          0.2953694354319003
        ],
        [
          0.44062783296117614,
          0.29468594573090295,
          -0.4784892866156416,
          0.35025167884847025,
          0.16898049040963983,
          -0.06304566140084446,
          -0.12340320565688864,
          -0.2614282241267598,
          0.05903670565022383,
          -0.04292936240596238,
          0.16343732388138602,
          0.362676345877342,
          0.10409613259066097,
          -0.21804872523650093,
          0.3027633020474525,
          -0.3301375175199347,
          -0.17852063505934948
        ],
        [
          -0.0177018456899162,
          -0.13878976879997268,
          -0.09346759557397802,
          -0.36544097387063634,
          -0.4042294858138903,
          0.23924090929537775,
          0.39382802788962795,
          -0.24399843333839272,
          -0.18767520795724768,
          -0.1378270307831795,
          0.4059823791633049,
          0.07259293524461746,
          -0.20339733346856798,
          -0.15914244224729523,
          -0.4093002163891864,
          -0.39282701285831073,
          0.25258188560977535
        ],
        [
          -0.19112673675160338,
          0.40892785589157626,
          0.485251378520801,
          0.11438525242094015,
          0.5159192992739857,
          -0.06706196428970994,
          -0.14146060469830912,
          0.2930754214764168,
          0.25157097044710947,
          0.41854429639384777,
          0.12839471089297116,
          -0.19610652460319117,
          0.018085991751544888,
          0.11637800080915221,
          -0.1494521456581782,
          0.10836242110316238,
          0.19847193936477603
        ],
        [
          -0.08915305635424074,
          0.29831723046143427,
          -0.42727641080946605,
          -0.017339838458349324,
          -0.30007009898691456,
          -0.22640523450839706,
          -0.2638727996942228,
          -0.10723850722932705,
          0.01863643091768969,
          0.09568064783053824,
          -0.07425703699538871,
          0.36114754869253324,
          0.16259678687128337,
          0.1199782851591644,
          -0.3320855110305831,
          -0.3802038857602578,
          0.1980606100918155
        ],
        [
          -0.03797048002457135,
          0.3347140515528009,
          -0.2280609489357808,
          0.40166429608137205,
          -0.37782773567394723,
          0.2169196788672941,
          0.012167757049616134,
          -0.054143739595827994,
          -0.24131405934424574,
          -0.09548679421294916,
          -0.01265171664860042,
          -0.08461462677290281,
          -0.4661245664196144,
          0.38084511833265383,
          0.24782941182069104,
          0.3003684257461381,
          -0.18055984102875902
        ],
        [
          0.2429993605379323,
          0.3604771963720227,
          0.3076817040264172,
          -0.04716394072536158,
          -0.10329139510516977,
          0.09918836132984578,
          0.38048116682445293,
          -0.34506486789118457,
          0.19132614121432817,
          0.38462768931907365,
          0.25715785656169704,
          -0.1103805749615503,
          -0.23102540653808848,
          -0.14860604336282554,
          -0.3804778636029861,
          0.26214523019151126,
          0.20025512227131254
        ],
        [
          0.27983562063723766,
          -0.29190386733203455,
          -0.05939686529987143,
          -0.34130577019469355,
          0.35997847869880895,
          0.11007537012686339,
          -0.030625796949377053,
          0.4662158181353368,
          0.07949337415838867,
          0.37295833337186185,
          -0.17124529644553482,
          -0.11562310620889564,
          0.33256561005623797,
          -0.03986634428853245,
          0.08960143716880044,
          0.45090748473963005,
          0.2438017908909495
        ],
        [
          -0.40597554142388903,
          0.16211623390541344,
          0.26955331779840447,
          -0.298939259348385,
          0.22034805956710485,
          -0.4194668040547069,
          -0.2677731933633226,
          -0.33150999391863284,
          0.37104786524649425,
          -0.13097783136389213,
          -0.3912284111341466,
          -0.11864322150589413,
          -0.3412411221462533,
          -0.3369650827422431,
          -0.12798703766693134,
          -0.2527134517316097,
          -0.15398095101338605
        ],
        [
          -0.24754702491688385,
          -0.4036460553904879,
          -0.04494155976377465,
          0.3785689710867409,
          0.21742037338452475,
          0.19801375685958134,
          0.06276852426366311,
          -0.2523893990300874,
          -0.03253362107021752,
          0.23334162936068803,
          0.39471894596175194,
          -0.19803824278031815,
          -0.3878631173399173,
          -0.31015009285968365,
          0.01737515977368537,
          0.322081278709506,
          -0.20919990422525375
        ],
        [
          0.709252573216929,
          -0.038127266100310725,
          -0.1027903554857468,
          -0.4413380306938147,
          0.28089336506172363,
          0.017611959107305498,
          0.07242772766014526,
          0.05738081185631877,
          0.39534397949031813,
          0.17128889705006717,
          0.04751603514035785,
          -0.050160263519287124,
          -0.3332031214463828,
          0.34710753111381903,
          -0.266050716988252,
          -0.21287178181923458,
          0.19517610061076732
        ],
        [
          -0.23119824488985513,
          0.16912185897642532,
          0.34538697502588167,
          -0.34042880623282645,
          0.16726643532173727,
          -0.14600533217783368,
          -0.3644493262524083,
          0.1907746845070948,
          0.37446663207412195,
          -0.24113551966901342,
          0.07299457404034765,
          0.04504885402108357,
          0.17303002827308625,
          0.42527429939881467,
          0.35871817047102256,
          0.24012622243710163,
          -0.10235123444699923
        ],
        [
          0.06234232790769977,
          0.01424938524954899,
          0.02632190774983922,
          -0.40060978431430766,
          0.06302324368059217,
          -0.37014336302752276,
          -0.03036772547717073,
          0.16396327926983847,
          -0.1519005483571661,
          -0.2950598270123558,
          -0.06768118472004908,
          0.10486812060384128,
          -0.2808622827426038,
          0.3375211343183476,
          -0.4071757723393791,
          0.37954661481412066,
          -0.22344423061926114
        ],
        [
          -0.289769731257463,
          0.00899516164270555,
          0.3938581626761558,
          0.41722255299507544,
          -0.21863867445195756,
          0.38943062532819184,
          0.310213190504024,
          0.19780285174116674,
          -0.11695625779924661,
          0.34398138520260513,
          0.24375296326434823,
          0.41680153924965935,
          0.2953388884647337,
          -0.08535105413919686,
          0.14534324052393222,
          0.0872604977062247,
          0.14549963700138074
        ]
      ]
    }
  ]
}
