{
  "layers": [
    {
      "activation": 2,
      "biases": [
        0.0,
        0.0,
        0.0
      ],
      "cols": 3,
      "rows": 1,
      "weights": [
        [
          -0.46992418499153216,
          -0.8608464197150044,
          0.8901344701504765
        ]
      ]
    },
    {
      "activation": 2,
      "biases": [
        0.0,
        0.0,
        0.0,
        0.0,
        0.0,
        0.0
      ],
      "cols": 6,
      "rows": 3,
      "weights": [
        [
          -0.6622060670615142,
          -0.5950132157789301,
          0.5289454737952002,
          0.0719371241591352,
          0.2979713447432082,
          0.21398677939391697
        ],
        [
          0.7840221038924994,
          0.06300560631055704,
          -0.02819506515126111,
          0.6323059695501725,
          -0.38563631157019046,
          0.6248588678570974
        ],
        [
          0.4376771095938021,
          0.7556563792005501,
          -0.306443059163916,
          -0.3530671255332879,
          -0.03962915590275661,
          0.22396818182484804
        ]
      ]
    },
    {
      "activation": 2,
      "biases": [
        0.0,
        0.0,
        0.0,
        0.0,
        0.0,
        0.0,
        0.0,
        0.0,
        0.0
      ],
      "cols": 9,
      "rows": 6,
      "weights": [
        [
          0.14252102600745764,
          0.32423470268586385,
          0.38231199057379744,
          -0.5024154773587012,
          -0.32476119124714503,
          -0.43441257382070964,
          0.3870853436130547,
          0.4115763387794347,
          -0.19244512868581182
        ],
        [
          -0.3906712362242221,
          0.1757840391622,
          -0.23057988833389126,
          0.44933574594844317,
          -0.17009984014307716,
          -0.10546640791159011,
          0.305767606219155,
          -0.43508351838708015,
          -0.04768700222116204
        ],
        [
          0.1418663531217556,
          -0.42989946223754827,
          0.33131707465478766,
          0.46682967339499043,
          -0.16900849248318314,
          -0.43351701173478013,
          -0.2974955803112343,
          0.0021678417050456813,
          0.4781682876311365
        ],
        [
          -0.009558849611709106,
          -0.14826387375940092,
          0.3075696985345698,
          -0.23700966017889677,
          0.4645167304133197,
          -0.23268719850331998,
          0.18521796732641366,
          -0.2475053212496777,
          0.5944201966248769
        ],
        [
          -0.011880287441474015,
          0.0038699384316686312,
          -0.3675955727526043,
          -0.216417878627416,
          0.10160063296860211,
          0.3312648509533783,
          0.012248185281973472,
          0.47055547418694166,
          0.15266067036247274
        ],
        [
          0.18395709378730846,
          0.5315909536204129,
          -0.3531543480740985,
          0.548934166723152,
          -0.02809818762842524,
          -0.5701540510519809,
          -0.32525340885109266,
          0.4018821108461339,
          0.5282488534896181
        ]
      ]
    },
    {
      "activation": 2,
      "biases": [
        0.0,
        0.0,
        0.0,
        0.0,
        0.0,
        0.0,
        0.0,
        0.0,
        0.0,
        0.0,
        0.0,
        0.0,
        0.0,
        0.0,
        0.0
      ],
      "cols": 15,
      "rows": 9,
      "weights": [
        [
          -0.10457501122941032,
          0.32105915566024334,
          0.254183431972835,
          -0.04565604149627317,
          -0.38633515727069934,
          -0.30522914221753794,
          -0.12317158124557304,
          -0.4620427959421849,
          -0.20165329598898685,
          -0.28891850020220433,
          0.35875328204536494,
          -0.3484292872475596,
          0.03663453950389961,
          0.4475601878704317,
          0.27911826352547775
        ],
        [
          0.40778626730096823,
          0.04122918170934042,
          0.060941167436978416,
          -0.3410894278628237,
          -0.13498824864392556,
          0.013806749840177046,
          -0.14476599434612597,
          0.4467285996986221,
          -0.1869456869023599,
          0.1467671015517633,
          -0.43358866355083353,
          -0.05103076973512338,
          -0.2832945579585128,
          0.14407753834690784,
          0.14065507270426258
        ],
        [
          -0.33620547262775036,
          -0.06114301111602366,
          0.23820111329583504,
          0.3099859095225045,
          0.2525050415436295,
          0.05004456385506528,
          -0.08206697533934704,
          0.16757513474094454,
          0.0038402320369333998,
          -0.28532421951430115,
          -0.3246682988594604,
          0.32585306178119644,
          -0.3316356087250801,
          -0.48881300351992857,
          -0.010193059458487252
        ],
        [
          0.39462154539982863,
          0.3694121729905774,
          0.4461111630993482,
          -0.06681865526680775,
          -0.14776677621890177,
          0.09898471208241988,
          -0.29965452840535645,
          0.4352895910550326,
          -0.4572201552601625,
          -0.44415737685941037,
          0.299901069048746,
          -0.3875906434318007,
          0.20032415757902156,
          -0.4801501594391419,
          -0.31475031879486065
        ],
        [
          0.40431353491931854,
          -0.2896085473660419,
          -0.2096817892555528,
          -0.021139069237345376,
          0.48379208891829106,
          -0.3639440307691433,
          -0.2936589088261402,
          -0.08784313806697874,
          -0.49914945755114287,
          0.04696712388981461,
          0.4372675022749545,
          -0.23594415827465437,
          -0.15188356938393954,
          0.11627030634147595,
          -0.008607985222995274
        ],
        [
          0.29758138898647457,
          -0.4508555810669696,
          -0.12183201807636396,
          -0.2843366720640737,
          0.093638449718076,
          0.19267486300909653,
          0.4747193590620157,
          -0.37962149171141046,
          -0.20493306205837664,
          0.37645121611489507,
          0.15491073515960518,
          0.4865318778839577,
          0.29284936412835927,
          0.15503868118628794,
          0.32559235711842416
        ],
        [
          0.4504046956777594,
          0.4702490074421507,
          0.36927219055093463,
          0.15355261911337847,
          -0.21857558829643559,
          0.2864225938852981,
          -0.39173224470193135,
          -0.298411193675553,
          -0.30997401513623724,
          0.015589243041160161,
          -0.4152741725162017,
          0.14127159567609038,
          -0.08073709466528944,
          -0.264885302057902,
          0.23074608935543617
        ],
        [
          -0.048279743896927574,
          0.4750680802273881,
          0.35770658955802515,
          -0.2411305614472975,
          0.4000875018071791,
          -0.09546456979376478,
          0.1561632946395144,
          -0.39693210502012266,
          0.26672760526031614,
          0.0084077927788756,
          0.4869825201979757,
          0.35170852805101704,
          0.05164996048046744,
          0.07272831284102443,
          0.1495237968161347
        ],
        [
          -0.4376556756615898,
          0.46922438171190417,
          -0.025349298271047538,
          0.31865375527118045,
          0.27064287325862924,
          -0.4730245238044413,
          -0.36350699368096284,
          -0.2378890732014035,
          -0.10913838986732921,
          0.3097732345619114,
          -0.28478303262255295,
          0.16523095344436867,
          0.08088579521555728,
          0.3447539190970147,
          0.046453088776419404
        ]
      ]
    },
    {
      "activation": 0,
      "biases": [
        0.2656249999999999,
        0.9687500000000002,
        0.5781249999999999,
        0.43750000000000006,
        0.9518809318542483,
        0.6713336214376071,
        0.9581761360168459,
        0.9367260932922364,
        0.359375,
        0.564867615699768,
        0.597188651561737,
        0.43189644813537603,
        0.6666666865348816,
        0.0,
        0.3333333432674408,
        0.6666666865348816,
        0.49455228447914135
      ],
      "cols": 17,
      "rows": 15,
      "weights": [
        [
          -0.22771006505931649,
          -0.15845332885962274,
          0.2614385291268071,
          -0.2704153703987175,
          -0.13988291901926003,
          0.06446561388951158,
          -0.05472105087778917,
          -0.4149776829135747,
          0.1080067407244852,
          -0.16873436471855896,
          0.22416023115110623,
          -0.1697878875030237,
          -0.033988651333623825,
          -0.19917175838333417,
          0.13352123064139146,
          0.21553645630465945,
          -0.053525543609035116
        ],
        [
          -0.15680412849793043,
          -0.09698150653086234,
          -0.2155397679948908,
          0.030188769488511107,
          0.24675131804747266,
          0.07579250668785542,
          0.0222767160710757,
          -0.4273400523655789,
          0.0800450242401554,
          0.31472956921635503,
          0.2504984943344871,
          -0.0713197935938526,
          0.3295035335136584,
          -0.29155752184253025,
          0.21950218438649594,
          -0.06304291789587127,
          0.19658309497839846
        ],
        [
          -0.09168394867002637,
          -0.10837034188983137,
          0.007383340176601049,
          -0.10823782427453647,
          -0.24625629980295463,
          -0.07870906412368035,
          0.2817925716915046,
          -0.3555865239356557,
          0.3792703270590357,
          -0.0232964960711953,
          0.3787064835679232,
          -0.09261209421757388,
          -0.2665694374281061,
          -0.23553499505278783,
          -0.09500713787065704,
          -0.41325224753954126,
          0.08516186431036306
        ],
        [
          -0.27293196461694413,
          -0.12891198372130297,
          0.25016560695868234,
          0.36626076897078796,
          -0.0942261024263517,
          0.42357625592640835,
          -0.20518087797647774,
          0.09860372984457243,
          -0.41661037603997203,
          -0.10072695801282074,
          -0.3668484895387662,
          -0.2838169141283144,
          -0.28312107727876296,
          -0.03454115353584472,
          0.1658783863722592,
          -0.0067860458718846895,
          -0.22453899140507858
        ],
        [
          0.16903452919124048,
          0.17184986472642208,
          -0.019979218874801398,
          0.03617399224433826,
          0.30236004204516953,
          0.31731424705936223,
          0.03814171897345355,
          -0.3397353456865686,
          -0.15520050662401744,
          0.1616810770996328,
          -0.38771413662507964,
          -0.04295170989279207,
          0.3936479713206148,
          -0.29614694136832787,
          0.18226497645333872,
          0.2622803307800078,
          0.31188114742772177
        ],
        [
          0.4000077042204107,
          0.08595483587345416,
          0.22712503957485222,
          0.02645419391666609,
          -0.0718427539222423,
          0.11611382212834312,
          0.1890719863487055,
          -0.2264678033543278,
          0.013601368867888354,
          -0.2138542620393769,
          -0.33635618359780367,
          0.37579858806518157,
          -0.3926309275380086,
          -0.29364802831747894,
          0.19560606570523226,
          0.07621415679848523,
          -0.2653242894874883
        ],
        [
          -0.02572474615353247,
          0.11255301270121694,
          -0.14943974726397483,
          0.34460501599001275,
          -0.2217522956186615,
          0.3697737847232813,
          0.2856680775880841,
          -0.06272134357974286,
          -0.03250003649274343,
          -0.24315639038743758,
          0.27545817652882987,
          0.1235998115956964,
          0.16557770611148634,
          0.1363642356468797,
          0.1187135421103702,
          0.07976111495620346,
          -0.14052933014225866
        ],
        [
          -0.2091321139857186,
          0.2790026041390321,
          -0.16016129075264832,
          -0.20139676618086566,
          0.3825054253801658,
          0.18970228705852163,
          -0.021458557998802554,
          -0.20470513907619894,
          0.2339164544418533,
          0.04442721710245089,
          -0.14623571156483256,
          -0.2529101899984123,
          0.32488425635009255,
          0.3704901034816447,
          -0.10402807035397399,
          -0.062265989399120314,
          -0.22517558077751879
        ],
        [
          0.31367420306413,
          -0.330793728022984,
          -0.22385871772520696,
          0.4178541915616268,
          0.2621120725584722,
          -0.37919814172926924,
          -0.387416311547799,
          0.23965678189912262,
          -0.32148337712270836,
          0.1743397787067018,
          -0.003508329904387694,
          -0.20888152929045053,
          0.039525615120461544,
          0.10451600588836853,
          0.10551180154060423,
          -0.3457960594132759,
          0.005028410238485972
        ],
        [
          0.42569806295530255,
          0.2329054138035219,
          -0.37911476795164856,
          0.27539828824853085,
          -0.1536255611968489,
          -0.10222159414532862,
          0.33906287133561497,
          0.027380377130474483,
          -0.0386250902470055,
          0.36471972078209985,
          -0.07477324570202314,
          0.19512415751158288,
          0.06552862693289199,
          0.30099209096879703,
          -0.2831784575949181,
          0.10211423843947097,
          -0.3579986926405748
        ],
        [
          -0.3945419772617047,
          0.006464690130537798,
          -0.4330093212420476,
          -0.2867526347653213,
          -0.3630783540276585,
          0.15606830778780137,
          0.18252163607574337,
          0.3225090223472222,
          0.3471610569071769,
          0.11653919849539511,
          -0.111079622682707,
          -0.18648883449642353,
          -0.24468075269022524,
          0.3196894076662728,
          0.29528240148546225,
          -0.2283448485685253,
          0.2604782841385204
        ],
        [
          0.08950493997558248,
          0.39887155089323717,
          -0.3761941144566808,
          -0.020160440355285945,
          -0.24290107770187813,
          -0.15089907348741285,
          0.17915732053786365,
          -0.04386369703749108,
          0.3227381431602598,
          -0.2751542482951973,
          0.23555213099303537,
          -0.17190508550760533,
          0.4052321076828459,
          0.1982695683894488,
          -0.3802673224529224,
          0.4327196814273859,
          0.10010538577638116
        ],
        [
          0.023399796045360615,
          -0.06849483270279628,
          0.15699135675216028,
          -0.22058817157512642,
          0.00534050437756133,
          0.42767958167247366,
          -0.07324267861770838,
          -0.22953748855555195,
          0.34286819254724515,
          0.05820511152085548,
          0.32254490127661795,
          -0.14802510143599443,
          0.3122584647655168,
          -0.1491178410529292,
          0.11459146289001955,
          -0.16165523163991039,
          -0.2161408095263035
        ],
        [
          0.10483881624085344,
          -0.24489160637803,
          -0.22567239762632718,
          0.029353938031847146,
          -0.30878491990843127,
          -0.00012224157600704703,
          -0.367600750137348,
          0.306603706512271,
          0.052675359895257186,
          -0.35539694539761335,
          -0.3068719344671133,
          0.23310523793362706,
          0.014070380342882105,
          0.05396397558489746,
          -0.10178122403219739,
          -0.21778650018998266,
          0.29798316713717427
        ],
        [
          -0.3357121413092448,
          0.3255157918864417,
          0.3152816701604439,
          -0.28284365587504035,
          0.3420959791360015,
          -0.3224633603816204,
          -0.04057696022260171,
          0.2373428343292586,
          0.23681109189198316,
          -0.17925139641428633,
          -0.41532305244184436,
          -0.09919277033000405,
          0.05594718966808569,
          0.24393989306516176,
          -0.23685983487479972,
          0.35167310378325606,
          -0.0218200109208629
        ]
      ]
    }
  ]
}
