{
  "layers": [
    {
      "activation": 2,
      "biases": [
        0.0,
        0.0,
        0.0
      ],
      "cols": 3,
      "rows": 1,
      "weights": [
        [
          0.17759871813754147,
          -1.0263407150327464,
          -0.40162887623185267
        ]
      ]
    },
    {
      "activation": 2,
      "biases": [
        0.0,
        0.0,
        0.0,
        0.0,
        0.0,
        0.0
      ],
      "cols": 6,
      "rows": 3,
      "weights": [
        [
          0.41147218779332717,
          -0.022906759596798488,
          -0.40354179324612227,
          -0.2454452334250145,
          0.19703679875914912,
          -0.5766445194233897
        ],
        [
          -0.11298021539165827,
          0.3924776544946295,
          -0.5063179018842885,
          -0.2573113273475134,
          -0.11265549783679858,
          0.1499776631984866
        ],
        [
          0.312567150290319,
          0.7125583570687594,
          -0.1576105404749788,
          -0.46558613642009683,
          -0.7618775526047494,
          -0.6668565278537824
        ]
      ]
    },
    {
      "activation": 2,
      "biases": [
        0.0,
        0.0,
        0.0,
        0.0,
        0.0,
        0.0,
        0.0,
        0.0,
        0.0
      ],
      "cols": 9,
      "rows": 6,
      "weights": [
        [
          -0.4845828927972086,
          0.415265061344186,
          -0.20195519182299096,
          -0.12489920521242621,
          0.16911984732488688,
          -0.2582191948352903,
          0.5309422775484985,
          0.4402998239769118,
          -0.5417113611675021
        ],
        [
          0.37766228699309795,
          -0.41936551191421134,
          -0.5045240763041409,
          0.5714243465568408,
          0.14211303003363007,
          0.019853218359473124,
          -0.40069823755054274,
          0.38941678594946777,
          0.2869920145905142
        ],
        [
          0.046338003026616476,
          -0.191709758866356,
          0.4276230638308536,
          -0.540716882577631,
          0.34160681606053067,
          -0.2634799461159168,
          -0.14877341739002245,
          0.2780759682256657,
          0.36890193395908716
        ],
        [
          -0.382398597146362,
          -0.337437087300695,
          -0.163832225535648,
          0.557349841678605,
          -0.04556227237086131,
          0.14618092958505702,
          0.29434758704707736,
          -0.22358376010114137,
          -0.45923200778108536
        ],
        [
          0.03989428730843571,
          0.5560850152255101,
          0.1831718969892901,
          -0.5525513904922605,
          -0.4939179763179346,
          0.40559711725546327,
          0.032723932815959346,
          0.2785153242194199,
          0.17495816227898014
        ],
        [
          0.10042283718255439,
          -0.30700149851386627,
          -0.22345724093658478,
          0.2458123790736773,
          0.3318854985031347,
          0.2650254536121077,
          -0.2451740314694743,
          -0.4287939574791974,
          -0.3963905337739396
        ]
      ]
    },
    {
      "activation": 2,
      "biases": [
        0.0,
        0.0,
        0.0,
        0.0,
        0.0,
        0.0,
        0.0,
        0.0,
        0.0,
        0.0,
        0.0,
        0.0,
        0.0,
        0.0,
        0.0
      ],
      "cols": 15,
      "rows": 9,
      "weights": [
        [
          0.11927581979859425,
          -0.33008439179048144,
          -0.47083680516613496,
          0.2877899356129532,
          -0.4662323435611242,
          0.22448079182043712,
          0.24521259951647956,
          -0.3839191174525391,
          0.24259197141164535,
          0.19235545335912863,
          -0.27104693081744335,
          0.22660525456378477,
          -0.4065557224240879,
          -0.34157549629061273,
          -0.02651424451103168
        ],
        [
          -0.3312966450263265,
          0.27162717737798914,
          -0.35418442723070476,
          -0.11455215309492878,
          0.03300176818529221,
          -0.15133187391391578,
          0.28816007347226147,
          0.4713929751754705,
          0.2432635155242232,
          -0.08189539312473282,
          -0.48576624877088065,
          -0.4454865464686819,
          0.017973218354384035,
          0.14063384367182563,
          0.3750925030908978
        ],
        [
          -0.10271295746914716,
          0.23797019186335155,
          0.22233153354485125,
          -0.2780370664680549,
          -0.33928210979294127,
          -0.43480487118233224,
          0.10635484829840947,
          -0.298266225866166,
          -0.47009458438032053,
          -0.4158722473848016,
          -0.27334309219072717,
          -0.2923864991368663,
          0.07588088213274291,
          -0.3669894076264414,
          0.17969944871948074
        ],
        [
          -0.29667618395605877,
          -0.4349853526498123,
          -0.2739157116850446,
          0.031023871400870373,
          -0.31441928996444646,
          0.23453003854236099,
          -0.4940646486329216,
          0.03954186734722087,
          0.1203203199525924,
          0.4351382036391358,
          -0.07735044955152576,
          -0.13989099331195048,
          0.32998600501100817,
          0.009026022399322153,
          0.20863462831295776
        ],
        [
          -0.23662374947994191,
          0.20117801460492335,
          0.29863370945613543,
          0.41820663442751704,
          -0.4450064324517764,
          -0.25364221853839336,
          0.25545042648699623,
          -0.41983549525953623,
          0.2236174432205118,
          0.3677885629552363,
          -0.02900561249302963,
          -0.14792459395151797,
          0.07478622001353008,
          -0.2996415345927894,
          -0.4778019441188322
        ],
        [
          0.0646424906163674,
          0.1988914649462753,
          0.13675482926739135,
          -0.20109517672150173,
          -0.22311021700646272,
          0.035233025222659586,
          0.35531796694515183,
          -0.17516882702483277,
          0.33836820714099713,
          0.4223775886569068,
          -0.49732917034874163,
          -0.16865054316290212,
          -0.06800023259967575,
          -0.0752719010111279,
          -0.41727480521298704
        ],
        [
          0.4463397892873454,
          -0.23114864795056572,
          0.4384154970470888,
          0.19336484172072488,
          0.18658277238094378,
          0.16145491723970273,
          -0.17092955283398253,
          -0.062475806364079844,
          -0.04554258126092264,
          -0.09986744336777714,
          0.3886339486989351,
          0.4903210611037543,
          0.12009069724943988,
          -0.09484029402716099,
          -0.13765121467302144
        ],
        [
          -0.36716144758610125,
          0.08467389484153776,
          0.44925887042156365,
          -0.11710519977710454,
          -0.10334459347806152,
          -0.4272059523161528,
          0.18700551925553266,
          -0.0308775610899914,
          -0.43416325232673586,
          -0.4721206822302754,
          -0.2292242169981935,
          -0.17392602920249384,
          0.36434867133588933,
          0.019178285505240034,
          0.49603499052861477
        ],
        [
          0.1175504203967519,
          0.11415060172516411,
          -0.30616482477922213,
          -0.18709265379565426,
          0.08741741421977867,
          -0.05044057758079867,
          0.001762127737403918,
          0.04083076051475054,
          0.018218144550089743,
          0.06769375576064629,
          0.42858491136160903,
          -0.17477280631418007,
          -0.3918808577078771,
          0.3294444865684232,
          -0.13991418557237562
        ]
      ]
    },
    {
      "activation": 0,
      "biases": [
        0.6863483954502632,
        0.7768211643012011,
        0.9403493406719626,
        0.24419053769417362,
        0.8541272623213556,
        0.6478543243408351,
        0.8550575776935653,
        0.3018845253757598,
        0.2817236249377368,
        0.9763786938942778,
        0.2096132985436154,
        0.7624093648034469,
        0.6666666865348816,
        0.3333333432674408,
        0.6666666865348816,
        0.6666666865348816,
        0.23931034823200883
      ],
      "cols": 17,
      "rows": 15,
      "weights": [
        [
          0.40034889542153873,
          0.3658998778101125,
          -0.0285160920982616,
          -0.32583853852155487,
          0.4221816915556568,
          -0.020778731953630964,
          -0.4184394864334601,
          -0.14501823430434482,
          0.22643927531260108,
          0.04743204447165645,
          0.279809366077081,
          0.2709741745716211,
          0.16018882633581935,
          -0.3524777134452742,
          -0.1280769671616414,
          0.40636929137637867,
          0.3092257654822034
        ],
        [
          -0.3535020552865893,
          0.03285408126215513,
          -0.35791160268839456,
          0.37633660101772826,
          0.26155677001809174,
          -0.2199102195465775,
          0.27985564626249826,
          -0.3259777037137828,
          -0.4167494537216325,
          -0.41902545033769645,
          0.23807310799857745,
          -0.164646477127077,
          -0.17937613970368244,
          0.3868574146217594,
          0.3495667224074355,
          0.37234591871282435,
          0.13899234897694895
        ],
        [
          -0.3747732404572521,
          -0.3456638414309379,
          -0.007851697137073923,
          -0.3602959365804603,
          0.03968408425667361,
          0.16536343265588296,
          0.1498787805221235,
          -0.23056197718878677,
          0.10539710906168524,
          -0.04216025060909302,
          0.25736064798560665,
          -0.2621759835019541,
          -0.14034942615958054,
          -0.20616406565460296,
          0.051564228137993245,
          0.11828806008539818,
          0.3738952489500125
        ],
        [
          -0.21109064081356146,
          -0.2737743437592353,
          -0.3276124075668599,
          -0.2441828470002546,
          0.1308431878949132,
          0.18769190316213805,
          -0.2552353736025223,
          0.4085313234240043,
          0.3872612605662876,
          -0.17855169135568724,
          -0.3364812091793529,
          -0.054500262119290245,
          0.20039444474059723,
          -0.031810915373516345,
          -0.25144687297047713,
          -0.32690123378462566,
          0.17711924297470327
        ],
        [
          0.30567915131763757,
          -0.13242525474655772,
          0.007783285246846697,
          0.11327900117565047,
          0.24295874111673546,
          -0.392729540655882,
          -0.3170991932675926,
          0.33655158420986836,
          -0.34692850624447813,
          -0.1402525019553322,
          -0.09379596500049903,
          0.2689717650252906,
          0.056637437536278507,
          -0.30838054769067463,
          0.13637645325126968,
          -0.16387460972535828,
          0.3138038687221287
        ],
        [
          0.28680094624441804,
          0.01403120061166652,
          0.043839172301771034,
          0.356335240961166,
          0.09778310534542946,
          0.24023784158210915,
          0.03419364100685779,
          0.4105636990889448,
          0.12163922968097834,
          0.09734873797329846,
          -0.2625488757086107,
          -0.04415297471164766,
          0.14349391313555665,
          0.21017661269659488,
          -0.29019402331996264,
          -0.27978161958134407,
          0.006912565585473338
        ],
        [
          -0.03389393425073895,
          0.26347885091258544,
          -0.18264974469088,
          0.3607276649242334,
          -0.2755648422320102,
          0.26697102745505585,
          -0.3483437106076473,
          -0.1463267665119416,
          -0.2954450868566194,
          0.2182513684227166,
          -0.25952175290514634,
          0.10472506460135353,
          -0.1785514703612587,
          -0.07929244505471504,
          0.16412417534595322,
          0.22826224585175725,
          0.1320856879351341
        ],
        [
          0.18936273799117623,
          0.3011577379879157,
          0.2657973962150759,
          -0.29398751326417816,
          0.0855560457813896,
          0.10444142994733915,
          -0.2810145999236104,
          0.19818198160307898,
          0.244090500768182,
          -0.3328613502828972,
          0.3878577854232492,
          0.35054026496923535,
          -0.13653824859559527,
          0.1449723896553925,
          0.14410398599949878,
          -0.08897273457917587,
          0.34104722628237666
        ],
        [
          -0.02382149011291145,
          -0.3603827571452714,
          0.297805466646389,
          -0.3732068408201096,
          0.3382911656469726,
          -0.08638034612764164,
          0.2901713242079248,
          0.11086184799785506,
          0.06670868394882751,
          0.12339424282027392,
          0.1525853230811132,
          -0.04058860759684228,
          0.16897588259314103,
          0.42149209255614184,
          -0.31736169149827415,
          0.2611222635162566,
          -0.24141552129484026
        ],
        [
          -0.2640477792919258,
          0.02867472778684397,
          -0.41035594819517807,
          0.13462594710783704,
          0.20284518382895553,
          -0.3359006245537328,
          0.32039725241747186,
          -0.43158964416134843,
          -0.33004677290378415,
          -0.24380298338723777,
          0.2003044185467493,
          0.2552903020096897,
          0.28035973374734924,
          -0.07020336563252029,
          -0.047487103136488906,
          -0.3348634618093689,
          -0.14164967228593217
        ],
        [
          -0.3368575679336507,
          0.42602540933941463,
          0.1738944229108707,
          -0.2660870473214237,
          -0.32301008607983805,
          0.13781039616756743,
          -0.029339351189742895,
          0.10163267867499345,
          -0.2034009545710358,
          -0.43055648512626565,
          0.27561800510339673,
          0.3742555287465391,
          -0.0381768994314074,
          -0.3813662313632278,
          0.3596798742835764,
          0.24889656500366966,
          -0.002207106240637005
        ],
        [
          -0.3570797219912804,
          -0.08898372219632701,
          -0.19217190947555574,
          0.03018081167271277,
          0.2827395808072772,
          0.4273986687180905,
          -0.3380206926629634,
          0.33833422770184357,
          -0.357574738219426,
          0.14542850562155413,
          -0.058073070172750485,
          0.1701639567062271,
          0.08567546060475693,
          -0.16823711313983464,
          0.28232866868688017,
          0.30186773783806703,
          0.14425777634490894
        ],
        [
          0.11716071870942359,
          0.07645338205750889,
          -0.4245518434932207,
          -0.24198483439805807,
          0.12274406269375569,
          -0.3912992469705759,
          0.012867239491031324,
          0.06056373625998121,
          -0.4083483936727184,
          0.29320450177480056,
          -0.02346032835504335,
          0.3297370653432268,
          -0.25278010937094847,
          0.011782814991106028,
          0.1447472854564203,
          0.31425447515200905,
          -0.33068356754294714
        ],
        [
          -0.2215688565316764,
          -0.22970697555450295,
          -0.25953181057128993,
          -0.1838155564382166,
          0.08694987941873893,
          0.03047250455787707,
          -0.2466568203459183,
          0.3148658747890712,
          0.13987253429749325,
          0.2035137956167044,
          -0.2561799412944443,
          0.1942984069902124,
          0.24533276892556272,
          -0.2860459111172449,
          0.10226743556808494,
          -0.21397380147456618,
          0.3523217942137545
        ],
        [
          0.0014645452004387659,
          0.05611192649664752,
          0.21881859054762837,
          -0.27544175801392595,
          0.38176720639655815,
          0.3303704676372575,
          0.10242836225912767,
          -0.3304849467839636,
          -0.42128733678212044,
          -0.3439820185814741,
          0.26203428050326893,
          -0.20847138661780823,
          0.16089991422058408,
          -0.266611740117085,
          -0.2516369193069448,
          0.34582053373968286,
          -0.4093157274202461
        ]
      ]
    }
  ]
}
