{
  "layers": [
    {
      "activation": 2,
      "biases": [
        0.0,
        0.0,
        -0.040481834419107035
      ],
      "cols": 3,
      "rows": 1,
      "weights": [
        [
          -0.7415550791156156,
          -0.3124034153397208,
          1.1013250780275994
        ]
      ]
    },
    {
      "activation": 2,
      "biases": [
        0.03860871341925497,
        -0.2068504846895807,
        -0.22326091058301306,
        0.024861728873961576,
        0.0,
        0.014419779131361056
      ],
      "cols": 6,
      "rows": 3,
      "weights": [
        [
          0.6974216856198995,
          0.7267622587622818,
          -0.6455904050659684,
          -0.0373521765446427,
          -0.7966701668225088,
          -0.6251664052045282
        ],
        [
          -0.05864558478383406,
          -0.09556766111277343,
          0.8016225857482074,
          -0.7086570333167573,
          -0.724559733053067,
          -0.49376889452638234
        ],
        [
          0.6751794034221763,
          0.4143609312309798,
          0.42303881489877393,
          0.7587202811889483,
          -0.44542546679065853,
          0.4694009800858529
        ]
      ]
    },
    {
      "activation": 2,
      "biases": [
        -0.024022312314962314,
        -0.33798690260237774,
        -0.014373456162108623,
        -0.13228957430622762,
        0.0,
        -0.05490162244826475,
        0.0,
        -0.09807797033749016,
        0.0
      ],
      "cols": 9,
      "rows": 6,
      "weights": [
        [
          0.14127820448314943,
          -0.24221762656811013,
          -0.3880128711187321,
          -0.36438454067267273,
          -0.28624096034344415,
          0.27705014178074683,
          -0.621782278453213,
          -0.39672135013491316,
          -0.5632858680014853
        ],
        [
          0.11541542752263813,
          0.3654792343907716,
          0.11242569293616568,
          0.08109830154394228,
          -0.3950438441272637,
          0.34082586256341857,
          0.40045736130875775,
          -0.4469623394629786,
          -0.5511800209027788
        ],
        [
          0.04539359909534872,
          0.20781588329005363,
          -0.23850853848672773,
          0.35775818201303283,
          0.01628704260762503,
          -0.5219370576614257,
          -0.10490038608727077,
          0.21077014172045322,
          0.5260219162799951
        ],
        [
          0.7231196618840404,
          0.29342726276933273,
          -0.11110854475889387,
          -0.42816066750644,
          0.515535267805989,
          -0.037898808497983535,
          0.22523434112853283,
          -0.6021185569944499,
          0.3869201511548273
        ],
        [
          -0.5054160571477729,
          0.3349639155333034,
          0.6167177922089244,
          0.367457998269515,
          -0.039542846100920855,
          0.5499018643354682,
          -0.3652434063324757,
          -0.5180748669058357,
          0.05920008892744244
        ],
        [
          0.7051390777250885,
          -0.4149721700621084,
          0.5020492296583536,
          0.5560441748787728,
          -0.5183057828174811,
          -0.504596147538358,
          -0.03253631106078448,
          0.3576014985576571,
          -0.5091128174810093
        ]
      ]
    },
    {
      "activation": 2,
      "biases": [
        0.049502740750126575,
        0.2528425015530086,
        0.18838698880410804,
        -0.10489241434116385,
        -0.08050115486246226,
        0.0762814505228617,
        -0.024709756423418112,
        0.0,
        -0.3683573779513997,
        -0.3956983996216071,
        -0.132451310247856,
        -0.17838210537280896,
        -0.06661805927239133,
        0.2342140594776146,
        -0.0071115807801780135
      ],
      "cols": 15,
      "rows": 9,
      "weights": [
        [
          0.41345476006347204,
          -0.2338913741620188,
          0.061643841794085816,
          0.3775805786350298,
          0.021694618835894696,
          0.038571092287543136,
          -0.41273684705005265,
          -0.14424879087333048,
          0.36383513975070325,
          -0.0016449343770873713,
          0.24969317303084512,
          -0.3111533150551376,
          -0.4956869005962323,
          -0.008122058548656226,
          0.7424747629576279
        ],
        [
          0.4675291798843728,
          0.2868239487451578,
          -0.01586034620400072,
          -0.4980850005142091,
          0.33769142831731636,
          -0.33148720185740055,
          0.05525002909862229,
          -0.38942820806495293,
          0.14504951713093026,
          0.015354040596659872,
          0.2183364747735451,
          0.2985676251417112,
          -0.4815582246433749,
          0.3548008907088345,
          0.23621581977297118
        ],
        [
          -0.4698669999017723,
          -0.4573955904008182,
          0.04368845554479369,
          -0.18057332203297094,
          0.08158468808121266,
          -0.19984219094637556,
          -0.0460918622771706,
          -0.11989294766443453,
          -0.17627150690009424,
          0.2802003853862176,
          0.2165514134391818,
          -0.16309949088054687,
          0.442582379221974,
          0.39573335773198226,
          0.028025719954653916
        ],
        [
          -0.42425164940999266,
          -0.005871186209489686,
          -0.25585120625600744,
          -0.25918309006801954,
          0.1851378660981186,
          0.3936129100125343,
          0.3314036309752432,
          -0.0407713961511717,
          0.38807873926232955,
          0.31029438296920414,
          -0.3835845502038843,
          -0.22197680545513768,
          -0.4141352604674805,
          -0.10366101542913303,
          0.11703479191100735
        ],
        [
          -0.14771492390321334,
          0.11236743052134635,
          -0.09122354471647348,
          -0.09019477320378405,
          0.08032787897639349,
          0.4521785806641814,
          -0.2736174663405947,
          -0.24485511274303084,
          0.1967906671095596,
          -0.36813223216130037,
          -0.021615547370917865,
          -0.298255701921068,
          -0.3713226769451623,
          -0.43686387545283134,
          0.13318802864904888
        ],
        [
          0.3552742064579413,
          -0.44059469213826735,
          -0.1941153598827428,
          0.09644664114845627,
          0.07066195624445659,
          -0.23459412457819911,
          0.3112432136252724,
          -0.27987987211899823,
          0.4607421103682099,
          -0.1984259349752338,
          -0.2925046630168821,
          0.21641781261023962,
          0.1797685826568718,
          -0.37115425460749846,
          0.4911977779033181
        ],
        [
          0.0894237675654812,
          -0.08399248616024502,
          0.4915515258868931,
          -0.019237421229126583,
          -0.38450139941857264,
          0.1655812322467478,
          0.06469139995271866,
          0.05898929599625491,
          -0.30735104149549786,
          0.055310871245018656,
          -0.12587132473749635,
          0.3341765402975383,
          0.3705687140443217,
          0.0023564824379778138,
          -0.4435407803130992
        ],
        [
          -0.05409068383124438,
          0.34034596164919695,
          -0.49149786524562983,
          -0.3238763246194657,
          -0.31502002794994977,
          -0.07506713674023437,
          0.2683590053433361,
          0.43309780905633133,
          0.35104558516808115,
          -0.39018698497218407,
          0.48064513689868393,
          -0.4948872192738984,
          0.14837694291415482,
          -0.3926562384810885,
          0.41011525098366997
        ],
        [
          0.00957744173220243,
          -0.4422442656672766,
          -0.32876993940620214,
          -0.3518154205995684,
          0.4583902451947286,
          -0.19137308173411205,
          0.3098028054506531,
          0.07487680976040512,
          0.023149919939762897,
          0.12734357250265016,
          0.20281585618053366,
          0.4305056635898099,
          -0.22872044179994633,
          -0.0365680961574279,
          -0.3605969850256094
        ]
      ]
    },
    {
      "activation": 0,
      "biases": [
        0.27403169804253813,
        0.6196887299811129,
        0.3452829447285542,
        0.9167042685343352,
        0.7631605232445159,
        0.5486483892115902,
        0.3699463565708251,
        0.5845932465556192,
        0.014274187807088437,
        0.9455950040698842,
        0.4873441745293172,
        0.8314147333203723,
        0.9527910111085659,
        0.44987079122173734,
        0.06907845822932199,
        0.3767671725409891,
        0.3753864909455209
      ],
      "cols": 17,
      "rows": 15,
      "weights": [
        [
          0.4341451265102834,
          0.012399709692438417,
          -0.33206070354958556,
          0.41241222331687566,
          0.25156308573256814,
          -0.3627265793161632,
          0.19521571096670418,
          0.398883045254269,
          0.29123959776254416,
          -0.45073692175021357,
          0.21409486393268118,
          -0.11389032308590366,
          0.17560347490376202,
          -0.0023153208967741936,
          0.05682442449941715,
          0.2702524125155853,
          -0.09065439434162255
        ],
        [
          -0.08837418110884264,
          0.3403148085841237,
          0.3695807836831998,
          -0.005181933899142974,
          -0.2878628631432944,
          0.355381493076085,
          0.38982554230822225,
          -0.21206567354921502,
          0.10547304778587763,
          0.14534874388899477,
          0.30574176488823507,
          0.11385718355367114,
          0.10412308162662134,
          0.4475004401412037,
          0.20840729079561585,
          -0.04614617408350201,
          0.12727134897907882
        ],
        [
          -0.08478339540773751,
          0.314750824338201,
          0.31649467020151467,
          -0.020068669587811398,
          0.024067086725460457,
          0.08985596060131004,
          0.12974107450957947,
          -0.2742220678943146,
          0.09592814201781542,
          -0.3146363770939618,
          0.2667234135089087,
          0.36450583429524297,
          0.04513064755298787,
          0.13005477620437597,
          -0.38692314349469314,
          0.23991958364458035,
          0.14932633363897382
        ],
        [
          -3.1886143363509683e-06,
          0.19931899151486018,
          -0.3244650199779583,
          0.19950649921914618,
          -0.32400951918335563,
          -0.14521956005779987,
          0.030757635425358153,
          -0.3139167940650359,
          0.27324139120705476,
          -0.011743592995784972,
          0.2462113289536428,
          -0.1664797401473416,
          -0.09802782016657757,
          0.2040284444637833,
          -0.047125674952598465,
          0.05015623929838169,
          -0.30174474334456025
        ],
        [
          -0.11092482463120605,
          0.3984858159855966,
          0.43698064632942063,
          0.3375897781601155,
          0.22045072278578268,
          -0.03486582463402837,
          0.03095456623308891,
          -0.0342075019116983,
          0.11161445842692935,
          0.474404663244838,
          0.11065868891909865,
          -0.28196053911580493,
          -0.09669387809191432,
          -0.05299345632199643,
          -0.3700862067397649,
          -0.18913485341958558,
          0.0896163711252473
        ],
        [
          0.41350393446216854,
          0.3305955125118544,
          -0.22759191691985473,
          0.37622010332719763,
          0.1057948363092359,
          -0.07193019372162597,
          0.11806815983907003,
          0.363861002919109,
          0.2702634204504894,
          -0.24566601027710808,
          -0.13920742071598477,
          0.24759419121579257,
          -0.2763279503820731,
          0.32333145533001845,
          0.30861580173329173,
          -0.3889137370170419,
          0.18461114977291063
        ],
        [
          -0.23202135031437507,
          -0.1340238955276834,
          0.05321806282493955,
          0.31154656390914487,
          -0.10114785352274878,
          0.25676445664831027,
          -0.19436247698435646,
          0.009777154643927439,
          0.3259977540014469,
          -0.13676305382026138,
          0.0030102424783891653,
          -0.2983850575860772,
          -0.046689133739137585,
          -0.05377805450909083,
          -0.2699464292331845,
          0.07775499000485202,
          0.02429110334486109
        ],
        [
          0.2392503658861769,
          -0.4091091456192681,
          0.2876372669938274,
          0.07923963343542204,
          -0.3159735250775374,
          -0.06949959556691523,
          -0.061066409461144736,
          -0.28913864990879645,
          0.26886961236709067,
          -0.16839914117354937,
          0.3956136038452279,
          0.2514420679547553,
          0.3309009240321379,
          0.09487092424452793,
          -0.17824947219940493,
          0.3947071766461232,
          0.2459711621448618
        ],
        [
          0.19753566146660775,
          0.41411447519873484,
          0.21507494964816326,
          -0.031437490742586276,
          0.0782820431428166,
          0.21783722039910328,
          -0.02470376558524251,
          -0.10055652461008371,
          0.13351477439144513,
          -0.03830775824390223,
          -0.14017050648425328,
          -0.09876857849069906,
          0.0483583537143362,
          0.2019570813362537,
          -0.2096862516967004,
          0.16876910081490967,
          -0.25350313194006024
        ],
        [
          -0.032864580020997,
          -0.15772476134889243,
          -0.33647765419551395,
          -0.1515126872042459,
          -0.173744431157341,
          -0.38728631124936996,
          0.3077880549119703,
          0.01747496035116717,
          -0.28491159232702923,
          0.30034928277334644,
          0.12786368580111143,
          0.1390103993045733,
          -0.22059132786588267,
          0.3875883283516022,
          0.2439686531685647,
          -0.14434952739057053,
          0.13444338501717032
        ],
        [
          0.44788974981914564,
          0.21171784386565176,
          0.17871774581497016,
          0.31066268787184204,
          0.03132431040098895,
          0.2631677071415705,
          -0.3539874665504236,
          0.4126460068920087,
          -0.21217565607095495,
          -0.1466343548132319,
          -0.16970922088470816,
          -0.20936741279540158,
          0.14287345975660926,
          -0.21750440424861042,
          -0.25154847319658813,
          -0.10198850081771188,
          -0.06891913260823869
        ],
        [
          -0.19362485744467725,
          -0.005295725693725072,
          -0.13427746886161807,
          0.08870935992424725,
          -0.2035827133855969,
          -0.06441796399813413,
          -0.18347483768463888,
          0.0647321958994317,
          0.2866124215068546,
          0.005453648417063732,
          0.38730546286871487,
          0.10016672952893658,
          -0.10971846294972291,
          0.09806210009228873,
          0.02347976964315073,
          0.15968930282898947,
          0.013665820946587224
        ],
        [
          -0.12747651467754503,
          0.1043490308393372,
          -0.32240617299637875,
          -0.3503683680592472,
          0.18156477626153653,
          -0.3542493776862228,
          -0.2525109331464077,
          -0.35738851268973265,
          0.05701700426060815,
          -0.29594930759321303,
          0.41726635294492675,
          0.3988621132035548,
          0.23611060037427023,
          -0.11730714072481274,
          -0.1404032855385191,
          -0.33042787029895243,
          0.24697317357861762
        ],
        [
          0.3296946576914922,
          0.10817540538194308,
          -0.29505896170237544,
          -0.11814096392140189,
          0.16823198883185972,
          0.13208597762347596,
          -0.35426768823396215,
          -0.21598475658643632,
          0.1685824639318941,
          0.46905010886521437,
          0.17450578974610034,
          0.24891324679268745,
          0.10412462641220646,
          0.23667416367884547,
          -0.3198125991487555,
          -0.2641486245806927,
          0.25038171354191
        ],
        [
          0.018000636646816955,
          0.04632907806821679,
          0.36972016529532997,
          -0.3792170121801742,
          0.10673595234059688,
          -0.2506670973701329,
          0.04353395196286263,
          0.419927335244863,
          0.7491949277109683,
          -0.027388908848143656,
          0.26762192009107083,
          -0.3588587043930092,
          -0.042074250718808784,
          0.07072124396627628,
          0.11461591228140858,
          -0.17442623588311268,
          0.20622392288168512
        ]
      ]
    }
  ]
}
