{
  "layers": [
    {
      "activation": 2,
      "biases": [
        -0.0015812427989829285,
        -0.03439772364316993,
        0.0
      ],
      "cols": 3,
      "rows": 1,
      "weights": [
        [
          0.12251437992559239,
          1.124962299809336,
          -0.32698967379240973
        ]
      ]
    },
    {
      "activation": 2,
      "biases": [
        0.0,
        -0.028970263503152797,
        -0.045187758389086896,
        0.09528420041441409,
        0.0,
        0.0
      ],
      "cols": 6,
      "rows": 3,
      "weights": [
        [
          0.6263569176132288,
          0.10246359163080279,
          0.095138590003163,
          0.07940893654573837,
          0.3942741591214275,
          -0.6935498593859949
        ],
        [
          -0.7262001565637651,
          0.5074761139901365,
          0.3002902538211617,
          0.171494727833464,
          -0.12045845559285563,
          -0.18729737620019773
        ],
        [
          -0.25513965955081436,
          -0.3766891062219772,
          -0.45694651556545945,
          -0.7136276848735155,
          0.3662575516353703,
          0.5038142605888849
        ]
      ]
    },
    {
      "activation": 2,
      "biases": [
        -0.018868669594245487,
        0.05537111856238539,
        0.0,
        -0.12784008242236192,
        0.0,
        0.0,
        -0.2058806117107296,
        0.006720181280539474,
        0.0006273214772375226
      ],
      "cols": 9,
      "rows": 6,
      "weights": [
        [
          0.41575197894514154,
          -0.019691095285063517,
          0.10263878916703847,
          -0.13506754839448973,
          -0.45880598661370786,
          -0.5907406368570299,
          0.5929366363741488,
          -0.45069986057717215,
          0.5819382413342923
        ],
        [
          0.19079471940031564,
          0.5366110009261548,
          -0.2885618574527438,
          0.3550576892389424,
          -0.25437046201128094,
          -0.29094179145911947,
          0.40087670286574945,
          -0.6185198564280528,
          0.38197349861624846
        ],
        [
          0.6200343510559495,
          -0.43557943155263545,
          -0.19011857403831053,
          -0.2129586437967475,
          0.19504152405021824,
          0.2874846309610795,
          0.2327599935677474,
          0.21612267203949018,
          0.5790490438951434
        ],
        [
          0.19802634569540362,
          0.014314986783288651,
          -0.15752602775462557,
          -0.43222400783908993,
          -0.5865833505580972,
          -0.20607217442057563,
          -0.2635520796093531,
          0.0335749126819288,
          -0.006581554556218374
        ],
        [
          -0.2760930891444871,
          -0.5437980974533445,
          -0.08109137902539167,
          0.10069368158973489,
          0.010460511000926292,
          -0.12854207020516767,
          -0.013013745327408052,
          0.5467669920833862,
          0.08985893459736502
        ],
        [
          -0.6027662523478732,
          -0.6321860117437132,
          -0.5935912792198249,
          -0.09229724344220784,
          -0.012829512793973123,
          0.06152348878320941,
          0.10759636590442892,
          -0.06604450383826978,
          -0.04469671850369524
        ]
      ]
    },
    {
      "activation": 2,
      "biases": [
        0.0,
        0.000644623438172774,
        -0.08868021875785687,
        -0.12496670621318863,
        0.2138887163962578,
        -0.07167393415288022,
        -0.13251875993056342,
        0.07277899501320904,
        -0.30649659492331566,
        0.35492702779504487,
        0.0,
        0.11797592423602969,
        0.0,
        -0.10322216638316234,
        -0.16927647270872362
      ],
      "cols": 15,
      "rows": 9,
      "weights": [
        [
          0.11022448009356134,
          0.28321922678875017,
          0.19907919353489195,
          0.15317659071297468,
          -0.3717682231046446,
          0.16253765513096943,
          -0.10499742135341579,
          -0.02178748401121613,
          0.16953675800806184,
          0.34980185513235146,
          -0.08545175128870258,
          -0.2711580145973518,
          -0.19488023207284522,
          -0.1839816796142518,
          -0.249225395610975
        ],
        [
          -0.45716306751461844,
          -0.08918412767091809,
          0.04596090124972989,
          0.04018422427698616,
          0.09240781970554052,
          0.460876929362686,
          -0.12215455943316511,
          0.475862564388587,
          -0.09368072213833382,
          0.3086422775077448,
          -0.18758390922452506,
          -0.47973125864812527,
          -0.3520604483094348,
          0.43484442535627543,
          0.06145817438871135
        ],
        [
          0.4603242818081399,
          -0.2774550103477459,
          0.2789717986150514,
          -0.04076113018242694,
          0.17334660406845925,
          0.042090397114907585,
          0.08153006647784733,
          0.03860603391127937,
          -0.03563624365983353,
          0.49038608138933126,
          0.27723766340745504,
          -0.19709963151118703,
          -0.0799547366704581,
          0.3058571958941674,
          -0.03890237563238591
        ],
        [
          -0.32979565059290994,
          -0.18415939288065564,
          -0.32765988691071535,
          -0.0723149760497338,
          0.4363745785953359,
          0.39493864132586937,
          0.2551125308696388,
          -0.14838805312681386,
          0.02982649144302428,
          -0.05000190727496557,
          -0.46659111090311367,
          0.3507757521430534,
          0.2007407796106957,
          -0.45810860672877574,
          0.13596746937961973
        ],
        [
          0.12450048496224941,
          -0.13427708606900512,
          0.2777644823201767,
          -0.39780246787602197,
          0.14754245180987868,
          0.4055423992246121,
          -0.17068352628065436,
          0.04199109763931064,
          0.1987638439511712,
          0.4465856239882231,
          0.003199051368608652,
          -0.4889307967335595,
          -0.14971708303769915,
          -0.4313532905333458,
          -0.24344973906103973
        ],
        [
          0.4796507605256749,
          0.20501443823101673,
          0.3876543552091598,
          0.1339224076987814,
          -0.25401243136916885,
          -0.04889623194415876,
          0.32197380104194107,
          -0.2556219761053202,
          -0.37607471266578635,
          -0.23541762993457616,
          -0.23354364779477177,
          -0.45990070093418506,
          -0.2950146146095426,
          0.24524600605724656,
          0.3402356011049057
        ],
        [
          0.4903321550182682,
          -0.3151241142844523,
          0.2819363759523378,
          -0.16609380658068407,
          -0.18693431374023864,
          0.15398534566565444,
          0.35890904647369526,
          -0.23477703165949199,
          0.20459385175593037,
          0.4371300633208565,
          -0.16808848672923093,
          0.46541522298472915,
          -0.3106277425822931,
          -0.15037619585654521,
          0.26344879171518637
        ],
        [
          0.012529392034061893,
          0.44512387150853605,
          -0.4863581298786952,
          0.4573500336773276,
          0.2074833322111119,
          -0.29575267498397617,
          -0.37920123798735494,
          -0.3728163609538061,
          -0.10287145786121088,
          0.3724512587849874,
          -0.06319645818471742,
          0.0063738306973738414,
          0.2795304193997432,
          -0.3772138756094833,
          0.14077289665153847
        ],
        [
          -0.41850808352162505,
          0.3449342686658122,
          -0.2540320571528177,
          -0.37124845104190407,
          -0.3042571935371588,
          -0.36605529099989503,
          -0.2941262127720284,
          -0.05531607662008012,
          -0.08920739106890638,
          -0.31765315134637856,
          -0.14287271054595369,
          0.04646849561627378,
          0.06775885148335192,
          -0.3682503769492034,
          -0.1072910483444093
        ]
      ]
    },
    {
      "activation": 0,
      "biases": [
        0.5556503235211276,
        0.579062740669412,
        0.4014832436416425,
        0.7691208017582166,
        0.6725983169713935,
        0.8017538875383468,
        0.85084290098883,
        0.32691639807934353,
        -0.014267909104253934,
        -0.044495714232869486,
        0.05518722471271023,
        0.13328907052193883,
        0.9123755673760138,
        0.46292636833490874,
        0.20202028303622663,
        0.5482441309613176,
        0.39900819374349167
      ],
      "cols": 17,
      "rows": 15,
      "weights": [
        [
          0.029526794792558163,
          0.05582393405833703,
          0.3705960186909721,
          -0.05474704716217633,
          0.19350919434877822,
          0.23852570418486332,
          -0.03180218488376721,
          0.08711456866090914,
          -0.2617941962695506,
          -0.060496616057992045,
          -0.41644247431309844,
          0.36511178546525197,
          0.41191154733453966,
          -0.15172695894401036,
          0.33653493300557524,
          0.1459170347760194,
          -0.27850879652457666
        ],
        [
          -0.313147313085041,
          0.3735235037896795,
          0.2047882078114615,
          -0.3040832901020776,
          0.3058925534462325,
          0.007855905851054766,
          0.09558389286131694,
          -0.29837902665303934,
          0.23449778754429146,
          0.061295319456614934,
          0.16206753176657882,
          -0.187267320459039,
          0.18550339183013817,
          0.39641976790525885,
          0.30422061075381673,
          -0.12366328316916922,
          0.1376600873755625
        ],
        [
          0.2538661525605068,
          -0.10825605808870535,
          0.16139004696885084,
          0.033073956941752934,
          0.2739651152552655,
          -0.08500871946007707,
          -0.049170827886227904,
          0.33712744650283455,
          -0.428826056388038,
          0.23242160060714395,
          0.21850402954428758,
          0.1050127265300543,
          -0.2077279204069988,
          0.03677209692352476,
          -0.3055282033256063,
          -0.0663499559644013,
          0.09635105379149596
        ],
        [
          -0.29153562076261486,
          -0.185826671597587,
          0.03554312535388689,
          0.15538288307510528,
          -0.1145164809340451,
          0.01210847802964427,
          0.009239025251965067,
          -0.13119775886300342,
          0.09387111318597577,
          0.15334873936279772,
          0.18723289115272168,
          -0.1484259555122417,
          -0.3680647755345125,
          0.36240931665378967,
          0.247517644495995,
          0.36831053688885457,
          -0.05818886085872305
        ],
        [
          0.7440777187950486,
          -0.48171012290137966,
          0.09188509538148082,
          -0.014815494840751254,
          0.5116532167423002,
          0.2152401162613691,
          0.1429842131216564,
          -0.24156310181036042,
          0.4384936769514861,
          0.09130371180205707,
          0.25074018705386864,
          -0.34335037095290255,
          0.22303352553022737,
          0.308006978585976,
          0.18033348501093213,
          -0.15464193068780052,
          0.10271243626546105
        ],
        [
          -0.41507843131895783,
          0.25000922395101527,
          -0.20920421347504284,
          0.39292513590242817,
          -0.08426867581810213,
          -0.016028894964033577,
          0.32844414784447357,
          -0.2556198568287107,
          -0.22146536691444438,
          -0.3516261747812464,
          0.11922116566670603,
          -0.26049384053298663,
          -0.2075098053676873,
          -0.07790785066707524,
          -0.39038710197073173,
          -0.24709205992315816,
          -0.08156444419101873
        ],
        [
          0.4246695579660005,
          -0.3109258459000805,
          0.062455998221820276,
          -0.3679281466815285,
          -0.3966185207057937,
          0.010312346630592426,
          0.15639664652918925,
          0.08942948890421441,
          -0.38108811592705333,
          -0.2739764276666912,
          -0.22690393850052834,
          0.03249333711827827,
          -0.05518899823831432,
          0.23154765887792683,
          0.2576238328062473,
          -0.19143446776018588,
          -0.24387787303513933
        ],
        [
          -0.20170912912057604,
          -0.37706961627484525,
          -0.04030146427738216,
          0.27940739765730677,
          0.218099652606799,
          0.38827210673832663,
          0.019954455255002033,
          0.2800618122285509,
          0.18572729704365393,
          0.3415311804293928,
          0.21921598887766577,
          0.19941955364653569,
          0.33678266468637647,
          0.3706853844561057,
          -0.07304143992755723,
          -0.24802083444923106,
          -0.3957129698637603
        ],
        [
          -0.3351253128184916,
          0.2658515675699952,
          -0.11369793195415046,
          -0.02826928124916046,
          0.12967615366982274,
          0.1870066491332868,
          -0.31573813294559544,
          0.09361727208014699,
          -0.08968540789004141,
          -0.2152942941651147,
          -0.009183901330656085,
          -0.20854153285025737,
          -0.1325394084282017,
          0.24508421946916153,
          -0.19448727175449626,
          -0.2251330740283731,
          0.16319305754005728
        ],
        [
          0.2972557289526529,
          0.1417987730497076,
          0.2827506215073989,
          0.05583233149686644,
          0.2797246328913305,
          -0.1155026651811123,
          0.22627233946904843,
          0.1782626162673892,
          0.17359166801237555,
          0.009781757928307905,
          -0.19667032693872843,
          -0.28155242427335114,
          -0.0017719744653069943,
          0.16526645437304854,
          0.19198194535897042,
          0.4321884465273011,
          0.3418452311022006
        ],
        [
          -0.413330753793892,
          -0.3334898741652463,
          -0.20516201239188012,
          0.08886009355766153,
          -0.07262620014153581,
          -0.36880897910362276,
          -0.14184902418159248,
          -0.18610809456790833,
          -0.026148012991651058,
          0.11636191579699655,
          -0.25177294379733134,
          -0.18202239877335868,
          -0.05208558786987435,
          -0.16780022449550117,
          0.128791363913716,
          0.2447649213218945,
          -0.19997434441388845
        ],
        [
          0.6797342074879362,
          -0.0678164433649327,
          0.33406193118424515,
          -0.4375318996273048,
          -0.32902398133945315,
          -0.34515413073344786,
          0.005216378859506665,
          0.16627677771844004,
          -0.36789826954534555,
          0.12915001001472026,
          -0.19909621842837588,
          0.4095702555988902,
          0.08031296460097845,
          0.41137140347282447,
          0.29775115626408855,
          0.15252877872751944,
          -0.0003659385030759229
        ],
        [
          -0.36497615900680147,
          0.31803245233585786,
          -0.2705561656264929,
          -0.1924013799275887,
          0.34831544671072107,
          0.22240386744549495,
          -0.26227721709755814,
          0.3612666973547276,
          -0.35662111419195514,
          0.0028054309117124558,
          -0.2303563983315016,
          0.4098424402179007,
          -0.2724429833917592,
          -0.4095426374824497,
          -0.15867620940297683,
          0.24752019920148519,
          -0.19608082585828857
        ],
        [
          -0.09598668824044303,
          0.06277985055360122,
          0.26195076746649393,
          0.04909172470416973,
          -0.1939934061684863,
          0.1764187748527177,
          -0.023627120741840833,
          0.1052509256641693,
          0.030499902129145343,
          0.3853532318929027,
          0.39966475303306653,
          -0.14400344699362413,
          -0.27262707480505305,
          -0.013212567315988603,
          -0.378829485885188,
          -0.31397990816489446,
          -0.3036132089096057
        ],
        [
          -0.20677584520605244,
          -0.3859906789613757,
          0.08090706454347998,
          0.29571044560453813,
          -0.24305640425145744,
          -0.2532853434928251,
          -0.4121061873966982,
          0.09569133283382213,
          -0.1420978435754299,
          -0.40911250174685493,
          -0.05702852215946036,
          0.09201100879240094,
          -0.3501317656212473,
          -0.1255569498984343,
          -0.026663390685794527,
          0.16391220488339503,
          -0.3851211353974083
        ]
      ]
    }
  ]
}
