{
  "layers": [
    {
      "activation": 2,
      "biases": [
        -0.22412177527199997,
        0.13916699316784845,
        0.009665725248729707
      ],
      "cols": 3,
      "rows": 1,
      "weights": [
        [
          0.9278354323065099,
          0.3967402504020871,
          1.1071685968065321
        ]
      ]
    },
    {
      "activation": 2,
      "biases": [
        0.0,
        -0.16488171052586523,
        0.016967909005459046,
        -0.16963989783571518,
        0.0,
        0.0
      ],
      "cols": 6,
      "rows": 3,
      "weights": [
        [
          -0.4563676627977734,
          -0.2201045745058129,
          -0.34503537716978006,
          0.4521756545669781,
          -0.44251339539689794,
          -0.14685533596557657
        ],
        [
          -0.0024274071190978595,
          -0.6094876842372902,
          0.36110762460015255,
          -0.25867980767552257,
          -0.6717773459349662,
          -0.7449640098569192
        ],
        [
          0.02739759570785299,
          0.1728533666194791,
          0.8601026913602394,
          -0.3353632932868723,
          -0.047132060381737347,
          -0.4515417194901957
        ]
      ]
    },
    {
      "activation": 2,
      "biases": [
        0.0,
        0.0,
        0.041816914164622375,
        -0.270128911541053,
        0.0,
        0.0,
        0.011026344146221851,
        -0.0036239136830403928,
        -0.01828541184626851
      ],
      "cols": 9,
      "rows": 6,
      "weights": [
        [
          -0.4201848659886811,
          0.38052794053351596,
          0.4870552340462384,
          -0.5297271166824549,
          0.06507991330705873,
          0.3941215428842075,
          0.506647082681586,
          -0.5294284027885474,
          0.45072203777351066
        ],
        [
          -0.04857198373877119,
          0.1427566222729344,
          -0.5670880287720859,
          0.5530548186789143,
          -0.3499674665239289,
          -0.33847126584629667,
          -0.16376467199673353,
          0.5461700467030453,
          -0.269916117748971
        ],
        [
          -0.48169437408495813,
          -0.2257379945580074,
          0.17677088118034873,
          0.44377555314754996,
          -0.06676195448779626,
          -0.3815099678271825,
          0.21662493012476652,
          0.15059233418071818,
          0.5921665351391137
        ],
        [
          -0.40653521483995547,
          -0.5101933984422268,
          -0.031285985469247324,
          0.3835538659438847,
          -0.0920552486512251,
          -0.20384551405040635,
          -0.46888767829213324,
          -0.21379534078325899,
          0.32412471180500985
        ],
        [
          0.41221227670234856,
          0.011655694071739818,
          -0.17810751735764227,
          -0.21764021081335616,
          -0.1863327267688066,
          0.6125179132764778,
          -0.29794927953380146,
          0.35404047111268994,
          0.25786450223674234
        ],
        [
          0.1338366394866594,
          -0.16396466670843773,
          0.5914444175277346,
          0.24377414270407924,
          0.22565582743004736,
          -0.5225820064140542,
          0.14936151804432107,
          0.21655261815669327,
          0.34338359818161684
        ]
      ]
    },
    {
      "activation": 2,
      "biases": [
        -0.07272913451613296,
        -0.25392844491767813,
        -0.03698812756969074,
        -0.2370259131247613,
        -0.04252251855509246,
        0.0,
        -0.0071471205467625015,
        0.0,
        -0.22727623498902633,
        -0.009056737284281573,
        0.0,
        0.0,
        -0.0690101344410891,
        0.28047819803276414,
        -0.1705821045193176
      ],
      "cols": 15,
      "rows": 9,
      "weights": [
        [
          -0.42773813611256806,
          0.21381671201149777,
          0.0508219118001042,
          -0.06135487349766999,
          0.07314122401789824,
          -0.14149276243592274,
          -0.10580781596051891,
          -0.004052054837370311,
          -0.1395411736516008,
          -0.4724645451514351,
          0.13284979510719408,
          0.17744821108758835,
          -0.18958234074040425,
          -0.2627651946445765,
          0.1196939775811946
        ],
        [
          0.005146356069085312,
          -0.3825212227564869,
          0.16387162435048797,
          -0.19135887533955226,
          0.28455206881489237,
          -0.06885826055372984,
          -0.311962848441658,
          -0.10288565168291591,
          -0.2685055624546975,
          0.2883896398303982,
          -0.19349363338830583,
          0.3720837490968796,
          -0.31040082397423724,
          -0.2946263913971495,
          -0.3033187928625004
        ],
        [
          0.49569138656724515,
          -0.03419086827626028,
          0.23143449863057403,
          -0.1686178318544374,
          0.47479011530048787,
          -0.30078512653745015,
          -0.16147600528610026,
          -0.19914783476812198,
          0.22701182389958385,
          -0.03611469178872755,
          -0.04749635725631207,
          -0.3884289287442476,
          0.09334476402222035,
          0.1939697868510603,
          0.1210483599552179
        ],
        [
          0.19652570762824942,
          0.2763734125973197,
          -0.10029092896190683,
          -0.03215804820855667,
          0.4818795497378497,
          -0.29562171492521727,
          -0.2923066070267496,
          -0.0776589478262043,
          0.31811430274806995,
          0.32557845332176516,
          -0.2712764068372904,
          -0.3250054045696768,
          -0.04192783103414244,
          -0.27327538135177304,
          0.4161443401405795
        ],
        [
          0.05118534273988817,
          -0.02986281948623376,
          0.2149479485652167,
          -0.03892233620347563,
          0.23478610149341916,
          0.4858372518726798,
          0.20285570141992326,
          -0.2139361150161997,
          0.4819790874523945,
          0.12323935591766577,
          -0.34256971433878397,
          -0.365834602557977,
          0.3189438091679214,
          0.49168881726995517,
          -0.3806082070249171
        ],
        [
          0.2720554293003191,
          0.09559289486873568,
          -0.3698284644027373,
          -0.16770457181507004,
          0.05000779989641524,
          0.46669222412942546,
          0.3957737646511633,
          0.37571492273160956,
          -0.3774771876062626,
          0.28385490820922654,
          0.4308111080577649,
          0.4178348080803802,
          0.48860068525588174,
          -0.18604814386276908,
          0.11786453221825166
        ],
        [
          0.4372489366135692,
          -0.3702159411600865,
          0.3402290179762294,
          0.3892615041179869,
          0.492043573980649,
          -0.30378905674619094,
          -0.23093614197183365,
          -0.35929364983890844,
          -0.25909209845545333,
          -0.2507380485810066,
          -0.3577068731457492,
          -0.45038059304951716,
          -0.08828928023389714,
          0.08254953033596318,
          -0.05080700784493564
        ],
        [
          0.1345295768224042,
          -0.21932307757405706,
          0.4592682712250119,
          0.3180997110056224,
          -0.2636000119187157,
          0.21732326676944425,
          -0.2824952284723964,
          0.35162715746631246,
          0.4391012591957586,
          -0.1237268032836418,
          0.02058303939205741,
          0.45337261676479723,
          0.22922339390665988,
          0.23579309434479406,
          0.08661915016668809
        ],
        [
          0.20918610907250043,
          -0.1968023601157221,
          0.42888372539304515,
          0.2702793447188296,
          0.18511081366328,
          -0.4478554059508515,
          0.10403081463854953,
          -0.20236446368618144,
          -0.05542763281367248,
          -0.4704020044071225,
          -0.06085693769196837,
          -0.16643003405371215,
          -0.40169350658622266,
          -0.20613920512985634,
          -0.2140220243395545
        ]
      ]
    },
    {
      "activation": 0,
      "biases": [
        0.5780747536969978,
        0.3720915431335992,
        0.4955833067069353,
        0.40693062896087934,
        0.8459858059454776,
        0.9874844606367746,
        0.8975523740866426,
        0.012034199268679064,
        0.10562553134002739,
        0.934137772266844,
        0.8302491788373214,
        0.23224516803074208,
        0.761418468121333,
        0.1016540522538738,
        0.36145837794410635,
        0.6600565891396595,
        0.4310231714142625
      ],
      "cols": 17,
      "rows": 15,
      "weights": [
        [
          0.17506590848658468,
          0.0599750577571746,
          0.3534406413918298,
          -0.06491207965109275,
          0.007781587730799615,
          0.15438682154332198,
          -0.11693007301039905,
          -0.2542312653174177,
          0.15614345782210337,
          -0.12547450787367007,
          0.4678363995985134,
          -0.32094037299939204,
          -0.24883971884933376,
          0.4343368491087725,
          -0.042260613937109046,
          -0.27221794752029105,
          -0.2244737753894559
        ],
        [
          0.30757903267907344,
          0.27602355735428075,
          -0.049499152050289874,
          -0.36687819596548904,
          -0.26553072029232416,
          0.016610912180642083,
          -0.40328044497238064,
          -0.08138576523865171,
          -0.08915746979026312,
          -0.15648572570394303,
          -0.3317439359092057,
          0.31309281806228695,
          -0.30635726919474804,
          -0.23923275619262566,
          -0.09115309746528051,
          0.10430009602061692,
          -0.2262677616056438
        ],
        [
          0.42057654089385565,
          -0.5375862997393916,
          0.47524033012205946,
          0.2240850781973943,
          -0.35935085421007357,
          -0.053535256023971675,
          -0.00872788282517167,
          0.07551710360791156,
          -0.57407105946162,
          -0.26455943668012566,
          -0.0507250049652612,
          0.2978527304938011,
          0.4083173440403716,
          -0.2932536069286554,
          0.05262855919618577,
          0.22560343776873218,
          -0.30883927960098695
        ],
        [
          -0.2407728660469609,
          -0.37658053341866454,
          -0.36708286916326627,
          -0.17761623027267542,
          -0.08257082322025064,
          -0.04288448065351174,
          -0.36203097498851106,
          -0.15825770517550344,
          0.07369253966460367,
          0.3929022260309269,
          -0.2932128160133636,
          -0.23027531444022079,
          -0.41112050838135444,
          0.4082992781248974,
          0.36033443685469296,
          -0.053182033589250964,
          0.3493196612805227
        ],
        [
          0.4190571999572429,
          -0.543033517955849,
          -0.35783486062399766,
          -0.13230619529055893,
          0.18973343061790834,
          -0.07222742690285906,
          0.07723096564293255,
          0.12093726257037522,
          0.1859402188123776,
          0.361692508128788,
          0.049022277807464515,
          0.05896300705321483,
          -0.3420304002009012,
          -0.13757130157091482,
          -0.04715740061186724,
          -0.011655288572933912,
          0.34495658915443167
        ],
        [
          -0.4289357240859091,
          -0.22826396581751915,
          -0.1441004609770545,
          0.35584012915696284,
          -0.24839459753288912,
          0.21657206805527882,
          -0.18080894659570093,
          -0.09285312211363297,
          -0.08439970049977288,
          0.2053447953512463,
          0.19320353687407016,
          -0.3314956914188087,
          0.2297697464409605,
          -0.2047620878886342,
          -0.31882811132024735,
          -0.24221427863724831,
          -0.013779202439260077
        ],
        [
          -0.3260591475752641,
          0.06002541294499816,
          0.37745664924027994,
          -0.1658572585753212,
          0.3413973772331396,
          0.02321455050481876,
          0.028239456996222777,
          -0.004651615167068365,
          0.04383999763211318,
          0.11986551228873299,
          -0.4222064833947938,
          -0.3063191094516429,
          0.13372908338386072,
          0.14862437949673862,
          0.4215562998438248,
          0.29084099583206857,
          -0.3578368030126609
        ],
        [
          -0.02408732100409869,
          -0.2686276125794756,
          -0.15013455979628468,
          -0.08362926835201588,
          -0.4012920589116359,
          0.4187523596988782,
          0.359134237426521,
          -0.1387376210394211,
          -0.08303590960318946,
          0.3639678529728854,
          -0.2883424352121397,
          -0.37005846990738006,
          0.24618105361969864,
          -0.180717235520973,
          -0.06583721218050317,
          -0.11884480917142648,
          -0.012723732242212817
        ],
        [
          -0.383975623196301,
          -0.23141170161540162,
          0.30040281847015915,
          0.011195349790695044,
          0.10721714223151611,
          -0.1993685830933362,
          -0.20882300281655614,
          -0.4215636781830037,
          -0.4187891712188726,
          -0.3779064161463338,
          0.12540567380334153,
          0.22571861243157385,
          -0.2893140921453973,
          -0.16224097923372344,
          0.26103477903951133,
          -0.35623516033170805,
          0.06763991538647478
        ],
        [
          0.3531105714347737,
          -0.37161621338222517,
          -0.22461235018978057,
          0.07921996543669017,
          -0.235603642585486,
          0.051838379306193415,
          0.38387517096338614,
          -0.42576432100281547,
          0.4112117350708966,
          -0.24521957430218264,
          -0.28571423717162625,
          0.38328787390674407,
          0.24632893874950426,
          0.1843379887501705,
          -0.04251705743457053,
          -0.05249907324505405,
          0.22893770615918604
        ],
        [
          -0.07292799182684329,
          0.3456875479226882,
          -0.21539571551894215,
          -0.08216126930708281,
          0.4101441355206015,
          0.07192309830178478,
          0.023792513226661118,
          -0.014021233279011959,
          0.2660002610349454,
          0.18643084604231552,
          -0.1557257398075148,
          -0.3199817498233895,
          0.170692862107363,
          0.41288154430689533,
          0.17536725641056444,
          -0.40894077448087124,
          0.08606763699494689
        ],
        [
          -0.2748122787742755,
          -0.1938160531782354,
          -0.16960290790743124,
          0.4260657920384773,
          -0.269728429381462,
          -0.15995052497868562,
          -0.22296674791709056,
          -0.09595789098692992,
          0.243252879055221,
          0.06331854109857808,
          -0.15373870832786646,
          0.08448821965679726,
          -0.30722929939552096,
          -0.16144535871570073,
          0.31302941391118866,
          -0.2899922666984317,
          0.2763506540595475
        ],
        [
          -0.25649043284528883,
          -0.34486171759561335,
          -0.4264688133439592,
          -0.27629675750708077,
          0.31727703592141554,
          -0.1456190830125141,
          -0.1102092442467475,
          -0.2249719641583018,
          -0.15479288695002996,
          -0.15050012007408456,
          0.33333475922280686,
          -0.2881542688944734,
          -0.3593769882531271,
          -0.15455387892910397,
          -0.01896808969863261,
          0.09094668860930903,
          0.1312027271186775
        ],
        [
          0.13519035111482344,
          0.3213727076503571,
          0.3658593752404268,
          -0.05613099421389857,
          0.34304940172649023,
          0.04317929862337045,
          0.11088645830413338,
          -0.014568736195883697,
          0.012932942102171227,
          0.22725389759653777,
          -0.007326879449895949,
          -0.15439365743715566,
          -0.32693562836464746,
          -0.35075145057769214,
          -0.09704161609168097,
          0.022808462920885484,
          0.23800116872973887
        ],
        [
          -0.4080626555974014,
          0.3870595747198815,
          0.27572611742425096,
          -0.1759975651340806,
          -0.34991216189178675,
          0.05823156683914122,
          0.037435534775202214,
          -0.03028678314974265,
          -0.022922299882464695,
          0.0008915951462621528,
          0.07776023659379065,
          -0.3365778083466816,
          0.20462908809120986,
          -0.37004537680718064,
          -0.128078446886458,
          -0.024192462410267866,
          -0.2747512970471627
        ]
      ]
    }
  ]
}
