{
  "layers": [
    {
      "activation": 2,
      "biases": [
        0.034725829534185314,
        0.0,
        0.0
      ],
      "cols": 3,
      "rows": 1,
      "weights": [
        [
          0.7213575625405687,
          -0.7815028596943744,
          -0.5545620799502705
        ]
      ]
    },
    {
      "activation": 2,
      "biases": [
        0.0,
        -0.03222180308350592,
        0.11436162618076944,
        0.0,
        -0.024446410300623726,
        0.0
      ],
      "cols": 6,
      "rows": 3,
      "weights": [
        [
          -0.14427095613593763,
          0.9279740864116126,
          0.7316841291059372,
          -0.6926181390126009,
          0.7460990487957309,
          -0.2508666386310119
        ],
        [
          0.2328855786424892,
          -0.4555114287259448,
          -0.2985542642461367,
          0.7751884827333564,
          0.7642848355438134,
          0.07274843936082538
        ],
        [
          -0.1766887232021726,
          -0.3086398185953928,
          0.38646719698470733,
          0.5733840167241089,
          0.21101982988703574,
          -0.42885789234246774
        ]
      ]
    },
    {
      "activation": 2,
      "biases": [
        0.2120477928484034,
        -0.052491708217353154,
        -0.030419388453577854,
        0.0,
        0.0,
        -0.02235571078327491,
        -0.025444988218482633,
        0.0,
        -0.0006098377290041429
      ],
      "cols": 9,
      "rows": 6,
      "weights": [
        [
          0.1682577568959952,
          -0.11157676416173695,
          0.12417846370751891,
          0.34791474025950914,
          -0.2686425318932478,
          -0.17195694281406385,
          -0.6264578170451632,
          -0.020793405198312194,
          0.36818159652197846
        ],
        [
          -0.46782617580141317,
          0.5791664388351663,
          0.0657269049013823,
          -0.2808096417960438,
          -0.6074458734382384,
          0.23932197520225684,
          0.5082714323334317,
          -0.35930748544419594,
          0.08319017928095362
        ],
        [
          0.5295788776635055,
          -0.37523504400757507,
          0.21193560074473636,
          -0.18446963081815287,
          -0.2455967888763963,
          0.10464659433188471,
          0.17696998590883922,
          -0.19548800306421943,
          0.06644683230143764
        ],
        [
          0.3273714910203789,
          0.27409016394174485,
          -0.34128641621306044,
          -0.08406713161662883,
          -0.3404285938239198,
          0.3027488015587145,
          0.4571522560957631,
          -0.5928341174231857,
          0.2563847340975126
        ],
        [
          -0.2536748852518521,
          -0.18286551121504044,
          0.4443322981929416,
          -0.010622517449353176,
          -0.39063362198871765,
          -0.43960770520105585,
          0.4825359893337158,
          -0.058559872951435554,
          -0.4937695828471192
        ],
        [
          -0.5047819410640739,
          0.2345205601295636,
          -0.13093338113505876,
          -0.18019073778242004,
          -0.49086225482180534,
          -0.14890346537408625,
          -0.15436147949112494,
          -0.11497685037772308,
          0.300856619794797
        ]
      ]
    },
    {
      "activation": 2,
      "biases": [
        0.0,
        -0.018032100744650743,
        0.07397937331784706,
        0.0,
        0.0,
        0.03517528518877338,
        -0.13740157058877248,
        0.07494712118483245,
        -0.014886616979877294,
        -0.05098476316705246,
        0.26694208981931006,
        -0.004679794758844747,
        -0.016984364322353576,
        -0.007849356515736039,
        0.2874511934607895
      ],
      "cols": 15,
      "rows": 9,
      "weights": [
        [
          -0.4879594049360414,
          -0.2614593964334784,
          0.294291255524574,
          -0.06701471403567805,
          -0.3514053825528386,
          -0.10958380397641027,
          0.44445977127392317,
          0.01327093769041581,
          -0.2773043675242478,
          -0.2958582253795718,
          0.43740383800167226,
          -0.0004877614975222478,
          -0.20105631099769836,
          0.297667592314525,
          0.27704473032760857
        ],
        [
          -0.13371876004790828,
          -0.04819065535265905,
          -0.30082092664309634,
          -0.3162987976410886,
          -0.07026456555829597,
          -0.004779052912886366,
          0.2422738206744259,
          0.19800346563477234,
          0.34528178460809134,
          -0.3650651312736166,
          0.03937260423211056,
          0.18601090464451667,
          -0.11206836561303046,
          0.3770188330100006,
          0.150212461897271
        ],
        [
          -0.41120012519471355,
          0.45911200301201777,
          0.06570184578277709,
          -0.033891953776540196,
          0.06344666171979474,
          0.41483701561263864,
          0.0011849842636914771,
          -0.15575307638186642,
          -0.2656883371536798,
          0.3501854548747947,
          0.15219732393262939,
          0.37284085022814195,
          0.4669280970410793,
          -0.44394962784959796,
          -0.37289316236183556
        ],
        [
          -0.040504147550325886,
          -0.2363499681168934,
          0.4093219982037889,
          0.37793287768863737,
          0.3480435245894098,
          -0.08586129992541919,
          0.22871695958483818,
          0.2580452499715822,
          -0.20643950193488947,
          0.14226745471463886,
          0.09911743160296116,
          0.0068621819405174644,
          -0.48156381118184133,
          -0.2678106710164857,
          -0.422665370592226
        ],
        [
          0.24679212167244036,
          -0.3339141406276795,
          0.474823811079759,
          -0.08212468707101639,
          -0.43248222578898177,
          -0.07086784652009043,
          0.04593974237606846,
          -0.03348372761788021,
          0.37129098031264307,
          0.08911138893529369,
          -0.1333270490324716,
          0.33269187427716884,
          0.3570254667927629,
          -0.09394777407587868,
          0.2631164564579336
        ],
        [
          -0.16481105129458523,
          -0.09494142513297701,
          0.3638489498729505,
          -0.2696156025722696,
          0.2712311645835783,
          -0.07584485898269813,
          0.10902752811993757,
          0.23898992628743398,
          0.28747167990814415,
          -0.3048861645184858,
          0.1722869112492944,
          -0.447597344026013,
          -0.47297961403288863,
          0.01976110670704445,
          0.19828368849041111
        ],
        [
          0.020660891905734724,
          0.014100564003447951,
          0.4210496890112573,
          -0.42943243213437143,
          -0.4178168437992301,
          0.43051044321390863,
          0.1415911192208398,
          -0.29628049271131796,
          0.1146766957222362,
          -0.22179042800570256,
          -0.5445574650696247,
          0.2987249727619141,
          -0.3683808345253951,
          0.12479914595516267,
          -0.44529448772737446
        ],
        [
          0.24761025968362127,
          0.3347636250940913,
          -0.2892907479728063,
          -0.47088688238099535,
          -0.24769373366036163,
          -0.32917749035599525,
          0.32012872389523717,
          -0.06346542693835938,
          0.30855188556413715,
          -0.2390142566240459,
          0.15458532825791527,
          0.08235481827629487,
          -0.24586410296422623,
          -0.4624120457854178,
          0.27896731569383637
        ],
        [
          -0.4143654973778713,
          0.3722469563932377,
          -0.11060442898041349,
          -0.19583217738933495,
          0.011418370302495706,
          -0.4861742220994567,
          0.40346250725139976,
          0.337362566218431,
          -0.16845932354613175,
          -0.11261108033946299,
          0.11646058292477579,
          0.13659996538654492,
          -0.2379785197498177,
          0.24064170915412997,
          -0.3951684137426426
        ]
      ]
    },
    {
      "activation": 0,
      "biases": [
        0.6495206656057747,
        0.44219298014555247,
        0.6748841902660215,
        0.3014129284942409,
        1.0060323669011593,
        0.3771366252867161,
        0.7932081525084902,
        0.7433876401709795,
        0.44279342275493416,
        0.26039787008962145,
        0.5580628446933876,
        0.369319128173827,
        0.6245804670522648,
        -0.022679581750663286,
        0.23422299163708554,
        0.6182451306897571,
        0.5201942434342923
      ],
      "cols": 17,
      "rows": 15,
      "weights": [
        [
          -0.03162895549741401,
          -0.06914687999027061,
          0.022416151457221686,
          0.25509638786744887,
          0.30309331204405726,
          0.10633756335366074,
          -0.09524985105087065,
          0.2745266317804835,
          0.28745669276892266,
          -0.3679099693324803,
          -0.4133792657004175,
          0.38757354545420364,
          0.0351091894687066,
          -0.2808894340025336,
          0.28609681847432744,
          -0.33652744097182963,
          0.03616987884439179
        ],
        [
          0.17731867384146235,
          0.032354907512163265,
          0.03619023955467809,
          -0.26388267171033664,
          0.11240219587724169,
          -0.2556463714184763,
          0.2910252690094674,
          -0.290730052240509,
          -0.43911849957930105,
          -0.0068294809686083886,
          -0.5186187509709472,
          -0.08800892485631318,
          0.3039231230936851,
          -0.18093770742153098,
          0.22161241687506425,
          -0.06782831301018183,
          -0.043777736407793484
        ],
        [
          -0.09579079264878779,
          0.1828709554027284,
          0.02535557043268635,
          0.3453605161659966,
          -0.3564207325960169,
          -0.31440660949636134,
          0.26692432364537233,
          0.012726370373594828,
          -0.18460455557769198,
          0.1821211096941248,
          0.13400555144887416,
          0.5088579044499563,
          0.05357486556112648,
          0.2560333073323659,
          -0.1971154895132988,
          -0.002528724760107204,
          -0.23870681207381703
        ],
        [
          -0.3780657255469294,
          -0.2967679740234803,
          -0.3212661758942019,
          0.27468196021485397,
          0.03721590677218937,
          -0.21299444450095972,
          -0.3212335771996262,
          -0.0966101294265194,
          -0.18647678384767846,
          0.2234738748818824,
          0.30006803785092173,
          0.01646620312230809,
          -0.416068172258774,
          0.1839375574609817,
          0.37603031524134206,
          0.3036184012585565,
          -0.35233320688223335
        ],
        [
          -0.12226170081628855,
          -0.3390390180519451,
          0.147774342122866,
          -0.20172224379092363,
          0.21740358782171137,
          0.351390517239679,
          -0.17036480192737782,
          0.07118682431111266,
          0.030630167951629022,
          -0.02676107331312302,
          0.37758592365601723,
          -0.38065333438903565,
          0.2973644061273059,
          -0.27216326372663513,
          -0.31188855759674294,
          0.29279085464671356,
          0.21750300829514294
        ],
        [
          0.28392890992437914,
          0.12407050155683202,
          -0.0813452332338296,
          0.19926436657689364,
          0.13184054859700772,
          0.41274130056696434,
          -0.4732593316341942,
          -0.5247327529107558,
          0.071004298361607,
          -0.21945655219090882,
          -0.34661476090721793,
          0.08826001689026094,
          -0.04327050689343617,
          0.13918589891152605,
          0.06839049095482583,
          0.04855034801952872,
          0.09814790064670907
        ],
        [
          -0.3303077298518071,
          0.10526072459588547,
          -0.11581308117283473,
          -0.1039752840501623,
          -0.10335128395069018,
          -0.21359253613859452,
          0.192297531879781,
          0.14049724831983512,
          0.23128086198139802,
          0.04677177347242385,
          -0.27473742584766025,
          -0.25770264496385564,
          -0.3588449540311607,
          -0.04000717101312986,
          0.13478844651536312,
          -0.4057655008448484,
          0.2475162281368149
        ],
        [
          0.3233016037703708,
          0.35220659510226837,
          -0.34011106958888315,
          0.3715948538599104,
          0.4159210510203954,
          -0.19180876828136476,
          -0.34637762302052494,
          -0.13338998866783414,
          0.2381974087949216,
          0.2479332569207248,
          -0.326366499184402,
          -0.14147149383601879,
          -0.21484551591703743,
          -0.3971177563482549,
          0.014418663661147064,
          0.07689021529809724,
          0.10459427941520255
        ],
        [
          -0.3123641392446602,
          0.10498055832884255,
          0.25841666348578535,
          0.36179374083468796,
          -0.058577224998998194,
          -0.14387832173922716,
          -0.4000745930380287,
          -0.33773500785110205,
          0.09644297383566686,
          0.12972127235756833,
          -0.2138021343475578,
          0.08195286949889119,
          -0.19234564306426674,
          -0.18170852505911247,
          0.2581397282541108,
          0.17584549137185748,
          0.28168223295957084
        ],
        [
          -0.32236915344167494,
          -0.26308773257656476,
          0.3269319075674944,
          0.20263720767014518,
          -0.42841332646838665,
          0.32381300667102175,
          -0.04904394386881448,
          -0.24875298507777477,
          0.27622540282545466,
          -0.017974196646791393,
          -0.3908465550663159,
          0.28074404747797616,
          0.20642842886130072,
          -0.3756310221995427,
          -0.15984441566847843,
          -0.21328764946152495,
          0.18239047911592834
        ],
        [
          -0.2687963273569703,
          -0.14197375786146169,
          -0.20025709862546606,
          -0.12537874644823166,
          0.18397894972808934,
          0.34162513672334743,
          -0.14930734845220908,
          0.304135993707875,
          0.6319211489291151,
          -0.15497985480104048,
          0.47451105924879666,
          -0.18349343534872598,
          0.05362162244716843,
          0.05464222734081515,
          0.32972746954728405,
          -0.2491768951847506,
          -0.161293388271986
        ],
        [
          0.12857862647282806,
          0.021698807671223213,
          -0.1382752408447874,
          -0.330175074771383,
          0.03571221405175119,
          0.2392564604345903,
          -0.25656490295806855,
          -0.48767910440566664,
          -0.5778424567380928,
          -0.15884652216189968,
          0.11488723573124049,
          0.34571957543108633,
          0.003879931277148266,
          -0.36465982882293074,
          0.3333769698146023,
          0.1165702063779467,
          0.10587704755504117
        ],
        [
          -0.31543428569243803,
          -0.3639236591728306,
          -0.05058790473355405,
          -0.04261979632280882,
          -0.27469203012168214,
          -0.11517769073642942,
          -0.1155307525505846,
          -0.18629625604038957,
          0.1644086414899924,
          -0.033429968943213616,
          0.337514764292409,
          0.059826535768490674,
          0.3910421159573823,
          -0.2375674662356897,
          0.09565269513627793,
          -0.08601904404391943,
          0.20611088197598368
        ],
        [
          -0.038437218771190974,
          -0.31785610781584167,
          -0.1094983271359473,
          -0.024007390380182868,
          -0.0834504362881589,
          -0.32072357286385195,
          -0.1715206421705426,
          -0.08259389479684943,
          0.05516146537938317,
          -0.16315142635461982,
          0.25245928335340345,
          -0.3373688808185427,
          0.4070950207727195,
          -0.42853539463495355,
          -0.34932274339577923,
          0.11984421957993449,
          -0.11303033791448246
        ],
        [
          0.17911159743215602,
          -0.26299250485041203,
          0.10391480487520918,
          0.15370119604961643,
          -0.2865300567537645,
          0.18395555305769914,
          0.536373996391828,
          -0.3541478673535856,
          0.09072494901817006,
          -0.16448344050694705,
          0.19038925841807733,
          -0.4168585180789555,
          -0.005804517268055143,
          0.07485417561659118,
          0.07435416252444363,
          0.36032449747293277,
          0.22316579108058532
        ]
      ]
    }
  ]
}
