{
  "layers": [
    {
      "activation": 2,
      "biases": [
        -0.11518120832064643,
        0.0,
        -0.04697276870165171
      ],
      "cols": 3,
      "rows": 1,
      "weights": [
        [
          0.41558465665784294,
          -0.4597505228613628,
          1.0661279813004818
        ]
      ]
    },
    {
      "activation": 2,
      "biases": [
        -0.06915571437420813,
        0.0,
        -0.1439128148441878,
        0.0,
        0.00498635822540659,
        0.0
      ],
      "cols": 6,
      "rows": 3,
      "weights": [
        [
          0.7287084739592121,
          -0.6320539924141257,
          0.5671770381726468,
          0.04593815649226249,
          0.5972811271115425,
          0.6785453842076923
        ],
        [
          0.3828104583094232,
          -0.31093263449579484,
          -0.6119925745455888,
          -0.3231693921730061,
          0.6520676132163963,
          -0.5119700197939622
        ],
        [
          -0.16859725675971907,
          -0.26667003337690126,
          0.30714480374018294,
          -0.17271792048002138,
          0.33123899611128044,
          -0.43915286074405346
        ]
      ]
    },
    {
      "activation": 2,
      "biases": [
        0.10747212085283686,
        -0.12476309923686996,
        0.10865899544181919,
        -0.0019185014907876514,
        -0.11699304420360179,
        0.09783557654800364,
        0.0,
        0.13866137537215412,
        0.0
      ],
      "cols": 9,
      "rows": 6,
      "weights": [
        [
          0.22227908231414636,
          0.5267161645773202,
          -0.5176082092407452,
          -0.20092849489909043,
          0.20556095132426389,
          0.24730722946618583,
          -0.14415601449437285,
          -0.16848185486088024,
          -0.4063575333882362
        ],
        [
          0.5621642629673194,
          0.22503044828170957,
          0.6171259460401428,
          0.26841119659928087,
          -0.2639233298292153,
          -0.2620969227634658,
          -0.5254479179452824,
          0.6291269404901917,
          -0.39622875645433725
        ],
        [
          -0.5908808913816412,
          -0.038850276572786786,
          -0.27550618984684755,
          0.4487338583373699,
          0.18960252273806444,
          0.5404894274068273,
          0.4058924118876049,
          0.29027803749440784,
          0.34004258655999403
        ],
        [
          -0.1183774584655308,
          0.48026813903885274,
          0.24339607484227943,
          0.3213117392553461,
          -0.6151218439752115,
          -0.04050580799151482,
          0.16839807974693968,
          -0.2811784084412123,
          0.22756485752532565
        ],
        [
          0.1357612453501597,
          0.41343044595946554,
          -0.02897631671729838,
          0.3848687333184602,
          -0.3018150377824916,
          -0.3286709028670243,
          -0.604435075917237,
          -0.13429415457068877,
          -0.40849731152442725
        ],
        [
          -0.15711312170912195,
          0.19173414547714474,
          0.012859895629529494,
          0.384672846218658,
          0.5695155980131773,
          0.1771557380139259,
          -0.23956541610048956,
          0.4219640613251772,
          0.3229409665365194
        ]
      ]
    },
    {
      "activation": 2,
      "biases": [
        -0.16388856159238652,
        0.0,
        -0.2781943492502132,
        -0.2019163987353253,
        -0.0040779686063232845,
        0.0,
        0.0,
        0.09456608492599142,
        0.25767051577107736,
        0.0,
        -0.014309329251838561,
        0.007396923615711164,
        -0.04749370069238241,
        0.10156310317088109,
        0.13776594774764866
      ],
      "cols": 15,
      "rows": 9,
      "weights": [
        [
          -0.05103231014266252,
          -0.3958050654715882,
          -0.32152244812879827,
          -0.0792035533018427,
          0.019705531778430693,
          0.32097688169264094,
          -0.19339259233949363,
          -0.16987539659183679,
          0.08461589511838495,
          -0.38477025315387653,
          0.27124259892142677,
          0.4472113914471004,
          0.30078536495652125,
          -0.3167129298223105,
          -0.03529924274789838
        ],
        [
          0.22681158532203108,
          -0.2957353809828569,
          0.06619812477960056,
          -0.26158405533377144,
          0.12574992311454836,
          -0.3415493917844954,
          -0.3492994498691053,
          -0.04177683529515363,
          0.12435870280190278,
          0.16635524279733893,
          -0.4319371292050635,
          -0.20834519002043883,
          0.4468691506459365,
          -0.1587637047231492,
          -0.285017640140442
        ],
        [
          0.48540617897426996,
          -0.4245481788760741,
          0.40572812916046386,
          -0.4406227818413744,
          0.47855106516828533,
          -0.42062772201403403,
          0.32414604994661456,
          0.4990378699471085,
          -0.3321281637872687,
          -0.0674343051237214,
          0.43165872164491975,
          0.34250628176754416,
          0.10142725385475707,
          -0.40948473472215435,
          0.1646015082047701
        ],
        [
          0.11955823514728044,
          -0.3812423701776389,
          -0.06303291610876387,
          0.3312204624183667,
          -0.15648712465812686,
          -0.490123889870068,
          -0.07733854724901662,
          -0.4198315374443552,
          0.05714059851580774,
          -0.3683662143854267,
          -0.12454673529780556,
          -0.42897543708659214,
          -0.2229264745721769,
          -0.06978336619885188,
          -0.48556070666210077
        ],
        [
          0.2457459668668406,
          0.45948442442318627,
          0.28318889394426716,
          -0.045978048274151063,
          -0.07843364895248489,
          0.48778295376700487,
          0.17103638577788904,
          -0.3976295726224802,
          0.1940172059233009,
          -0.13096517586659884,
          -0.2360067384950848,
          0.2041360483058431,
          -0.4409121012220025,
          -0.16854863663241462,
          -0.20249358170080028
        ],
        [
          -0.32609660431606396,
          -0.4452787195077533,
          0.26827297439637526,
          -0.210498442535682,
          -0.23471640467042507,
          0.16810396205079925,
          -0.39146423101959016,
          0.105534193169278,
          0.35154074564510823,
          -0.13171078992621543,
          0.43177493644790826,
          -0.08485731496645814,
          -0.03438842774717715,
          0.13918389548867888,
          0.15180262896672245
        ],
        [
          0.03472015472814449,
          0.200561233191081,
          0.18880375320501797,
          -0.04497924425871075,
          0.48216823906738693,
          0.3232901877832087,
          -0.33933074625177806,
          -0.22720888197757716,
          0.06159783879369396,
          0.3367537100970529,
          -0.22207696443520347,
          0.0750690431217984,
          -0.1931854214953191,
          0.07717888596336309,
          -0.03491138971173735
        ],
        [
          -0.49341883201648673,
          -0.1673537575022102,
          0.1507576893726765,
          -0.010365788268952873,
          -0.19894572154642434,
          -0.46181392761031814,
          -0.13185225363441383,
          0.26688674586884603,
          0.22599540482683994,
          -0.1803943988310147,
          -0.4494662941433368,
          -0.31400436002035087,
          0.14972517088457063,
          0.1598915419906014,
          0.22950289946016628
        ],
        [
          0.3521511391048092,
          0.28539766035294056,
          0.19872200847543875,
          -0.22181114308620392,
          0.39045165567214213,
          0.293318653382975,
          -0.04082683359311279,
          0.4883722756003832,
          -0.1488894371543496,
          0.1113388471358171,
          0.1740017610946678,
          -0.3519782455880094,
          -0.04006020796488047,
          0.030043583610115387,
          0.49824095424182757
        ]
      ]
    },
    {
      "activation": 0,
      "biases": [
        0.5480802978769405,
        0.6830022113912072,
        0.7333398093695701,
        0.24486094114353135,
        0.6586017319890628,
        0.7061664614695005,
        0.4634867653358791,
        0.019251388467363083,
        0.03341025227004499,
        0.8991058850336019,
        0.2342752855381865,
        0.6858073303686674,
        0.7145789385121181,
        0.31313373296401065,
        0.5053159328053718,
        0.5336019527768455,
        0.24029701429155245
      ],
      "cols": 17,
      "rows": 15,
      "weights": [
        [
          -0.04299581146498195,
          0.3259571766297764,
          -0.38374997182696174,
          -0.013400530448983245,
          -0.38371745859540557,
          0.16866308189985246,
          -0.2330725977162003,
          -0.1103476184572047,
          -0.4320535211103246,
          -0.4069692410590394,
          -0.0257643511256605,
          0.03194152877332399,
          0.32451545996997155,
          -0.06301551040860229,
          -0.24232566128407293,
          -0.02501206989998602,
          0.2631234298994984
        ],
        [
          -0.3364873720203315,
          -0.05511232594946138,
          -0.3145999479185519,
          0.39526138590932186,
          0.14341430755490642,
          0.019794334451991996,
          0.03806236100334909,
          0.18473777788329226,
          -0.23308839557721883,
          -0.21176146375541882,
          0.39982154464361797,
          0.120622479078937,
          -0.2944019701674702,
          0.022576361932744378,
          0.1837364823733634,
          0.12314829013596514,
          -0.4217070136705995
        ],
        [
          -0.10713930199047662,
          0.4544196484659064,
          -0.24973833847262186,
          -0.08947755794710241,
          0.3177838385474715,
          0.23352315557386497,
          -0.1640853049898251,
          0.17149201609378753,
          0.3680205348857534,
          0.4476017480224452,
          0.3153903526303087,
          0.06440078433393974,
          -0.246544707507008,
          0.1592776330506943,
          -0.10123494614030158,
          0.03027769090427121,
          -0.04325265948505266
        ],
        [
          -0.37845270180140117,
          0.4013774938619509,
          0.2545810037470909,
          -0.33555947929665353,
          -0.3685757875292767,
          -0.3019072381595765,
          -0.15233983502592074,
          0.3998754931858685,
          -0.36173661705912813,
          0.1313230208080675,
          0.24829662296803856,
          0.3234336430062915,
          -0.004584873105785952,
          -0.3812813744202305,
          -0.3376803680701471,
          0.0653237098158029,
          -0.25771920186105196
        ],
        [
          -0.3985480775046725,
          0.4133057830542497,
          -0.011104689861524939,
          -0.16099219722197644,
          0.18682407539422693,
          -0.1038058023116918,
          -0.054127430891782145,
          -0.10067404831109648,
          -0.2423154296290305,
          -0.13535071864477075,
          -0.14430734186446037,
          -0.016182897530106512,
          0.16504275599256346,
          -0.019222630940051777,
          -0.34086392474901844,
          -0.17876642197421452,
          -0.09192623052618282
        ],
        [
          0.30877576275425633,
          0.04052496281453335,
          0.4240413112785124,
          -0.3345563469006013,
          -0.2554860587131419,
          0.37785417661387877,
          -0.39396383083373915,
          0.18300300105863526,
          0.32209002376645984,
          0.21062648274723,
          0.3617000823501655,
          -0.055222515061988074,
          -0.005699967139941709,
          -0.04923798795468129,
          -0.1417603767832757,
          -0.2872998266488663,
          -0.012914955333684846
        ],
        [
          0.37002513443028456,
          0.40708264929332943,
          0.339270915813221,
          0.21442441395356418,
          -0.20023682852996236,
          0.03086039817282862,
          0.28013251316377713,
          -0.39079544984336817,
          -0.15776961363512926,
          -0.3125551380908124,
          -0.4050505075276016,
          0.25442221008498805,
          0.32947209907257735,
          0.3774224635945368,
          -0.13076678552365267,
          0.3094650145344229,
          0.310722056653278
        ],
        [
          0.11592756472135933,
          0.276307512569542,
          0.279227647211766,
          0.5767059097480436,
          -0.015698259292024824,
          -0.13570295005896743,
          -0.28516222437454475,
          -0.006610498476728901,
          0.13102020158616332,
          0.10179277205882616,
          0.29193634081412123,
          -0.262868842262854,
          0.07950185813449882,
          -0.12066416623835233,
          0.1531186506422526,
          -0.028040665749456326,
          0.059744378808401076
        ],
        [
          0.419697177477402,
          0.2766164933507428,
          0.11785650785498047,
          -0.2545710369996287,
          0.31016217747355895,
          0.5194925120596446,
          -0.2239479738154863,
          0.005109619830142116,
          0.18312857324977613,
          0.028908613245678862,
          0.2265443556345783,
          0.07471682536771859,
          -0.1337057659608934,
          0.1691108861438144,
          0.39335924723414295,
          0.2878587096215628,
          0.23992156110959795
        ],
        [
          -0.41366585635655023,
          0.39441591929742376,
          -0.31706645745968526,
          0.11850781242842039,
          -0.22005228508904223,
          -0.12266731955553879,
          0.17405588515045553,
          -0.38515180785184044,
          -0.07374845259653744,
          -0.1186000864743567,
          -0.3546749154657165,
          0.2765634466911701,
          -0.406260254015837,
          -0.34656588947219763,
          -0.4117852659561832,
          0.13128689107182462,
          0.37598260423798263
        ],
        [
          -0.026710410467249347,
          0.3920159504361927,
          -0.27288885567446514,
          -0.04996017159518175,
          0.3690713833039196,
          0.3237226436587454,
          -0.06457987250052748,
          0.32269091947363543,
          -0.20622790124368412,
          0.25255855195323507,
          -0.13781838414178985,
          0.2556361393899994,
          -0.27909476360802266,
          0.18574503715691926,
          0.3946303769891325,
          -0.06455639151298821,
          -0.27113961085080285
        ],
        [
          -0.23235473617085928,
          0.08908016988772667,
          0.16868569938435782,
          0.3670252903731306,
          0.06759227897237714,
          0.16167313848562842,
          0.3149228023940244,
          0.17623735672540908,
          0.4051792709651266,
          0.14467884019354257,
          -0.07055130908499978,
          -0.20410940588579085,
          0.04245358309675872,
          -0.021035454124139655,
          0.020065760757824853,
          -0.22836815703809976,
          0.02158855542952577
        ],
        [
          -0.33801085832888966,
          0.1853462252106601,
          -0.07984404588906352,
          0.09364898569764565,
          -0.10089173075326933,
          -0.263433950566789,
          0.36458701377048286,
          -0.012493898320123395,
          -0.41621000571523104,
          0.229153907363711,
          -0.2820289670546004,
          -0.11099463512517449,
          -0.077581119115282,
          0.1978936766887732,
          -0.2941212055945572,
          0.15668135998523122,
          0.19326839287185665
        ],
        [
          -0.3465395691718585,
          -0.16907501135758415,
          0.20195271183214608,
          -0.03434969205436625,
          0.016250760865289572,
          0.3182691758521851,
          -0.2759671126644023,
          -0.10936738685211839,
          0.16451466543290535,
          0.39802078033087357,
          -0.09689931331305433,
          0.1405892609744821,
          0.007359028883449822,
          -0.3745888750133116,
          0.16906177560831387,
          0.28299525240160844,
          -0.3437648165993204
        ],
        [
          0.03607483855721561,
          -0.30635296462922634,
          -0.14407391393037444,
          0.6865521764781645,
          0.044288867528034334,
          0.29973524264651663,
          0.02516028462405277,
          -0.13798584884014967,
          -0.03074668654902914,
          -0.0745202742558112,
          -0.1596779756025785,
          0.2840940652752155,
          -0.061177807472447075,
          0.01347306510690893,
          -0.02536077785248316,
          0.2255028111412063,
          0.0007554780900218764
        ]
      ]
    }
  ]
}
