{
  "layers": [
    {
      "activation": 2,
      "biases": [
        0.0,
        0.005761722712077092,
        -0.08192422770976518
      ],
      "cols": 3,
      "rows": 1,
      "weights": [
        [
          -1.160082356388337,
          0.7894596527762182,
          0.34128863624706174
        ]
      ]
    },
    {
      "activation": 2,
      "biases": [
        -0.1724743267081923,
        -0.010547068591041446,
        0.0,
        0.0,
        -0.0037753173021489277,
        0.0
      ],
      "cols": 6,
      "rows": 3,
      "weights": [
        [
          0.3917505217770463,
          -0.8133292732305201,
          0.05291131395556614,
          0.13706458798367874,
          0.34340907417942473,
          0.08739954505509936
        ],
        [
          -0.11538082274529178,
          0.16046899097573794,
          -0.7008195600198158,
          -0.5088211363540834,
          0.9409433114870347,
          -0.7696919288530277
        ],
        [
          0.44842436154501414,
          -0.7125792192380515,
          0.10533121033136757,
          0.2283499339224425,
          0.061012195654984024,
          0.3595799860550392
        ]
      ]
    },
    {
      "activation": 2,
      "biases": [
        -0.00034637899432900796,
        0.0,
        0.0,
        -0.19994046324948272,
        0.1702073845357842,
        0.0,
        0.0,
        0.0,
        -0.0012676678545679612
      ],
      "cols": 9,
      "rows": 6,
      "weights": [
        [
          -0.1989116539630803,
          -0.42586306878303637,
          -0.5426234517468701,
          0.53699375283298,
          0.5387612016349259,
          0.02029539693761688,
          -0.27535203999308533,
          0.27474520791011914,
          0.3435329638818362
        ],
        [
          0.27299167938285807,
          -0.6137965434159607,
          0.1364184159608391,
          -0.4490046989733797,
          -0.29517735887969776,
          -0.4212509676574391,
          0.467847258654941,
          -0.5475855645281638,
          0.23753637888613752
        ],
        [
          0.30789092124314027,
          0.5361333412703351,
          -0.4994421002855866,
          0.03743258022855664,
          -0.48159721344997836,
          -0.25778783361155294,
          0.42170197093494133,
          0.22231912920272442,
          0.30147242559921056
        ],
        [
          -0.02844976607762683,
          -0.4333536852922762,
          -0.17355834890815966,
          0.46857705987823245,
          -0.03846748680302019,
          -0.31972507869080163,
          0.24833353418667248,
          -0.02967874476654124,
          -0.3866656078793211
        ],
        [
          0.2104192807446514,
          -0.017481807474157108,
          -0.11025636012669963,
          -0.017146286705495815,
          -0.05600466228696258,
          -0.277197398192005,
          -0.4648023468559567,
          -0.43570404872183366,
          0.770086415596445
        ],
        [
          -0.3530745323144363,
          -0.35737135453344043,
          0.016064209229993506,
          -0.37988520826357913,
          0.5951649306861163,
          -0.1892224529722922,
          0.15768807190033984,
          -0.3077969819591678,
          0.07971687997204055
        ]
      ]
    },
    {
      "activation": 2,
      "biases": [
        0.09100454504591375,
        0.3491349779594294,
        -0.05822533100990293,
        0.0,
        -0.0771627654669981,
        0.0,
        -0.4063490977689897,
        -0.11593816333946182,
        -0.1901691612138129,
        0.0,
        0.3346442802564035,
        0.0804752771839418,
        -0.07471380454995612,
        0.16558337473441848,
        0.0
      ],
      "cols": 15,
      "rows": 9,
      "weights": [
        [
          0.21284352460264094,
          0.19131778701562707,
          0.1035754156300341,
          0.04818905310155319,
          -0.20441171543938447,
          0.3666414860014997,
          0.4349012914741883,
          -0.3199809769776325,
          0.2924012922646484,
          -0.187660264637163,
          -0.10054904481876058,
          0.3792679484196894,
          -0.22235414383776836,
          -0.15128206373227174,
          0.22430092362887266
        ],
        [
          0.07432560928832999,
          -0.05666044287228045,
          -0.16948544544609517,
          -0.08658452219636392,
          -0.4535591294772733,
          0.14345522720527615,
          0.38600580668356543,
          -0.0602089476586361,
          0.38851909194538325,
          -0.006067756799081225,
          0.33936715910181736,
          0.4889596817032247,
          -0.09422887190907675,
          -0.05015603199142776,
          -0.17437656953668995
        ],
        [
          0.1905153089624435,
          -0.2920633544177112,
          0.4581183874784589,
          -0.2260645542880821,
          0.031710875468193955,
          0.05200363907590677,
          -0.4004070693163234,
          0.06821670130277835,
          -0.15962167394329874,
          0.01921147784181476,
          -0.2561569757555411,
          -0.05462961390364429,
          0.2953498241469962,
          0.027570320073315058,
          0.25299579685227747
        ],
        [
          0.0050927280136501265,
          0.3075599717290317,
          -0.40309714017757553,
          -0.4669639197955671,
          -0.03531600606409646,
          0.025161948765237807,
          0.32503637188229906,
          -0.48289784766219146,
          0.22509740687967056,
          -0.11269191261971923,
          -0.21726987112635607,
          -0.1465866706477709,
          -0.05550556143536489,
          0.3743694722067422,
          0.10035769622789592
        ],
        [
          0.2034802344912678,
          0.17516913030909814,
          -0.43867564438666307,
          -0.26260000409679485,
          0.43518624592475635,
          -0.10312710264843289,
          0.37763322028692453,
          -0.32678977410608634,
          -0.10051541824904887,
          -0.012975399621285244,
          0.4420758582705525,
          0.08388833316724893,
          0.1179167283883108,
          0.05505138501879626,
          -0.2881994977538471
        ],
        [
          -0.004473465264064003,
          -0.36652394424496404,
          -0.11543641966555102,
          0.48173114516852944,
          0.3933588400917868,
          -0.25721421221141433,
          -0.25584824651286386,
          0.34877240743896576,
          0.12352413899429338,
          -0.07754143494066851,
          -0.40918800975623915,
          0.011289737425413837,
          -0.2873395014495307,
          -0.12040190148186025,
          0.23104125109084006
        ],
        [
          -0.18553069312382986,
          -0.16793092511032287,
          -0.13990531891579988,
          0.45535684747405203,
          0.18202542265971444,
          0.0007353627592023848,
          -0.04147914170356426,
          -0.18214817330341238,
          0.07020407708836907,
          -0.23889704781533083,
          -0.22287997311115265,
          -0.253383091070402,
          -0.3150008622626778,
          0.4052417943744183,
          0.11030708374935527
        ],
        [
          -0.21435933220868897,
          -0.41505832919620833,
          -0.3886950178484875,
          0.18253549639253663,
          0.3012786418205493,
          0.3592418939151065,
          -0.13993461180475292,
          -0.36434871045143746,
          -0.08007637578066268,
          -0.14268263226499905,
          0.0562919208576399,
          0.3903883797537482,
          -0.21949204882583212,
          -0.10116194915080534,
          -0.06884342458510934
        ],
        [
          0.5100100378690957,
          -0.0956547372173178,
          0.1808752007718606,
          -0.12591213063612217,
          -0.4115402766505892,
          -0.221488968805172,
          0.04981345161719275,
          0.35718008759206193,
          0.1235829951477413,
          -0.06700047783879587,
          -0.00047610956427224927,
          0.5417103468886972,
          -0.002985727890931284,
          -0.2541088394077595,
          -0.05143700193215023
        ]
      ]
    },
    {
      "activation": 0,
      "biases": [
        0.6646586657129707,
        0.39855046089197105,
        0.4537574852354115,
        0.8131298035618302,
        -0.08297842929044247,
        0.8743895348997338,
        0.06432960632948112,
        0.8535532072372141,
        0.938786184338019,
        0.6601882284988332,
        0.35383027563641045,
        0.5724977207009806,
        0.6890994073958251,
        0.17047995580855071,
        0.8259946442479495,
        0.1484187428796817,
        0.454169456491775
      ],
      "cols": 17,
      "rows": 15,
      "weights": [
        [
          0.605987593872383,
          -0.4300412888194937,
          0.4627211289971595,
          -0.32059777453447735,
          0.035592621219664354,
          -0.2605662419558227,
          0.0740384815813824,
          0.2020749967087543,
          -0.1435938017961773,
          -0.2801145828642686,
          0.26106472315581675,
          0.02068399905664199,
          0.13987374446792772,
          0.23861080081391228,
          0.17333796609257177,
          -0.32435118253844375,
          0.1986073949853513
        ],
        [
          0.12312244759045538,
          0.19470349107723062,
          0.15995674073360566,
          0.42360044549850706,
          -0.2662940421471358,
          -0.011516833575742447,
          -0.2930153526980014,
          -0.1989489838990929,
          0.19359431833641066,
          0.2999643446959429,
          0.41119389070294154,
          -0.06432988994344666,
          -0.06191145140530852,
          0.20070939021461426,
          0.0865059342701423,
          -0.3604669686148525,
          0.2960430822645563
        ],
        [
          0.05869199627988401,
          0.3526625975432053,
          0.1790795199840213,
          -0.030636784949010377,
          0.423872081208348,
          -0.32728653236318,
          0.34965696095681215,
          0.26485339066590524,
          0.18174638956827466,
          0.15906687695378477,
          -0.020322884540876437,
          0.1493089113014722,
          -0.05329489315095923,
          -0.0355590343882785,
          -0.2955477519660686,
          0.040070434813142534,
          0.0776316687289064
        ],
        [
          -0.29410664821503935,
          -0.41913170591070564,
          0.0834660946154337,
          -0.251426945564109,
          0.3254186232978436,
          -0.1415487596968338,
          -0.4322684007225339,
          -0.30661619229420656,
          -0.24812223641764963,
          -0.13130465450720127,
          -0.27041448964719955,
          -0.34754633891643694,
          0.4110994412027563,
          -0.12697592170301086,
          -0.1789932394336463,
          0.08056051552144625,
          0.38700679798338383
        ],
        [
          0.21486451699704537,
          -0.09084591530537511,
          -0.15384382737622268,
          -0.3956671024583781,
          0.3583077890071265,
          -0.042511116712188574,
          -0.04892482065676209,
          0.4152736483402454,
          -0.2807944415318087,
          -0.21094900819713813,
          0.043764551453175676,
          0.12917988353262042,
          0.1917100505590263,
          -0.19742235170697023,
          0.23138948649117724,
          0.3813171482896447,
          -0.29388205659193783
        ],
        [
          0.34088248380797176,
          -0.03955074960723248,
          -0.14770104254564348,
          0.40978253298369993,
          -0.12765144642231685,
          0.22682500979585518,
          0.3719230152250344,
          0.2891016732661993,
          -0.22624286127170642,
          0.2837578642557104,
          0.13297562927249257,
          -0.4279009499364356,
          -0.3900290254376374,
          -0.1596861059515388,
          0.4047856174758335,
          -0.39996273830660384,
          -0.017339006906320932
        ],
        [
          -0.4037194612937393,
          0.378888341343121,
          -0.3745889030940414,
          -0.2783055133583177,
          -0.2923356098995767,
          0.012494492057064382,
          -0.06069489383677972,
          -0.3288361862860977,
          0.26165502330441337,
          -0.07519727451716468,
          -0.28613482704239446,
          -0.2519855638685622,
          -0.2652857618282889,
          -0.029159049679405045,
          -0.2552317868231289,
          -0.08429199178024152,
          -0.42671869158298265
        ],
        [
          0.07501621009690662,
          0.049809619514582154,
          -0.3563494722259454,
          -0.07573768511397577,
          -0.001008456232317601,
          -0.1573054665002606,
          0.31640845786461724,
          0.26548126061448957,
          0.09220745406603509,
          0.023070502126014962,
          -0.22505964934254238,
          -0.23011014159776083,
          0.0347148801524121,
          -0.3073121742818577,
          0.3353334178627522,
          -0.026706373858628556,
          0.15863292143778956
        ],
        [
          0.14266251978221559,
          -0.2809047797290883,
          -0.015491787939947689,
          -0.17262403229232035,
          0.21167689102520404,
          0.4158013019873453,
          0.1348273939585774,
          0.41802997319973284,
          -0.32744057981113994,
          -0.3456801430975054,
          -0.3478894092628285,
          -0.0823504142694947,
          -0.22224653771461603,
          0.2973741463705738,
          -0.3693823452549767,
          0.12360523136234293,
          -0.21597181443830635
        ],
        [
          0.07264413335547895,
          -0.16340797636011783,
          0.35363064984750386,
          -0.35126004866214183,
          0.22973474906963162,
          0.1753589187101827,
          0.18055878130591765,
          -0.013993061328672732,
          0.02602543609289344,
          -0.010549480170550208,
          -0.34227182617716384,
          -0.4041647715367766,
          0.25160450410226864,
          0.3069678698422765,
          -0.19688599687841699,
          -0.07321729853676419,
          0.2970072795341304
        ],
        [
          -0.15902218406225527,
          -0.1254722244923925,
          -0.12464599096959972,
          0.11032520800872911,
          0.33514944032612914,
          0.2111229118797571,
          0.12695928237702125,
          0.4082318364144782,
          0.15347504661037326,
          0.18873399717245354,
          -0.39088452567667065,
          0.3592914665817662,
          -0.01973735894515946,
          0.2405289143179444,
          0.0594267451594997,
          0.13358705138272975,
          0.008549441117022652
        ],
        [
          0.1370777207895456,
          -0.2548402068428916,
          0.584649286597968,
          -0.22838844572219702,
          0.1752578369483722,
          0.33807493810195505,
          0.03110396734068497,
          -0.2583270751079847,
          -0.1684263303505459,
          0.5198419936464787,
          0.012719420235219702,
          -0.4671848287373382,
          -0.11954360348233845,
          -0.2212424814028172,
          0.09897549144994608,
          0.15288627438865116,
          -0.02772623327354213
        ],
        [
          0.2053500692172839,
          0.11019455242920403,
          0.04309661639406258,
          -0.0694931660659045,
          -0.04172487628926713,
          -0.2255585776436101,
          -0.14232789041725308,
          0.029353560861600216,
          -0.2559921601066952,
          -0.2941190351908626,
          -0.08542437751149558,
          -0.09013196339798121,
          0.2664132572941239,
          -0.18354407072088638,
          -0.04437770578485597,
          -0.3968323609957035,
          -0.33768328068851605
        ],
        [
          -0.006425783077989479,
          0.4523376770342003,
          0.14151475935790706,
          0.022790439584294872,
          0.14547280132923485,
          0.252343446470888,
          -0.10047685820535612,
          0.30645151047348235,
          -0.23781681576835298,
          -0.23509009777944315,
          0.08468498671915128,
          -0.27411681091165724,
          0.01642027021464306,
          -0.11886329772200291,
          0.4899531816266925,
          -0.23045128113827407,
          0.32208099427350895
        ],
        [
          0.3038491029076519,
          0.3846730802842084,
          -0.2383870136467273,
          0.07022755686022508,
          0.050173008122707974,
          -0.253870178504114,
          -0.16601127258045129,
          0.3782619254490621,
          0.29182899414076174,
          -0.4196727647955853,
          -0.3938181531615371,
          -0.40532392723841554,
          0.31062851188937785,
          -0.12245706432709885,
          0.4275096200194308,
          0.2559023525318022,
          0.13350810566936627
        ]
      ]
    }
  ]
}
