{
  "layers": [
    {
      "activation": 2,
      "biases": [
        0.0,
        0.0,
        0.0
      ],
      "cols": 3,
      "rows": 1,
      "weights": [
        [
          -1.0060375503614805,
          0.3545855068744712,
          -0.08993015223466143
        ]
      ]
    },
    {
      "activation": 2,
      "biases": [
        0.0,
        0.0,
        0.0,
        0.0,
        0.0,
        0.0
      ],
      "cols": 6,
      "rows": 3,
      "weights": [
        [
          -0.0805982071557844,
          -0.68035387536172,
          0.5425372960949305,
          0.25095895306475996,
          -0.6572965374404411,
          0.27344659217475636
        ],
        [
          0.7702566727565241,
          -0.48946389255121564,
          -0.20948033334624036,
          -0.1542129132121144,
          0.01583519063856989,
          0.5741172198881095
        ],
        [
          -0.6658881711233876,
          0.5999073194854321,
          -0.002705589907710309,
          -0.2962844914044573,
          -0.035836319993603045,
          -0.16847874440916538
        ]
      ]
    },
    {
      "activation": 2,
      "biases": [
        0.0,
        0.0,
        0.0,
        0.0,
        0.0,
        0.0,
        0.0,
        0.0,
        0.0
      ],
      "cols": 9,
      "rows": 6,
      "weights": [
        [
          -0.00938395010199157,
          0.11493117893606963,
          0.13251518287267716,
          -0.432405235090248,
          -0.42131438097396734,
          0.5601340366822609,
          -0.35430774075679433,
          0.5166735185485964,
          0.2678318976725561
        ],
        [
          0.3978336442463311,
          0.12912954767618498,
          -0.3257052815222842,
          -0.5207230948622953,
          -0.058664380434305906,
          -0.5602953345394899,
          0.3510907296497178,
          0.1173714238900295,
          -0.3677728330549416
        ],
        [
          0.07017418806560784,
          -0.3070781459343316,
          0.40641873846835447,
          0.12659693140979805,
          -0.6065230509123807,
          0.37918437622756873,
          -0.028220651389492143,
          -0.5997386253441548,
          0.46236494274601014
        ],
        [
          0.5204671078984879,
          -0.2252573235153681,
          0.15999147393419277,
          0.13421644319073722,
          0.08534863440721119,
          0.32987048542959885,
          0.03716112206241662,
          0.26919339351785504,
          0.6189261664496329
        ],
        [
          0.6306744241488674,
          -0.02102156920798171,
          -0.22421979521237412,
          0.43933347463163824,
          0.04535182962036262,
          0.028054808064038147,
          -0.299087146235294,
          -0.2535113143268823,
          -0.3365113709190136
        ],
        [
          -0.2096702143935685,
          -0.3993268037578685,
          -0.2920382777304942,
          0.5918271728116071,
          -0.5131712031795436,
          -0.29466776483396434,
          -0.0010981729304731286,
          -0.5441961130703485,
          -0.3292435907325059
        ]
      ]
    },
    {
      "activation": 2,
      "biases": [
        0.0,
        0.0,
        0.0,
        0.0,
        0.0,
        0.0,
        0.0,
        0.0,
        0.0,
        0.0,
        0.0,
        0.0,
        0.0,
        0.0,
        0.0
      ],
      "cols": 15,
      "rows": 9,
      "weights": [
        [
          0.30743335597563226,
          0.49105246085256915,
          -0.07345031694204096,
          0.20759778269920393,
          0.2653500702070771,
          0.2845841281975545,
          0.45079437268469225,
          -0.3149367695743855,
          0.4039483340009806,
          -0.32673918634035587,
          0.3877056976257385,
          0.3177407350473761,
          -0.4750953488867243,
          -0.2759359757303893,
          0.4430442228648086
        ],
        [
          0.032413882451324705,
          0.11870954913027099,
          -0.47947684488234893,
          0.09593382552076779,
          -0.2613700296549918,
          0.005442616299466518,
          -0.4989782883780907,
          -0.14228623669700985,
          0.1596495544815667,
          0.49449517763894757,
          0.16965999578575608,
          0.2685339412505431,
          0.07247126082539146,
          0.34405589934627334,
          0.244253688838451
        ],
        [
          -0.2198776405862894,
          0.1513922324643434,
          0.4326680623612683,
          0.35980552754355855,
          0.15391158855236675,
          0.4740521451337506,
          -0.32809277057093233,
          -0.4047801666449663,
          0.2300621716911263,
          -0.019549422208009926,
          0.47554917120167484,
          0.24995059787759122,
          0.024480692355186018,
          -0.452499687183881,
          0.1717483078463694
        ],
        [
          -0.4835053337661109,
          0.44925102821982044,
          -0.1478758941627461,
          0.2515014245880308,
          -0.20793120037202312,
          0.39440326294601113,
          -0.2551949856594181,
          -0.14026080194872842,
          -0.34508038724077883,
          0.4328609499767706,
          -0.44507961345141733,
          -0.08030147132477794,
          0.44699641361227094,
          -0.16224249948851882,
          -0.4261900260700798
        ],
        [
          -0.274144607025266,
          -0.4379687094772089,
          -0.3501531932736529,
          -0.015556948965209039,
          0.30031534740716004,
          -0.264359666390512,
          -0.06212397784093582,
          -0.3632983522784423,
          0.2339316442301178,
          0.09398625958430873,
          -0.4530632779714946,
          0.3731714444575698,
          -0.33127641856264156,
          0.19031109646442868,
          0.024231840169165242
        ],
        [
          0.4515897263547358,
          0.05989981655026777,
          -0.024719350284300445,
          -0.46564125826845004,
          0.4000438721385058,
          -0.09291302533490259,
          -0.11769557260800878,
          0.04459325622049781,
          -0.3108554244091992,
          -0.372935166523296,
          0.36548713309014547,
          -0.10753300162383028,
          0.23723321768326366,
          -0.44140172234801656,
          0.26453772315966795
        ],
        [
          -0.1314691559558125,
          -0.2637832396495078,
          -0.45812022823752846,
          -0.03262771783984625,
          -0.4626409681339939,
          0.410783196292251,
          -0.10948882280359457,
          0.47885729790611997,
          0.45288195458840674,
          0.07865624296416351,
          -0.25775415392487966,
          -0.3071582917157366,
          0.17868960261283895,
          0.36125249688571903,
          0.08551314453851111
        ],
        [
          0.39789585065929955,
          -0.4049087892774999,
          0.3733240118591692,
          -0.3740537342960265,
          0.3932485719645622,
          0.03318008386212401,
          -0.1786448600136884,
          0.15460590815851738,
          -0.4129892326486247,
          -0.02452450130345507,
          -0.0740650154529442,
          -0.409408866385654,
          0.23615111398331412,
          -0.4292848417206131,
          0.219420258756457
        ],
        [
          0.4355620308479118,
          -0.3020213869409735,
          0.4566673170573392,
          0.2788876866823471,
          0.3287490083969892,
          -0.3423305292810921,
          -0.48416225006066366,
          0.46149842020193976,
          -0.11003312543501759,
          -0.183293407169773,
          0.18928528236657627,
          0.06518265631291209,
          -0.008227282440395667,
          0.009665201655433164,
          -0.20371108022691264
        ]
      ]
    },
    {
      "activation": 0,
      "biases": [
        0.8855305888297312,
        0.8046875000000001,
        0.14843749999999997,
        0.42187500000000006,
        0.7469368460863144,
        0.2717110704681416,
        0.8303017667121994,
        0.4382505671572226,
        0.6203026872834224,
        0.7762595415115358,
        0.2649920880794524,
        0.5853181481361388,
        1.0,
        0.6666666865348816,
        0.0,
        0.6666666865348816,
        0.510859727859497
      ],
      "cols": 17,
      "rows": 15,
      "weights": [
        [
          0.19734521523534213,
          0.11383773679188826,
          0.18664048950333215,
          0.0099993076851421,
          -0.29045564281549885,
          0.07165537323024972,
          0.020891250782970446,
          -0.022212704308967646,
          0.3973154863750973,
          -0.09471879216388043,
          0.15584320116918207,
          0.07487732076978623,
          -0.09859340158123626,
          -0.27106997767274676,
          0.26727604533639976,
          0.4034103614850855,
          0.38167156783143025
        ],
        [
          -0.09626403400414149,
          0.2207253014409299,
          0.12269457526620367,
          0.04943593000267366,
          0.09721233279177964,
          -0.3294787833474903,
          0.37896337668626595,
          -0.07197228972585046,
          -0.24050907554510836,
          -0.18404774254076328,
          0.3958610063013805,
          0.12821847900821134,
          -0.3527029362069507,
          0.2865345640769831,
          0.03472453898732071,
          0.005059251462770905,
          0.10387471151228367
        ],
        [
          -0.1741652382749343,
          -0.3226884948261805,
          0.12124008833682029,
          0.35131332566021306,
          -0.3422597097946744,
          -0.1834799235695849,
          -0.3793728684738579,
          0.1992156644917431,
          0.3705521791228563,
          0.15233343540592095,
          0.42878103524490274,
          0.2967720753251916,
          0.06564007426187289,
          -0.18085200340800328,
          -0.08579539081294114,
          0.16034976391527372,
          -0.08493764247600682
        ],
        [
          -0.029294895418184218,
          -0.37445404546070055,
          -0.07561042784577421,
          -0.03813863110057212,
          -0.21821058285242398,
          0.16938744237239237,
          0.4252476246908905,
          0.16346208208729598,
          0.28179590394873577,
          0.29695528051296405,
          0.325474470767607,
          0.4079695959142171,
          -0.10363630207758269,
          0.16954600506828943,
          -0.03083609201189009,
          -0.07257445316693481,
          -0.3370916574918588
        ],
        [
          0.4091474599233969,
          -0.04253275647877421,
          -0.32519345215530365,
          -0.1371741068313587,
          0.15231902640787318,
          0.26924171334916924,
          -0.17082925317427414,
          0.2746328369441796,
          -0.14917563069270642,
          0.022997571667615225,
          0.43297988865560716,
          0.421876768847096,
          -0.23824200742657528,
          0.33612873193794046,
          -0.379006980742071,
          -0.39506584818392565,
          0.03870409212572237
        ],
        [
          0.29965288408928575,
          -0.3770800165966017,
          -0.04002709059634657,
          -0.12558864046981158,
          0.05478325032427373,
          0.16274148579626285,
          -0.253044554610938,
          -0.1613116502307939,
          -0.0512810963672861,
          0.2728569297495285,
          -0.11847936584814354,
          0.33287322994325236,
          0.36804828079258217,
          0.23188879507224355,
          -0.35348049744139926,
          -0.05493961194792496,
          0.11459811490297227
        ],
        [
          0.3282998821162849,
          -0.009934044562246417,
          0.1664270877122747,
          -0.2643713534463223,
          0.15708397721089604,
          0.28792662653270834,
          0.13092863934278143,
          0.36063382012410183,
          -0.18610987946086552,
          0.30190526172416693,
          -0.2902985093244459,
          0.07626720876938299,
          -0.23200395131684282,
          0.24066174922341546,
          -0.012450536348748898,
          -0.18697757456345473,
          0.010019157662805306
        ],
        [
          0.28827121774118425,
          0.18141597272076124,
          -0.12199104353583083,
          0.2870094456156652,
          -0.4010511552241242,
          -0.1671442122130981,
          -0.05290958213077744,
          -0.1391862615060918,
          0.13501437062548752,
          0.07889302504787432,
          0.14007870556502555,
          0.10538018605037608,
          0.42198345915002117,
          -0.402641879169558,
          0.32198330241139783,
          0.2740946457443019,
          0.38305450458839196
        ],
        [
          0.4282478059345291,
          -0.2171932071749005,
          -0.4213379489422656,
          0.006253383162189886,
          -0.19104819757012212,
          0.19363521117905966,
          0.1567428146422578,
          -0.16888151111650654,
          0.1999691873395242,
          0.0701787856481931,
          -0.420268458503793,
          0.10283620949329016,
          0.39396634363717703,
          -0.07955803115827799,
          -0.2193846205931045,
          0.31958829505302017,
          -0.03579311641231498
        ],
        [
          0.0237434891615149,
          -0.06915603714444551,
          0.06281887269574798,
          0.3115369490086133,
          0.275140671655727,
          -0.09647313546422397,
          -0.07279261983460514,
          -0.426309133520369,
          -0.16246047202325362,
          -0.03174956522313837,
          -0.14878880736829003,
          -0.2185330000122669,
          -0.23789982578326413,
          0.01139376599469898,
          0.33885100583207833,
          0.2309206850212946,
          0.3127480884069875
        ],
        [
          -0.180888807045838,
          -0.09942440797922455,
          0.11182618420599044,
          0.01191070704783371,
          -0.2863876910991496,
          -0.224431862742767,
          0.2683339872028854,
          -0.34944156818131933,
          0.10494483751137548,
          -0.1432939740722177,
          0.38788069060855895,
          -0.07039375636541488,
          0.056917333432361154,
          0.10341083654465445,
          0.08579973327280618,
          0.4241187948287196,
          -0.4170791153046753
        ],
        [
          0.4170126677645597,
          0.4030043971395849,
          0.18755173784913878,
          0.13138507873509578,
          0.051269930502803984,
          0.3803417673297378,
          -0.37097999046136676,
          0.31985204262811684,
          -0.285863455213502,
          0.07482569276116406,
          -0.32847263120270315,
          -0.11716166398486226,
          -0.3484481841106209,
          -0.08705558936134344,
          0.10381981496380216,
          -0.09051386342276496,
          -0.239072694431156
        ],
        [
          -0.011685708506781673,
          0.11021972690903586,
          -0.15041174488114767,
          -0.17576134956447442,
          -0.001554804890224796,
          0.2705781779620496,
          0.3222075637666555,
          0.33359916074943174,
          0.20184842273755588,
          0.12653194187978928,
          0.27243650196392205,
          0.20568161223382334,
          -0.3048499568319983,
          -0.4263834041825984,
          -0.14155852902170668,
          0.34013190284770145,
          0.2630982553563428
        ],
        [
          0.1860637855882694,
          0.034611465252262934,
          -0.04204257067264424,
          -0.008349821401826071,
          -0.15084367647527114,
          0.10804173607944154,
          0.08567436208500656,
          0.15263061524399427,
          0.244934326456121,
          -0.33604452096244825,
          0.1639786993110035,
          -0.2825550936098548,
          -0.20693568665559944,
          0.13434221929741216,
          -0.2024130719711285,
          -0.03679921976088707,
          -0.033333949290086054
        ],
        [
          -0.0436886835647297,
          -0.25417484835956045,
          0.06724419296997548,
          -0.039332887411813046,
          -0.3733136428300724,
          -0.19781344879381665,
          -0.2712429308160643,
          0.09550439630504792,
          0.3924805605898676,
          0.31741966624104906,
          0.29716447795237866,
          0.37985605303131437,
          -0.010064022354711603,
          0.16145206557398598,
          -0.20871455348183945,
          -0.14234821914015425,
          0.07475053005573055
        ]
      ]
    }
  ]
}
