{
  "layers": [
    {
      "activation": 2,
      "biases": [
        0.0,
        -0.037084070747248836,
        -0.11400315838443924
      ],
      "cols": 3,
      "rows": 1,
      "weights": [
        [
          -0.02195989523517811,
          0.7559078718749943,
          0.027886010421239227
        ]
      ]
    },
    {
      "activation": 2,
      "biases": [
        -0.20314808934642062,
        0.0,
        0.0,
        0.0,
        0.0,
        2.6087215853691003e-05
      ],
      "cols": 6,
      "rows": 3,
      "weights": [
        [
          -0.714499569184316,
          0.44738076343691047,
          0.13825231040516844,
          -0.31227883260131206,
          0.1626228669429105,
          -0.7073986304588353
        ],
        [
          0.28262745906000725,
          -0.805019260202684,
          -0.1426883406431636,
          -0.030317326829380212,
          -0.428028236529837,
          0.6121677282725885
        ],
        [
          0.514596031516237,
          -0.6103602540885075,
          0.7040135760083301,
          -0.04944552249166905,
          -0.5356933837055731,
          0.16461855751210663
        ]
      ]
    },
    {
      "activation": 2,
      "biases": [
        0.12466880286442009,
        0.0,
        -0.11923083350095891,
        -0.25730865709805756,
        9.285346714132356e-05,
        -0.012825739874763814,
        -0.33848404155658646,
        2.096812435999307e-05,
        -0.07914639326473967
      ],
      "cols": 9,
      "rows": 6,
      "weights": [
        [
          -0.06230351902506441,
          -0.4369004545984053,
          -0.24091204087546333,
          0.13825713455158786,
          -0.580251064682952,
          -0.5242197198398758,
          0.20151481045684247,
          0.15314864367951625,
          -0.3895526669361922
        ],
        [
          0.4608077838429303,
          -0.1772135244212984,
          -0.0259823013261266,
          -0.24816287621080094,
          -0.6243141619785773,
          -0.18973919442871537,
          0.5313759783601315,
          -0.04096588512388398,
          -0.6055881257902261
        ],
        [
          -0.25402223626457227,
          0.43785092985158786,
          -0.29022128497323796,
          -0.4616822448722709,
          -0.41084393526527657,
          -0.1058482496252647,
          0.5639559832275343,
          -0.40201242447826935,
          0.6197023936493449
        ],
        [
          -0.2768836713534142,
          -0.29199272821600447,
          -0.2520735015014024,
          -0.5290225791209029,
          0.09547874017048884,
          -0.5265753731272276,
          0.4296070485027876,
          0.5320860415193795,
          0.060428533964132905
        ],
        [
          0.023940266954828822,
          0.33314545493792136,
          -0.4121861725089053,
          -0.22261795559947387,
          -0.46095425606387236,
          0.4304191299459012,
          0.2933104899068073,
          -0.15112313996569515,
          -0.10121411090109612
        ],
        [
          0.21489338293829074,
          -0.5856194845216272,
          0.27083942911762754,
          -0.05290541491969214,
          0.46193215546992267,
          0.025895206252509708,
          0.15654952712450634,
          0.14304952824319062,
          0.1797517799780126
        ]
      ]
    },
    {
      "activation": 2,
      "biases": [
        -0.19624533243429917,
        -0.11424527171717778,
        -0.12773320139648267,
        -0.2371641622481811,
        -0.030381678324247013,
        -0.1560222628342921,
        -0.1297792434325839,
        -0.2704911696006134,
        0.0,
        -0.031256542559548205,
        0.0,
        0.0,
        0.11888829428497491,
        -0.02085783112594839,
        0.0
      ],
      "cols": 15,
      "rows": 9,
      "weights": [
        [
          0.01596856173127937,
          -0.48414215591039744,
          -0.1731380859734976,
          0.3687704086276827,
          0.30425083397157965,
          -0.1677942893291249,
          0.08619341977657861,
          -0.46436566886746405,
          -0.12774673319782442,
          -0.13015180853808528,
          -0.373861737024906,
          -0.22636452863289253,
          0.015319404763382324,
          -0.04292324923824139,
          -0.26338418143027653
        ],
        [
          0.3630667635533338,
          0.24666441592698196,
          0.34397079182973633,
          0.27804814874103667,
          -0.0855553846739025,
          -0.3560614897199261,
          -0.43391970914505407,
          -0.05538610487961493,
          -0.03934485583535624,
          -0.07623537191014523,
          -0.4942141775946199,
          0.4913672669750486,
          0.1480478721894547,
          0.4971021530204929,
          0.3020627013417253
        ],
        [
          0.053729818388560675,
          -0.31650642173016336,
          0.11113999295165622,
          0.14416189497558274,
          0.06973848732825716,
          -0.33278500463863575,
          0.10539114350007871,
          0.11303148047927593,
          -0.26899202483193574,
          -0.2878958933898792,
          -0.2576828327764211,
          0.4096560496416204,
          0.2392636277162341,
          -0.20510191181528098,
          -0.2321785496232
        ],
        [
          0.4119866153491366,
          0.29770165923890834,
          0.05973326021919319,
          0.02842773727779429,
          0.4070654316015561,
          0.015417646183380864,
          0.10174945444182264,
          0.20412438572226535,
          0.05103864965543092,
          0.33707412510974055,
          0.12462952668994176,
          0.08922632671390951,
          -0.43830094712052287,
          0.45037707980860237,
          -0.22488351712230759
        ],
        [
          0.3836908693815073,
          -0.48958043939880114,
          0.4723894768265958,
          -0.14784190368272454,
          -0.11043051290510043,
          -0.2865269038763488,
          0.2796392202282507,
          -0.12609284819387495,
          -0.19341524117319625,
          0.2003544400880421,
          -0.3515449221485969,
          -0.3731269193222406,
          -0.5304102585916567,
          -0.11284014518039309,
          0.38272772537671385
        ],
        [
          -0.3075583050062686,
          -0.3784449756510765,
          0.44993702459611795,
          0.22112480444886018,
          -0.042317690394035136,
          0.34232655020539027,
          -0.10362562379037293,
          -0.24249959445674885,
          0.27004160209095185,
          0.42183112582277094,
          -0.4155065514685151,
          -0.1441330488976711,
          0.29329799090898734,
          0.4956799531335383,
          -0.4951195935695989
        ],
        [
          -0.1893858525713661,
          0.4477105286801501,
          0.061833484964197244,
          0.38863778353348777,
          -0.12472832530046524,
          0.4419259355912498,
          0.33363840704917713,
          0.23924033350974727,
          -0.4107936573730752,
          -0.28426829668892006,
          -0.41861053133318693,
          -0.4441528231576797,
          0.14322455427093883,
          -0.1127658884028563,
          -0.47500912424875846
        ],
        [
          0.19754633258701018,
          0.26275700917277217,
          0.04892877015958648,
          0.18151820446582118,
          0.26036831412814193,
          -0.5016936246464954,
          0.1087041733743857,
          -0.34438199432556116,
          -0.20899946927512042,
          0.3016989159228091,
          0.412799883127585,
          0.12350118887773776,
          -0.22766389590644442,
          0.18428357563919667,
          -0.4783512488838058
        ],
        [
          -0.07017797071960657,
          -0.36670253419629417,
          -0.19370647133034957,
          0.0810536321164359,
          0.11074600020021114,
          -0.319385385987994,
          -0.008119154026787312,
          0.35228608634895,
          0.3459198930514603,
          0.10999131232607756,
          -0.07236427467892148,
          -0.3155185318624222,
          0.4191853599405324,
          0.13677257189376868,
          0.35056000987559555
        ]
      ]
    },
    {
      "activation": 0,
      "biases": [
        0.6540120733155922,
        0.44109621884278066,
        0.3659971124056004,
        0.9606847885333242,
        0.9370347954430301,
        0.8933275810830227,
        0.9631153070840079,
        0.9194882827131449,
        0.789977172208778,
        0.59630639327118,
        0.5605468893956188,
        0.4484382634016184,
        0.6688996358097221,
        0.009963422130596339,
        0.3384954841719992,
        0.6442559449557164,
        0.5177411169523133
      ],
      "cols": 17,
      "rows": 15,
      "weights": [
        [
          -0.11684801773476892,
          -0.09703894303751394,
          -0.2150196816184172,
          -0.2825906261270405,
          -0.07395644060604868,
          -0.3900693598371962,
          0.23754328026116614,
          -0.2004728674813787,
          -0.3647795428310018,
          -0.4193153085396923,
          0.35301353276961134,
          -0.15838423478560248,
          -0.2583329965612309,
          -0.1884876143210101,
          -0.059128732139206566,
          -0.3567554269868443,
          -0.018660963937363287
        ],
        [
          0.09004825212693049,
          -0.16681968321594573,
          0.13869997095470707,
          -0.11760608107868673,
          -0.04188061397158311,
          -0.07404886893041818,
          0.3517871641058556,
          -0.18713347627357593,
          -0.004850348497887869,
          -0.11787266459417448,
          0.36171388780865904,
          0.38601124926756725,
          -0.33554952013170214,
          0.13922972213160728,
          -0.03735998745362777,
          0.2717519874774872,
          -0.40314407571055483
        ],
        [
          -0.32879487830245835,
          0.07409865005766,
          -0.14263903242112397,
          0.2697994877203562,
          0.08171089833225018,
          -0.25226289363903726,
          -0.0668108338442563,
          -0.17265053645082812,
          -0.20621309902116486,
          -0.2834076834967763,
          0.3636014545794366,
          0.09348687251325309,
          0.18512983406434133,
          0.030571320174379288,
          -0.39298767080977925,
          0.29854118186992706,
          -0.33878249811316213
        ],
        [
          0.001146185937808341,
          -0.1704251025088269,
          -0.1214331643789944,
          -0.22973071047886667,
          -0.17335300654231978,
          0.0109228976609917,
          0.32203613228698963,
          0.2235519014227789,
          0.34724456059453895,
          -0.35870763743598083,
          0.07467885656322806,
          -0.3141838903479642,
          -0.39807383030688026,
          -0.3565270897142484,
          0.3160908599267459,
          0.05973362340627478,
          -0.4023001130925732
        ],
        [
          0.2709476062893391,
          0.0263973389225067,
          -0.05305113667486961,
          -0.35499705052332475,
          0.051112951251701864,
          0.372725560824894,
          0.02159904454377875,
          0.09874176619411341,
          0.00782526593681297,
          -0.15193618895619607,
          -0.06494925850504,
          -0.1718669233157348,
          -0.12358893894786101,
          -0.24838292871522144,
          0.20874056421452236,
          0.2907172871708501,
          -0.40223466037767547
        ],
        [
          -0.28909466223634867,
          -0.24056823370759017,
          -0.0078010255976384245,
          0.1932204479280427,
          -0.10406872776848027,
          0.2806315098597791,
          0.19974810233836532,
          -0.40911885075454346,
          -0.07996512973322734,
          -0.22839318570596698,
          -0.2352545513237049,
          -0.41921893896961665,
          0.054073738564802375,
          -0.30415077704664256,
          -0.043684976790215914,
          -0.3103542517390702,
          0.39579433711187584
        ],
        [
          0.29779991251861343,
          0.26613368416542027,
          0.3692414620459156,
          -0.3788236645695591,
          -0.36807178215759984,
          0.2945382595016678,
          0.37001439780137013,
          -0.3106230164506976,
          0.14638816204966923,
          0.03457827908253462,
          -0.22802970441054932,
          -0.1573287847238963,
          0.08237044810880673,
          0.3707690359740592,
          0.19323992635803738,
          -0.2511460763357926,
          -0.13145934915132373
        ],
        [
          -0.26108070089777685,
          -0.37578877442559516,
          -0.4154237451680658,
          -0.24660884860507493,
          -0.18366396604159324,
          -0.12854043484990224,
          -0.17595940971093008,
          -0.014377833057152617,
          -0.3151617147025549,
          -0.12264532269212296,
          0.09076727552411376,
          0.15141160295960993,
          0.14985826751288459,
          -0.1094466672708854,
          0.025226421203787104,
          0.17139482377081078,
          -0.07995928002676009
        ],
        [
          0.08069694006014129,
          0.07821892993668694,
          0.13150053662902442,
          0.15482481649884824,
          0.006547956233865818,
          -0.007707866865377272,
          -0.002706737945487151,
          -0.1052433312177847,
          0.1729821204055092,
          -0.16985276428894402,
          0.27731475596519567,
          -0.23111188028682578,
          0.0896020706563772,
          -0.03231500729438691,
          -0.15048628210782464,
          0.41832750516903516,
          -0.05141292357662919
        ],
        [
          0.0778390922837172,
          -0.0004927695285014415,
          0.03266704315177473,
          -0.2656228904681404,
          0.06628607750187802,
          0.35770122047985486,
          0.4071969980608398,
          -0.4007786698534296,
          0.06321553678409289,
          -0.2957024300614981,
          -0.11958894846032113,
          -0.1734479379693462,
          -0.07617515765528102,
          -0.12040771269677518,
          -0.42877795726629897,
          -0.4298455158799157,
          0.19632973368510706
        ],
        [
          -0.24284275614302936,
          0.3874743996107096,
          0.3383055782744909,
          -0.3761742213286456,
          0.16083463536998274,
          -0.21619860642502184,
          -0.35894087657690044,
          -0.18655343382948475,
          -0.12251304084470363,
          -0.21529977570775946,
          -0.4026769571957877,
          0.10253153157235358,
          -0.29876087234062093,
          0.3482508590726205,
          -0.0448043400619348,
          0.35846809045254396,
          -0.42845786678465786
        ],
        [
          0.1195255401645863,
          -0.2288022017808669,
          -0.42094718925541025,
          -0.3746902441445676,
          0.2824314520664052,
          0.1926160941622256,
          0.013650134434077177,
          -0.39160067248263314,
          0.33173272246125307,
          -0.2891933089285949,
          0.1969109857830917,
          -0.14310239448608367,
          -0.05869028664126633,
          -0.41351574548771963,
          0.4155578715236313,
          -0.16553789243274966,
          -0.09013458213813272
        ],
        [
          -0.3728569341390492,
          -0.7274517866475612,
          -0.21991653281766194,
          0.24084648484733603,
          0.1197681787579636,
          0.09712813381391225,
          -0.042258538640964245,
          0.1366005185268174,
          -0.017366362007058284,
          -0.25089552003095333,
          0.30754340542914405,
          -0.12626618160701916,
          0.0013683328710218663,
          -0.08684740037554739,
          -0.14848816647043944,
          0.2775328808566023,
          -0.16692319717754925
        ],
        [
          0.03444675538815686,
          -0.050284898387579297,
          -0.08078323594152018,
          -0.32555270406479425,
          0.3654857450090066,
          -0.049551774508670494,
          0.3024536995449836,
          0.10745613244706187,
          -0.11217810862249815,
          -0.42612836430101264,
          0.26332718379929354,
          0.42424312041451834,
          -0.39442585498950705,
          0.0332450780598608,
          0.03328889176399734,
          0.13595597205159388,
          -0.1936066447607483
        ],
        [
          0.04894537278072507,
          -0.42588899689895476,
          -0.13960550568102745,
          0.3811454688175716,
          0.30234090546010484,
          0.39095432023771215,
          0.3869090458565776,
          0.08381362085575372,
          -0.11972387621176964,
          0.07241724990939263,
          0.11695826079352914,
          0.41251490527470647,
          0.2508769593915221,
          -0.3525558398150416,
          -0.2342145948797965,
          -0.15989159770153097,
          -0.29135159858881826
        ]
      ]
    }
  ]
}
