{
  "layers": [
    {
      "activation": 2,
      "biases": [
        0.015122171879177856,
        0.0,
        0.0
      ],
      "cols": 3,
      "rows": 1,
      "weights": [
        [
          1.0065421433763544,
          -0.38393267971677264,
          -0.8005655089073267
        ]
      ]
    },
    {
      "activation": 2,
      "biases": [
        0.0,
        0.0,
        0.0,
        -0.0016469448068836883,
        0.03605365646584218,
        0.0
      ],
      "cols": 6,
      "rows": 3,
      "weights": [
        [
          -0.03823406496330582,
          -0.29687820509339263,
          -0.3817122633761574,
          0.7167200232225182,
          0.7234708647191548,
          -0.5995730084504269
        ],
        [
          0.7993759327678422,
          0.7951096256112138,
          0.5921223669943465,
          0.02388116624222472,
          0.2838053166127899,
          0.1772487836684293
        ],
        [
          0.4765594443205748,
          0.6244341845053617,
          0.34029372685728304,
          -0.34555678336967643,
          -0.05706946861531508,
          0.44077989094737996
        ]
      ]
    },
    {
      "activation": 2,
      "biases": [
        0.18705579781943496,
        0.0,
        -0.06889193336474862,
        0.026846843327682782,
        0.0,
        -0.03615386416321127,
        0.124882714944943,
        0.10619770139778636,
        0.07240279691627928
      ],
      "cols": 9,
      "rows": 6,
      "weights": [
        [
          -0.5440365651918804,
          0.27133705506366224,
          -0.2981499439613761,
          0.4542184900363418,
          0.03959872172704133,
          0.5965293510162847,
          0.20825163896503457,
          -0.4112042376913969,
          0.02524900485747452
        ],
        [
          0.41953096295226905,
          0.35749849216911744,
          0.5715276759994818,
          0.31189039432784277,
          0.19249636695656921,
          0.18370873286692613,
          0.0763818109743551,
          0.3644311847025748,
          0.6148181770111595
        ],
        [
          0.4426232273667995,
          0.14960356643613432,
          -0.06897000417842158,
          0.15040797294715336,
          -0.3560624452259413,
          -0.05523409397899901,
          -0.1356329823767346,
          0.29554908205744,
          0.19061866036197045
        ],
        [
          0.01230858000544469,
          -0.2560542737864833,
          -0.5909423634761181,
          0.8150097988462947,
          -0.047272809755727875,
          0.0983865018835761,
          -0.21563510435786565,
          -0.02090656712515529,
          -0.20705926251484583
        ],
        [
          -0.18406314265138943,
          -0.2767395722945143,
          0.3882062517791201,
          0.019773904961845355,
          -0.1499653302211592,
          -0.12585312969873272,
          0.2752049276855054,
          0.23433990980434502,
          0.647088876783228
        ],
        [
          0.5003510496206829,
          -0.08400897824972489,
          0.4457224692031233,
          -0.3815707441006572,
          0.5004456592095459,
          -0.5110095718080773,
          0.06184004821953189,
          0.2484379527275056,
          -0.042636098780718425
        ]
      ]
    },
    {
      "activation": 2,
      "biases": [
        0.0,
        -0.08811489783491205,
        -0.13204129563227587,
        0.0,
        0.002647670164453524,
        0.10436578560596815,
        0.07643068691950484,
        0.2554967462027668,
        0.15497183622428354,
        0.0,
        0.0,
        0.05853759296808269,
        0.0,
        0.0,
        -0.09166706738543297
      ],
      "cols": 15,
      "rows": 9,
      "weights": [
        [
          0.4898851280984865,
          -0.30196164525796915,
          0.15104779008883396,
          0.1021820793869822,
          -0.4638299723436898,
          0.4191215415594302,
          -0.5058489126480474,
          0.18842933924876126,
          0.3713257499701997,
          -0.19945642431241295,
          -0.38746844645937367,
          0.4552690822907959,
          -0.3529173749745439,
          -0.2559772831182821,
          -0.41508680369765283
        ],
        [
          0.49934795126288567,
          0.19757760208918607,
          0.006983233851838522,
          0.3742082570093722,
          -0.07041777976342373,
          0.4944412922460778,
          0.34816939469807284,
          0.4498219596919706,
          0.07924257758038233,
          -0.26412341872422185,
          -0.1821796426932233,
          0.21909763883757294,
          -0.48232119715880656,
          -0.21019736896743874,
          -0.3223849604010512
        ],
        [
          -0.45898312468034363,
          -0.3121833021598496,
          0.3573794666120721,
          0.3181755565191505,
          0.48837551613728303,
          0.08541374022820093,
          -0.3012252210707601,
          0.16164564150591534,
          -0.15863524783227342,
          -0.122298497996432,
          0.10674525499657972,
          0.37517099753109684,
          -0.3723606480622481,
          0.2128197642568591,
          -0.3244635725046602
        ],
        [
          -0.1293765025350156,
          0.5026825063365707,
          -0.31094141759019117,
          -0.4234215826370854,
          0.12888275640821906,
          0.14517874065081227,
          0.5372803146884724,
          -0.155795375087222,
          -0.13356934992036235,
          -0.4708558260327465,
          0.06750072751543523,
          0.08398443754537797,
          -0.26541198220355994,
          -0.13822213496930064,
          0.024605167889248575
        ],
        [
          -0.4308781060068301,
          0.4531826376696968,
          -0.08053818651500072,
          -0.44653938149406547,
          -0.4736174465965561,
          -0.04268750527067461,
          -0.27680623753778927,
          -0.2688208640407868,
          0.2955156405435482,
          0.3261318676295373,
          0.4847273519191553,
          -0.34608461700663185,
          0.22081510476805977,
          -0.09942242903608012,
          0.47113217132684415
        ],
        [
          0.23167234320737062,
          -0.35895117036169116,
          0.394699242382636,
          0.012615229241836445,
          -0.08842494831812797,
          -0.44872851706110883,
          -0.28144159300969523,
          -0.07255190082150413,
          -0.2662567399980236,
          0.29829924963335475,
          -0.18739629475744268,
          0.35610079428395874,
          0.23946583677989708,
          0.007235190601663333,
          0.3184034902688132
        ],
        [
          -0.2829277137214913,
          0.4327951367559193,
          -0.31506979966046716,
          0.024157867545335443,
          -0.15765315148868267,
          0.2625322798719966,
          0.0653885534753007,
          0.4054655032248998,
          0.09017378848316797,
          -0.48451141220727534,
          0.43047401166077426,
          -0.3547987887707464,
          -0.29768124027069714,
          -0.39815155784513406,
          0.38497962667456603
        ],
        [
          -0.16608451710365923,
          0.14659425049692523,
          -0.26346809167674073,
          0.02127983445361248,
          -0.29328396732207135,
          0.40046767766324826,
          0.41203814361750424,
          0.20109991141421196,
          -0.3360115262528532,
          -0.18330496767689708,
          -0.023286017367283807,
          -0.04079624106613399,
          -0.12860522960713378,
          0.2667672968314808,
          0.17241345902194147
        ],
        [
          -0.38247896120067637,
          0.4788356077426657,
          0.41560496671263303,
          -0.34982233813489894,
          0.15763805053956906,
          -0.12689905883662025,
          0.3458636289348793,
          0.13541750218028964,
          0.46140787262548677,
          0.1934082543912382,
          -0.36809389193919206,
          -0.14575065490730854,
          -0.4680940070972284,
          -0.4420421533016684,
          -0.2969787730972492
        ]
      ]
    },
    {
      "activation": 0,
      "biases": [
        0.7986224071130776,
        0.5870587332643175,
        0.5805383605355375,
        0.5131597533954262,
        0.3897733538178537,
        0.4348535266286838,
        0.006663761402494628,
        0.33340356396263243,
        0.8179337155450036,
        0.4418130597196227,
        0.5549382754578137,
        0.46349343204215315,
        0.8021547732317911,
        0.3731805660764544,
        0.5708133447807825,
        0.3590858658005593,
        0.27445404487043545
      ],
      "cols": 17,
      "rows": 15,
      "weights": [
        [
          -0.06466413786261399,
          -0.026425285990356057,
          0.3233234513401517,
          0.2695979341878075,
          -0.35708605985339403,
          -0.2648356881468868,
          -0.11542672262420739,
          -0.2001133797517259,
          0.43085440053703533,
          -0.014308325608628365,
          -0.16560350640446428,
          -0.40918409942850825,
          -0.17990757484578532,
          -0.25630646262113094,
          0.37956662049974804,
          0.21835774175188127,
          0.4240513540234994
        ],
        [
          -0.1784845405748483,
          0.22136367097025095,
          -0.10075612528403251,
          0.04498752800324646,
          0.16572353354735317,
          0.22201974981181624,
          -0.04618188626457407,
          0.29853525425683825,
          -0.7975132336100478,
          0.3239735054688148,
          -0.06128293921310253,
          0.06901932625657382,
          -0.4410071701012299,
          -0.12128653351913044,
          0.0548020567633127,
          -0.18442257920253238,
          -0.17761132726306925
        ],
        [
          -0.275455125199052,
          0.23317293037446155,
          -0.3702366776624108,
          0.37398161725689316,
          0.44027040147870944,
          -0.03616732904592927,
          -0.0037076298951953007,
          0.019583231463028292,
          0.01840062927170002,
          -0.34161526375007895,
          -0.3721327725389272,
          -0.2040180862804615,
          -0.21700791239060524,
          0.2691732483295725,
          0.12309446767189845,
          0.3441736751880653,
          -0.0520694674037765
        ],
        [
          0.10642248288245752,
          -0.369087515964625,
          -0.4101312521100045,
          -0.12487642301315958,
          -0.07928679598545522,
          0.06936688317003464,
          -0.39714061485496155,
          -0.32500672234836137,
          0.3432285501757512,
          0.22654438679584088,
          -0.37876834547364746,
          0.1260803429913532,
          0.3219974811397035,
          -0.02240947645762232,
          -0.34431150433683283,
          -0.2106717329695626,
          -0.16224009137855328
        ],
        [
          0.29579854543498485,
          0.0847086120511467,
          -0.37998272577020686,
          -0.4193512914652373,
          0.23940345892155987,
          0.1777584236486612,
          -0.28300903350178447,
          -0.3664632552729784,
          0.04453691266762838,
          -0.3832478800962242,
          0.1904801785419548,
          -0.130828379195152,
          0.017430901826280255,
          0.08611401810592761,
          -0.06436839693781417,
          0.42000572138093323,
          0.34713066605210907
        ],
        [
          0.2913500787506404,
          -0.050724253197950035,
          0.05985880055857298,
          0.40343829856821106,
          0.13519752650753417,
          0.1487588111903651,
          0.10350212435965597,
          -0.234765441370727,
          -0.23803684988186538,
          -0.12284735984893469,
          -0.22541759827687552,
          0.4484991175636942,
          0.23797756321522742,
          0.1687224189024528,
          0.4759305220714029,
          0.27944234020049313,
          0.20043641414348384
        ],
        [
          0.10348876486663791,
          -0.1659330817644955,
          0.08391862713144455,
          -0.02594926974824306,
          0.5561040817138111,
          -0.21744425119763477,
          0.0783921376367456,
          -0.1837153811321887,
          -0.5507072600179246,
          0.2422390501773328,
          0.10208808996210501,
          -0.1321498132341527,
          0.37677992646845687,
          0.15625443056179272,
          -0.06646894967759599,
          0.17832728483935767,
          0.12984480318095
        ],
        [
          -0.06378135846337252,
          -0.04518664641142942,
          0.18048299365979786,
          0.07760057148143996,
          0.36069099909636515,
          0.37668710861356836,
          0.06168539147612127,
          0.20097959897615256,
          0.609733636020698,
          0.46963800491603785,
          0.298021220074266,
          0.36261728183567943,
          0.0356387905809723,
          0.3205011081863014,
          -0.2703425614556019,
          0.31091633509920913,
          0.447397170959165
        ],
        [
          0.05455976311926313,
          0.19556433321231553,
          0.10036419305380893,
          -0.12375549517467405,
          -0.14156616332901284,
          -0.24027750485180258,
          0.2851283154084086,
          0.40655424949360697,
          -0.22096186025564807,
          0.24175071245470134,
          0.24026970175319287,
          -0.14659225652131488,
          0.4561635315493736,
          0.4130856204627247,
          0.2545703628350028,
          0.38898973356053307,
          0.0332521591367552
        ],
        [
          0.07220060923244745,
          0.28653256544853856,
          0.0729480591694644,
          -0.08205083822985346,
          0.16791167948669766,
          0.26904808916129713,
          0.23201638225344576,
          -0.27971928060188095,
          0.1857194907865543,
          0.23899693044343623,
          -0.10060831223393352,
          0.26864087345500887,
          0.13190054138389673,
          0.30041025498238927,
          0.3019534207655009,
          0.046115135849325584,
          0.23283470728136377
        ],
        [
          0.1740486677466475,
          -0.21444295167598953,
          -0.25394129757609035,
          -0.3159953043204304,
          -0.2851938005578843,
          0.3726013753673819,
          -0.21305670766481602,
          0.40996806990465773,
          0.23192641050165594,
          0.1955872106057718,
          0.42370987528764964,
          -0.40929517372857244,
          -0.17263464901052175,
          0.06705142574042551,
          0.02227662896378266,
          -0.035648167457142686,
          -0.3158744239975135
        ],
        [
          -0.15894130721694008,
          0.2532847924566637,
          -0.2209852714332941,
          0.4094217357145269,
          0.21346877138281242,
          0.09189230289878764,
          0.16379950784419733,
          0.23926251205379787,
          0.013295358557068536,
          -0.17868848916511282,
          -0.010097647966733707,
          -0.19139414395948,
          -0.2696734432317804,
          0.23266838733638875,
          0.30552594106761094,
          0.1410162440647214,
          -0.182771554508295
        ],
        [
          0.18577677673647544,
          -0.33935098999884555,
          0.35519994943160865,
          -0.15001235511989477,
          0.37772773271589705,
          0.02048408750236776,
          -0.16561894173612615,
          0.24546067267725102,
          -0.24053140324132755,
          -0.1467098151869954,
          0.2932785478131309,
          0.14778216161550922,
          0.3361691771445513,
          0.29155812231826755,
          0.30390155641918487,
          0.1260853480312292,
          -0.10031760938767782
        ],
        [
          0.3287059670408623,
          0.17122041371598706,
          0.33244181091102426,
          -0.25770208357108443,
          -0.36223138763787793,
          -0.40205205391194054,
          -0.15190599588650375,
          -0.2874979425081701,
          -0.004709411233343709,
          -0.17753927353492277,
          -0.2840452457331466,
          0.013932218094346983,
          0.04562597879645673,
          0.24562719076929942,
          -0.14437278337794154,
          -0.047718699651709925,
          0.11340018960028887
        ],
        [
          0.1881623391653794,
          -0.0971209426820335,
          -0.243308912116181,
          -0.2036214149140198,
          0.13624196659167878,
          0.30926242353466166,
          -0.04156038165090794,
          -0.42055533141456103,
          -0.3378913793968369,
          0.4217787907312714,
          -0.41448010557394993,
          0.3340797098615574,
          0.40639811405066056,
          -0.08596272822660862,
          0.13196298307955662,
          -0.06760318523407714,
          -0.2037950678188079
        ]
      ]
    }
  ]
}
