{
  "layers": [
    {
      "activation": 2,
      "biases": [
        -0.13095577242879425,
        0.0,
        -0.5675078680583349
      ],
      "cols": 3,
      "rows": 1,
      "weights": [
        [
          0.910740726523481,
          -1.1596235232585537,
          0.22982005117632265
        ]
      ]
    },
    {
      "activation": 2,
      "biases": [
        0.5263909793811127,
        -0.15998610138142,
        -0.035888275241291685,
        -0.41307013661926223,
        -0.15998908596149258,
        0.0
      ],
      "cols": 6,
      "rows": 3,
      "weights": [
        [
          -0.6750458542285147,
          0.3324737216569623,
          0.031282808305781264,
          0.24091966080581723,
          0.2051702407752156,
          -0.2233994008425555
        ],
        [
          -0.7380899824870452,
          0.7546882505966648,
          0.26651440851382047,
          -0.7306086929948377,
          -0.33553023622336253,
          -0.42245085514593433
        ],
        [
          0.6310828751733236,
          0.4318363164084919,
          -0.02157915036311069,
          0.5106254310878563,
          -0.5484073939957882,
          0.1227453097871432
        ]
      ]
    },
    {
      "activation": 2,
      "biases": [
        0.05155066603045845,
        0.041976626714695424,
        -0.3223180597308535,
        -0.09299154092543925,
        0.09303925779270995,
        0.10824263755178044,
        0.06892294978136118,
        0.3439792367961685,
        0.013120354322307808
      ],
      "cols": 9,
      "rows": 6,
      "weights": [
        [
          0.5608254373919958,
          0.30837435755163384,
          -0.05191751807583792,
          0.1894662694003009,
          0.25541942386835526,
          0.2706626259313728,
          0.5332311431352958,
          -0.6531714001045752,
          0.21138469567123544
        ],
        [
          -0.5192897109833376,
          -0.4902569897283476,
          0.3155629286346754,
          0.0002207641903902665,
          -0.40175668655104807,
          -0.5024433523312172,
          0.15498472141173536,
          -0.17415714122641915,
          -0.23601715679488544
        ],
        [
          -0.27777575527556636,
          0.33439630040957385,
          0.341913381534699,
          -0.621724164814583,
          -0.5886690479900936,
          0.00413418410559466,
          0.483309363072368,
          0.5009975798923193,
          -0.45791212738493
        ],
        [
          0.20907958079073996,
          0.14177478245053643,
          0.1506075395042503,
          0.24984407732420805,
          0.5000301591113551,
          0.27086536626318125,
          0.04558676922275298,
          -0.24662824614906817,
          -0.41021117274980107
        ],
        [
          0.2678740740949774,
          -0.030408396442138753,
          0.023032682801524575,
          0.016630265711183822,
          0.03348544829463186,
          0.39722784055288546,
          -0.10950745760598146,
          0.037007704323591066,
          0.6122027203835869
        ],
        [
          -0.28989434523543417,
          0.5870374438351211,
          0.46603152875681075,
          -0.1916803066825809,
          -0.33482133555727933,
          0.5438635799975357,
          0.24636777850924824,
          0.6037549449931576,
          -0.23465655368266514
        ]
      ]
    },
    {
      "activation": 2,
      "biases": [
        -0.04015790197013355,
        0.0,
        -0.058491079265551936,
        -0.06639189804226729,
        -0.09979386991594068,
        0.5719815434892347,
        0.14716406860005413,
        -0.08653000016973499,
        0.16105611925644828,
        -0.1366273784038933,
        -0.18283871408694502,
        0.0,
        0.06405349654531953,
        0.0,
        -0.21554369194710205
      ],
      "cols": 15,
      "rows": 9,
      "weights": [
        [
          0.09484057860340937,
          0.2359531888440033,
          -0.2529180411961479,
          0.16475931916443304,
          0.4837344465701535,
          0.2502122623742271,
          -0.21404224534221197,
          -0.05381045330027606,
          -0.3374480988660024,
          0.168672680700511,
          -0.18086629485751793,
          0.047044378960060085,
          0.5654417942844168,
          -0.07605898407104378,
          0.19135267273120238
        ],
        [
          0.4520027367131985,
          -0.3347550988359168,
          0.20648161634173323,
          0.41735712290927607,
          0.12484350457081739,
          0.29985991254814387,
          -0.00591699117600879,
          -0.39228861773958834,
          -0.020921493107839053,
          -0.11825546651066071,
          0.18018165655639667,
          -0.3251228182693584,
          0.5203336786926949,
          -0.32334528203278096,
          0.06437000583939863
        ],
        [
          -0.019237894806655997,
          -0.22894613525315471,
          0.2736518222514951,
          -0.46360250048507123,
          0.13681950333695564,
          0.05312701468076453,
          0.34735692474781155,
          -0.1947983492607243,
          -0.33838799774571693,
          0.33574176661073696,
          0.14115134666641968,
          -0.33920665310658826,
          0.03307933308261094,
          -0.46415512494936356,
          -0.3061302567532094
        ],
        [
          -0.33129801546749565,
          0.10230480022835764,
          -0.05358831323844941,
          0.23276768232850545,
          -0.03512821841184578,
          0.29305067101369775,
          0.09830862159593674,
          0.024143975006483465,
          -0.2871273185310192,
          -0.44946432477432985,
          0.3115922519006652,
          -0.04621876242860162,
          -0.35672230438112984,
          -0.05518502395375868,
          0.22157862340000734
        ],
        [
          -0.12813667760821365,
          0.4367774380076571,
          -0.16992863811083542,
          0.23011588491651389,
          -0.1945874028348305,
          -0.3733142276316822,
          -0.2247578241793508,
          -0.2122120660320912,
          0.06956546504607075,
          -0.3661726367968007,
          0.4322750023089437,
          0.20125986249244765,
          0.2503184970087864,
          -0.49469759082174747,
          -0.05470180218735094
        ],
        [
          -0.415550911667756,
          -0.08159940530620485,
          -0.012192590429401084,
          -0.26660159458358734,
          -0.46749496763327403,
          0.18274438748992186,
          0.38122790055404737,
          0.3507235653155012,
          -0.24812608569163294,
          -0.3137689045037643,
          0.3432044392301503,
          -0.4254910894322633,
          0.2790906393311165,
          -0.3824089411098552,
          0.05551901413088246
        ],
        [
          0.014531240968030419,
          -0.44120498138536,
          -0.40523505217395395,
          -0.1956731769413009,
          -0.14120517205738,
          -0.07353308137736415,
          0.29907523721910834,
          -0.19321939986814718,
          0.1521633693170356,
          0.1452250550361735,
          -0.19861102173130696,
          -0.228740088049667,
          0.49690328611646006,
          -0.1470732333357787,
          0.0005301724250713812
        ],
        [
          0.24608009841426934,
          -0.3321221437454792,
          -0.03533764767243419,
          -0.27530360814313237,
          -0.41481816252452236,
          0.44528472020036297,
          -0.4482926654579442,
          -0.4384535839494567,
          0.545772846957355,
          0.17106883165941988,
          -0.06183486877094713,
          -0.4346598507532197,
          -0.41941986399827674,
          0.14016732556753198,
          0.06386915154935291
        ],
        [
          -0.4876399147266708,
          0.023130069730398328,
          0.08015556939884816,
          0.04262997799169057,
          0.15114245035273133,
          -0.19925387779795942,
          0.03151810600265506,
          -0.0893854385192438,
          -0.3595920292180382,
          0.1538536998694081,
          -0.2586394333088023,
          -0.3281116093639804,
          0.0007706947565845451,
          -0.2077591864893954,
          0.44883008997367235
        ]
      ]
    },
    {
      "activation": 0,
      "biases": [
        0.6404192444564364,
        0.36521575528477124,
        0.4949453044024974,
        0.40877886562029764,
        0.644430320456968,
        0.6086686397698483,
        0.4693404939019867,
        0.5838384361371485,
        0.7617809605267017,
        0.42494267699754773,
        0.3447386243472211,
        0.5095206309242748,
        0.698859903491262,
        0.3312328905746792,
        0.2904386385399615,
        0.9201749852411192,
        0.3607300326039771
      ],
      "cols": 17,
      "rows": 15,
      "weights": [
        [
          0.4174998450789501,
          0.31641215057036415,
          -0.35440042173340186,
          -0.03956409404798904,
          -0.21043315318748082,
          0.3980529761324078,
          0.0006935080744203706,
          0.3438973677330902,
          -0.1880849201823279,
          -0.16846510148008417,
          -0.07351252037376463,
          -0.037221402407795735,
          -0.13632866795441345,
          -0.18822500953429433,
          -0.42786205277612654,
          0.023604200366309575,
          0.4204671776408576
        ],
        [
          0.36719953112294246,
          -0.42879183977542884,
          0.2712313725654893,
          -0.3240675625675455,
          -0.2397373884070932,
          0.3980290245557517,
          -0.15357040050356682,
          0.4081831737213001,
          -0.3088199805938573,
          0.039237945301754645,
          0.056508332429841206,
          0.2850491363145122,
          -0.3479800239481063,
          0.3041612406003737,
          0.1536326951228345,
          -0.12612857421882348,
          -0.28570208814670023
        ],
        [
          0.23664965909235205,
          0.36662393024790335,
          -0.16436137499202932,
          -0.16216964218856023,
          0.3592713189879389,
          -0.3585689279539344,
          -0.3035645995461088,
          -0.31090566951272924,
          -0.22898021059456028,
          0.4285605307265129,
          -0.2934752364244546,
          -0.02244695439052203,
          -0.22742043156669595,
          -0.09918860159772191,
          -0.3821968189254113,
          0.21248522268043118,
          0.3103386210067383
        ],
        [
          0.11993173697918573,
          0.29495843129607485,
          0.06806557338044064,
          0.4029045971111257,
          -0.12540493085965554,
          0.22527977161278828,
          -0.24087001738225142,
          -0.016540725251175545,
          0.15504923216378283,
          0.18059252579543694,
          0.022766266301236987,
          -0.16912861413323546,
          -0.3598796496736298,
          0.40007174934014855,
          0.15919396342860687,
          -0.1672283034672943,
          0.06600941117792339
        ],
        [
          0.4339822323267686,
          -0.029710103556771294,
          0.32246592935590035,
          -0.05106324943590924,
          -0.2884647279059429,
          -0.06415873267912726,
          0.18330876120352907,
          0.4102961480017074,
          -0.193414153238295,
          -0.21937246495443546,
          -0.13500673427775547,
          -0.29196660226648485,
          -0.049739538776191757,
          -0.0024106528213223457,
          -0.3008554264182545,
          -0.2518454843071237,
          -0.11016094251062111
        ],
        [
          0.19949615707728763,
          0.17237598213243935,
          0.410793426170504,
          -0.12086790456583384,
          0.3463541394822823,
          0.5131881881494346,
          -0.10225769235348663,
          0.36134517010092454,
          0.15043125022447304,
          0.27721699400788713,
          -0.18429162975321128,
          -0.049375429618144784,
          0.36150783090798944,
          0.30654716435014323,
          -0.010937850273917533,
          0.04005032144354421,
          0.16830965447229226
        ],
        [
          0.43434910000600796,
          0.06632041368336918,
          0.1652912779256533,
          0.5655460091376479,
          0.26914606180951106,
          -0.2739064206189342,
          0.30713943442960956,
          0.5171573176262835,
          0.059946905705971144,
          0.32860837113293756,
          0.13888998085418322,
          0.22269074838284492,
          0.27095034610834556,
          0.006358509175527008,
          0.2509725315242889,
          0.28214934762549526,
          0.11291623255720264
        ],
        [
          0.20891731684751555,
          0.113434909349653,
          -0.3487296081757317,
          0.42765776824958934,
          0.14212820895825928,
          -0.32015746632204983,
          -0.21636330792432193,
          -0.42981228307395014,
          0.04771124286039886,
          -0.1613916195741141,
          -0.0653960221612992,
          -0.20335320673733284,
          -0.12634791561829226,
          0.10083845454330603,
          0.2716926487926588,
          0.33814261191300027,
          -0.049476391848260685
        ],
        [
          0.28670670657010994,
          -0.25096141105939285,
          0.12439348636819056,
          -0.2982164071810213,
          -0.3794234697839676,
          0.10785315411636628,
          0.01575858132976521,
          0.03390886412839182,
          0.15894408586307102,
          0.3294205965495621,
          -0.09408318988874668,
          -0.2921030253099021,
          0.1140474640455748,
          0.35718026279444554,
          0.1345312214003806,
          0.12079526332692016,
          0.03703214181228774
        ],
        [
          -0.3563389942817184,
          0.38819466202734565,
          0.22524321719019785,
          0.1941609199863481,
          0.4133706768588371,
          0.04905283131643303,
          0.3280997457264114,
          -0.20010363423653202,
          0.01967341058290522,
          -0.24943486198394785,
          -0.34432992818570357,
          -0.0873471628518197,
          0.36612629653900586,
          -0.1438058206857155,
          0.18514000569019784,
          -0.17228331248050122,
          0.24970899974603442
        ],
        [
          0.3393570635146446,
          -0.20592102561172393,
          -0.029225869652860132,
          -0.2736608480146588,
          -0.07744276073745583,
          0.4804007036572128,
          0.009968077453929644,
          -0.1793676328087887,
          0.42491277843703207,
          -0.1475565534337724,
          -0.09545412989077513,
          -0.03131200881233437,
          0.41403581603545264,
          -0.33085721340284563,
          0.24807280155326708,
          0.07052025101984258,
          0.22163543117754092
        ],
        [
          -0.03722353188652146,
          0.34065055378473547,
          0.2244467871256316,
          0.1717712270045828,
          0.056308601859421145,
          0.24095824833412513,
          -0.4069492255202229,
          0.384220663555077,
          0.3132990710708751,
          -0.17044301298479125,
          -0.23148951782457744,
          0.11386682538517634,
          0.39552356232694885,
          -0.3547984057812269,
          0.3039110571632377,
          -0.30462371418909967,
          0.2021110367080203
        ],
        [
          -0.12514074618283136,
          0.16908102783341813,
          0.05436994079048876,
          -0.32727756803753005,
          -0.026868646668716262,
          0.1697591599039608,
          0.20388498234937463,
          -0.08642767552042771,
          0.07740348679177816,
          -0.1916885174339836,
          0.9612888450318919,
          0.6319936968824877,
          0.017256551066462546,
          0.2108097597004342,
          -0.010111189384675739,
          -0.013631633224521537,
          0.011113410519648417
        ],
        [
          -0.24181236316777335,
          0.392676332617751,
          -0.3134779567854293,
          -0.41192265956351265,
          0.03450725791046231,
          0.2637679644540186,
          0.20540579949209933,
          0.4083731389995925,
          0.10463714793643894,
          -0.18779295891368555,
          0.3901599339876591,
          -0.3640874928234264,
          -0.1591591265894367,
          -0.42222008651468645,
          0.04212684778515519,
          -0.4078491055577461,
          0.33514100338889385
        ],
        [
          0.18207321345075822,
          -0.23118273217932006,
          0.31018959385571604,
          -0.12603168699974204,
          -0.22713473209047658,
          0.030285937346891372,
          0.2806276960754524,
          0.3063100625689849,
          -0.15688935063202744,
          0.43230222045123046,
          -0.1420779268387643,
          0.15679059095671047,
          0.18755346543445944,
          -0.0006722750127128813,
          -0.3738233872996084,
          0.015665099329660478,
          0.061671361548175554
        ]
      ]
    }
  ]
}
